325 64
156 0.6543054 1.4768265 -1.2205995 0.9734838 -0.605072 0.82112205 2.145418 0.2505973 0.68051225 -0.44153312 -0.103447616 -1.1091384 -0.23584387 -0.85996544 1.372715 0.9356039 0.8763507 -0.19984877 0.6000974 -1.2925326 1.8228151 -1.1201357 0.89693624 2.4434793 -0.32014027 -0.20760274 -1.6650412 -0.48971808 0.009139313 -1.0061313 0.7676897 1.8043748 1.2764225 0.13306391 0.480055 -0.805701 -0.25576913 0.7307056 -1.0182179 0.23255727 0.7008126 1.4563771 3.4940257 -0.8638191 -1.5503982 -0.25979796 -0.2771042 0.7906072 -1.033531 -0.12014552 -1.1245062 0.72349447 -1.5549883 2.239476 -2.0981677 -0.23022719 -0.7680872 -1.0979676 0.03512809 -1.1758486 2.585171 -1.4592365 0.23520406 1.5393145
115 -0.64704967 1.7346445 -0.6477828 0.70356894 0.6626001 -0.839422 1.2989788 0.29681936 -1.7607464 -1.955403 1.1074027 -0.2791248 -2.0206594 -2.0559618 0.23943056 -0.11194593 0.37998992 -0.65196383 -0.19479753 2.7027838 -0.3331524 -1.9372474 0.18191326 -0.02795174 0.59589446 -1.2388573 -0.7569163 0.82554513 -0.99559355 -0.9229694 0.35415792 0.472876 -0.79147035 -1.1905034 0.5712232 1.2346467 -0.35419986 1.8942298 -0.08844139 -0.8353476 -0.35792646 0.06977666 -0.7263504 0.2745658 -0.76876307 -0.05335489 -2.1888747 1.1998587 1.0152403 0.72185487 -0.45173818 1.3620956 -1.8284565 -1.5123283 0.3462496 -0.52619153 0.856994 1.9442011 0.27154967 -1.2137395 0.41443726 -2.1558821 -1.1813627 2.2823167
70 0.64898133 0.36978158 -0.24471085 -0.23852272 1.0243376 0.35669568 0.64646375 1.0871664 0.5677645 -0.83145696 0.15177424 -0.88409394 -0.16251521 -0.84511596 0.23511103 0.74577683 0.17091146 -0.48541614 -0.74589705 0.50723165 -0.5497947 -1.1667882 0.7938107 0.39567432 0.6533484 -0.5190589 -0.81722665 0.36225578 -0.2574742 -1.3503358 -0.23744234 -0.07333973 -0.7721771 -0.31032193 0.8845006 0.5552615 0.90207165 0.6281276 0.4810113 0.35121208 -0.068079405 -0.13586947 -0.21618684 -0.47880295 -0.6361744 -1.1860688 -0.5991362 0.20661426 -0.25333807 1.4478034 -0.35445336 -0.6912037 -0.1659861 -0.95038974 0.67839354 -0.1881013 -0.27538696 0.5781881 0.105715096 0.8548654 -0.08953742 -0.6086209 0.7036858 0.76296407
172 0.6345857 0.39007005 -0.2797374 -0.18136624 1.0351048 0.35270137 0.7623984 1.1141434 0.58304477 -0.88002783 0.1590093 -0.93839705 -0.20437746 -0.89169365 0.27185968 0.778077 0.14755514 -0.53133345 -0.7792952 0.49122915 -0.5738867 -1.1905855 0.8433651 0.49098715 0.718979 -0.5254553 -0.890199 0.3995265 -0.32546672 -1.4370685 -0.24146956 -0.096650675 -0.80507857 -0.282382 0.8993821 0.5637884 0.96134657 0.64558196 0.5395466 0.33789876 -0.08319574 -0.18799965 -0.18666287 -0.4974301 -0.5921879 -1.2792011 -0.623115 0.15975861 -0.2224372 1.5881525 -0.4040582 -0.79623365 -0.09330548 -1.0765903 0.6855271 -0.22904411 -0.25101626 0.5458335 0.070555836 0.89567304 -0.06585287 -0.58931714 0.7615439 0.7972268
308 -0.67253613 2.2122447 0.5799542 -1.0255662 -0.93921036 -0.2609964 0.55748135 -0.84628075 -0.36906996 -0.57264835 -1.025149 0.11935967 0.6511895 -1.0979743 1.017996 1.4084482 1.2093668 0.3137202 0.80974764 -1.4611499 1.5641086 -2.5542026 1.4346741 -0.5012607 -0.09622327 -0.79274213 -3.4531934 -0.10583303 1.3871527 -3.1613176 0.91978246 1.4719617 -0.06720299 -0.06997408 0.50758684 0.8389907 -0.16253035 -0.17879647 -1.3836076 -0.07805445 -0.3200007 2.0516865 -0.6266565 -1.685495 -1.5375491 -0.6323825 -2.1311407 1.0575683 -0.3850653 0.73019767 -0.312874 -0.3327264 -0.2167985 0.0005504858 -2.053609 1.0609647 -1.7565274 2.3309426 0.103040874 -0.1620217 0.5588079 -1.4180386 -0.7773234 1.0814128
131 -1.0347667 0.39643702 -0.9216627 0.5718047 1.5138512 -0.19537133 0.78386986 -0.28345722 0.2012965 -1.5162499 2.4377363 -2.034059 -0.5281068 -1.693244 0.91693026 -1.7648431 -0.27506053 -0.72943676 -1.433461 -0.7699001 0.6231643 -0.42259967 0.7790769 0.97631794 -0.03535662 0.16532513 -2.4544966 -1.0845227 1.3841335 -2.4695683 -0.36784554 0.9439439 1.2934862 0.9145537 1.1988747 -0.1129472 0.92968524 0.7670256 -0.988356 1.3681173 0.95918876 -0.8631372 1.188711 -0.74485743 -1.0144333 0.5263542 -0.8742983 0.7503765 0.19847992 -0.75196034 0.8138127 -0.24439295 -1.6330703 1.2066178 1.631647 0.9760932 1.0181034 0.5412888 0.43054196 0.09052895 -0.47412664 -2.25179 0.25035742 0.7805328
47 -0.027535195 0.8275647 -0.43465462 -0.1194989 0.13035107 1.1446884 0.7283402 -0.5187683 -0.5657802 -0.8808645 0.28151035 -0.8009786 -1.5011668 -0.58866495 0.003484375 0.5258491 -0.20732123 0.28100565 -0.18811923 0.42178914 1.1781441 -1.3073635 0.47811246 0.6905166 0.17632958 -0.1360831 -0.062311083 0.005323947 0.33419016 -0.2295351 0.82823366 0.1785923 0.42938563 -0.06159405 -0.614252 1.1535779 1.0287374 0.3716647 -0.32582194 0.5876245 0.31718642 0.26492003 -0.17948873 -0.2968411 -1.4700549 0.98129267 -0.6497932 -0.01166401 -0.348583 1.0089498 -1.0582347 -1.0878148 0.014977271 -0.94413346 -0.67547315 0.8364699 -0.11399449 -0.22736609 -0.061861522 0.3388741 0.6743628 -1.5599307 -0.6335228 -0.93677723
255 0.09918758 0.8662734 -0.3620568 -0.11451264 0.13164127 1.151953 0.67252725 -0.5388802 -0.5040456 -0.91237915 0.33720753 -0.72126144 -1.5365981 -0.51264757 0.051450845 0.56173474 -0.26677677 0.25753418 -0.11439913 0.39018682 1.2164415 -1.3586301 0.3853869 0.6865168 0.22014973 -0.16348426 -0.09427611 -0.051562443 0.3586505 -0.22241534 0.7717795 0.12538762 0.48874012 -0.11074667 -0.5227675 1.1614679 0.9837497 0.42368048 -0.318025 0.5681358 0.33198225 0.22762941 -0.17286539 -0.36255947 -1.5386134 0.9922102 -0.73117715 -0.020465914 -0.33089277 1.0680966 -1.041246 -1.0176045 -0.0022422646 -0.9674005 -0.72096854 0.7903926 -0.08082402 -0.22155102 -0.09983806 0.34955314 0.6870829 -1.4838556 -0.65247566 -0.96419173
153 -0.3151169 0.40969896 -0.26682177 -0.55874693 0.85158193 -0.16559738 1.0348239 0.048002608 -0.45686916 -0.10919042 0.34992206 -0.47292665 -0.2954161 -0.6478784 0.4276721 -0.35343578 0.27733612 0.34987777 -0.41959238 0.3574825 0.07098175 -0.8711129 0.21166208 0.17772135 -0.56471694 -0.54869425 -0.63829684 -0.1315068 0.4361663 -1.1204815 -0.19808923 0.2417328 0.20143406 0.63055384 0.17344946 -0.33062956 0.099367194 0.16457209 -0.87954473 0.6784077 0.6779316 0.36553836 0.6890886 0.60171235 -0.6575876 0.5035097 -0.45577714 -0.03167579 0.6225111 0.5059598 -0.19164611 0.25156307 1.0656239 -0.50491005 -0.7436987 0.65585804 0.28667706 0.29531944 -0.05899013 -0.09212051 0.11036182 -0.2427653 -0.11242393 0.1229516
319 -0.33176497 0.37763283 -0.21742006 -0.5574605 0.87664026 -0.22092304 0.9914449 0.04949052 -0.503177 -0.17222905 0.3255932 -0.4993647 -0.24639854 -0.6464236 0.38847435 -0.40333113 0.21323998 0.29660928 -0.38737786 0.31547248 0.11986442 -0.95849335 0.23086561 0.1420472 -0.55136997 -0.59869593 -0.57629544 -0.19587104 0.39915422 -1.1548191 -0.16646495 0.24225888 0.20489909 0.66093725 0.18207757 -0.22958097 0.08130006 0.20875145 -0.87242204 0.64339894 0.77435195 0.34327975 0.76979697 0.6526456 -0.7059525 0.5438431 -0.5131354 0.043442957 0.58890915 0.51690364 -0.19676958 0.29794025 1.0294322 -0.4814532 -0.7225635 0.61265707 0.26767582 0.27262023 -0.07051816 -0.17470554 0.07225887 -0.1419168 -0.054677445 0.09296643
154 -0.37861305 0.39387125 -0.22445162 -0.5308452 0.8279012 -0.18392815 0.95817167 0.052949257 -0.5287878 -0.11750824 0.32345483 -0.48795512 -0.25129327 -0.7108655 0.35710177 -0.37255344 0.21876033 0.35008973 -0.46805218 0.32508838 0.0974669 -0.8990801 0.19618271 0.21407476 -0.532312 -0.5395272 -0.6706293 -0.14200497 0.454717 -1.1309283 -0.16151361 0.29407108 0.1609859 0.7459185 0.21207401 -0.265338 0.04648881 0.21682605 -0.9285086 0.6862343 0.7502601 0.33724707 0.7451031 0.62721556 -0.6667242 0.50446534 -0.36127844 -0.047007434 0.54222214 0.5053502 -0.21682037 0.21816233 1.0547204 -0.542018 -0.74987406 0.5838397 0.2785593 0.2660575 -0.060439624 -0.21651243 0.048060723 -0.21060094 -0.04216472 0.11450347
260 -0.0050808056 0.5029631 -0.63068837 0.2328399 -0.059908003 0.4891934 0.15283099 -0.68247896 -0.29534748 0.5926285 -0.19610845 -0.12719947 -0.6197743 -0.10464657 0.49882323 0.46046495 0.20908122 -0.16367023 0.08641534 -0.034333616 0.063133195 -0.17800695 0.5663005 0.16814448 0.104673125 0.23577414 -0.18131357 -0.3256071 0.24895541 -0.9420546 0.49103275 0.28818297 0.037071183 -0.35273328 0.8057645 0.6457587 0.4621409 -0.01672227 -0.77404094 -0.060257606 0.22570136 0.2771039 -0.107831754 0.57507735 -0.8861408 0.5763589 -0.2131997 0.1813374 0.18979315 0.75830436 -0.4625088 -0.43445936 0.056414586 -0.12927172 -0.6986042 -0.27247635 -0.6148497 0.5136009 -0.44922242 0.0062750527 0.15673438 0.02715623 -0.05346413 0.6187423
248 -0.7001872 1.2310405 0.8225519 0.16268975 0.26842016 0.26778847 0.28953323 -0.72122777 -0.33635592 0.23060757 0.07086342 -0.79607147 0.7258278 -0.56936276 1.4136002 0.0949897 -0.19429745 -0.04538213 -1.6065439 -0.30256036 2.2766862 -1.0702684 2.3299363 1.1756428 0.87854755 0.10761606 -1.406615 0.49534655 1.8086497 -1.7669111 0.7587948 1.7989501 0.43926218 -0.48044255 0.7461682 -0.39300418 0.26634285 -0.050242048 -0.18924536 0.09730634 0.7230397 0.23780692 -0.79190433 -1.0210103 -1.4905568 -0.4318417 -1.7072673 0.23425508 -0.21618268 0.078763455 -1.2362092 0.8267764 -1.0671484 0.26984754 -0.55196077 1.1611805 -1.0764666 -0.31444162 -0.9619948 -1.2268252 0.39780346 0.17880818 -0.32762182 0.29422972
264 0.009561153 0.51842564 -0.5813606 0.29349068 -0.06482274 0.48503107 0.12993239 -0.58647937 -0.3347804 0.57380986 -0.12584949 -0.13466437 -0.6154504 -0.114866644 0.46962082 0.4368558 0.21119075 -0.13197489 0.07366454 -0.09163116 0.06967854 -0.23308565 0.5515888 0.16423322 0.1202322 0.25830436 -0.1747461 -0.29725844 0.18556534 -0.87417877 0.5018824 0.35644192 -0.011695543 -0.3361367 0.8254496 0.63184595 0.44671452 -0.098318964 -0.8455882 -0.0988547 0.2522395 0.35540393 -0.07098287 0.61276424 -0.92060775 0.5875068 -0.15344866 0.15055113 0.21555054 0.76305586 -0.46306077 -0.4349298 0.013528344 -0.19206008 -0.6711246 -0.29540583 -0.5672911 0.54826343 -0.46061954 0.07105553 0.15527537 0.0006852449 0.012127836 0.6052392
259 -0.041818786 0.5323446 -0.64214396 0.24911104 -0.022351705 0.538428 0.16564159 -0.62395287 -0.32665154 0.53657794 -0.1436554 -0.09092539 -0.60412824 -0.0814367 0.46654546 0.45365325 0.25096777 -0.10475684 0.10545555 -0.12745647 0.06540516 -0.2173066 0.5013203 0.18270208 0.14548157 0.2808394 -0.19046591 -0.27334872 0.19131283 -0.95207626 0.48694482 0.30966622 0.003094418 -0.42148623 0.8305217 0.6027747 0.37259653 -0.073424995 -0.79734236 -0.1259022 0.25041252 0.2930007 -0.108372435 0.570493 -0.91200864 0.5999868 -0.19699831 0.0988586 0.20171832 0.78528297 -0.43428925 -0.4199156 0.0059734634 -0.19572566 -0.71117693 -0.29791442 -0.5656541 0.49377096 -0.505693 0.04708546 0.17098328 0.03698803 -0.09608228 0.58301723
258 -0.028002951 0.5352782 -0.5796832 0.2585623 -0.09420388 0.5078514 0.10871374 -0.60780287 -0.36765316 0.57616127 -0.1697116 -0.1039007 -0.66513824 -0.09756949 0.47252232 0.42858374 0.22802578 -0.12625413 0.1422004 -0.06211022 0.12867516 -0.20079888 0.59141576 0.15597253 0.14308387 0.26855865 -0.21148397 -0.30794427 0.24959195 -0.89857715 0.44641918 0.28594235 0.048049793 -0.3617888 0.81495756 0.6512269 0.40253285 -0.09644207 -0.8079951 -0.121514276 0.2971946 0.30651823 -0.0536537 0.6198188 -0.8952505 0.56129 -0.2167486 0.14903234 0.18380088 0.83365697 -0.49898642 -0.41039696 0.036936235 -0.15850572 -0.5995509 -0.31758127 -0.53793806 0.52571565 -0.4770135 0.047618702 0.20235485 0.0077827377 -0.0048083575 0.61536026
268 -0.008156939 0.54398036 -0.6500149 0.26432952 -0.05530452 0.49046046 0.1520455 -0.60976255 -0.35221726 0.55775034 -0.17872979 -0.07868066 -0.63333446 -0.083122425 0.4548712 0.38928658 0.248538 -0.116476424 0.14410257 -0.038988266 0.06255018 -0.24553831 0.5708748 0.11288142 0.12087275 0.29357377 -0.25430596 -0.28952605 0.25218445 -0.9321294 0.45865747 0.2484064 0.02604486 -0.40524405 0.8222159 0.6226601 0.39483768 -0.10025416 -0.74673253 -0.08574097 0.26127568 0.25940794 -0.049865253 0.59831077 -0.9121526 0.54993385 -0.22982913 0.1231959 0.17943422 0.79721105 -0.46987563 -0.42212984 0.034595 -0.1443293 -0.658859 -0.29707873 -0.5411919 0.508223 -0.49698466 0.043133132 0.14741698 0.039215572 -0.048349272 0.6047522
58 0.5738546 0.21071349 -0.43989205 -0.17921345 0.66252 0.36716598 0.052178476 0.7814715 0.3766362 -0.41450787 -0.050227206 -0.3944769 -0.11724833 -0.5512202 -0.025912568 0.4081277 0.008795342 -0.22922117 -0.33122084 0.062484182 -0.432133 -0.6195409 0.38260818 0.36711487 0.20362145 -0.42280123 -0.462397 0.26035926 0.1409165 -0.6377841 -0.06467241 0.23617549 -0.6766057 -0.06440035 0.45020053 0.3140062 0.22444679 0.7129919 0.2595625 0.0668775 0.10871879 0.093947224 -0.39699796 -0.19632612 -0.23365986 -0.14093494 -0.30139428 0.6767522 -0.060555823 0.54932886 -0.121888354 0.02085606 -0.08541388 -0.37185237 0.4261941 -0.14343378 -0.3536197 0.17409338 -0.3800394 0.66063285 0.00533822 -0.47972474 0.40755352 0.2538084
287 0.6272834 -1.2347418 -0.5436318 -0.24863453 0.8740163 0.8614821 0.90600175 0.062104817 -0.9605362 -0.08842567 1.5221574 -3.0533516 -1.5609807 -1.1139799 0.34382474 1.3621619 -1.438216 2.999086 -0.24051887 0.68723136 1.0747883 1.0965909 -0.45538178 3.0653362 -0.13131125 0.14286284 -2.912943 -0.28745237 1.6046572 -0.11132159 -0.23132707 0.8916098 0.31160137 -0.6312903 -0.6891853 0.47428626 -0.26313713 1.690842 -1.3314989 -2.4049869 0.01923474 -0.1449767 1.7873297 -0.29514852 -1.4992586 -0.79618436 -0.5161108 1.5512062 0.97704697 1.8101654 -2.5029607 0.7501731 3.7419317 -0.06790009 -0.42211747 -0.75790316 -1.2641513 -0.78543425 0.9014458 -0.34898975 2.1255212 -0.8289876 -1.9674532 0.51688737
149 0.5107296 0.2742172 -0.6621964 -0.12950797 0.43464166 0.14063624 0.039956708 0.781142 0.305578 -0.18953368 -0.060932238 -0.5113151 -0.07997158 -0.69516957 -0.18086086 0.38902357 0.02593696 -0.30733013 -0.57010293 0.19053303 -0.359886 -0.5178774 0.5158455 0.24879949 0.21225284 -0.5842557 -0.35016438 0.34207758 0.13165304 -0.48670805 -0.08877819 0.04477993 -0.23861349 0.21704243 0.35352793 0.3754218 0.3430985 0.55885947 0.20452791 0.19079885 -0.12922151 0.06919554 -0.4774926 -0.20263234 -0.20844899 -0.24060372 -0.25075164 0.69258225 0.09317714 0.46408248 -0.44738942 0.20687309 -0.020717304 -0.2110295 0.585697 -0.13495706 -0.27621457 0.38011104 -0.50591975 0.6313138 0.14769821 -0.5946585 0.5116741 0.36219674
99 0.60483664 0.15919602 -0.6354265 -0.23394246 0.38769728 0.075614646 0.027825378 0.7405692 0.3712101 -0.33428273 -0.019438572 -0.5459953 -0.18214656 -0.694814 -0.26452985 0.2594589 0.0014678903 -0.30660385 -0.5803914 0.12189262 -0.2774501 -0.62069833 0.5661924 0.27574876 0.32621717 -0.5569201 -0.3708172 0.29891697 0.14558241 -0.48041314 -0.042927127 -0.024793422 -0.3306436 0.17686753 0.3105908 0.42835402 0.32694215 0.606222 0.21441744 0.17026089 0.08929855 0.059022564 -0.47649372 -0.20936644 -0.213137 -0.18179531 -0.29914212 0.69552624 -0.05284494 0.5466155 -0.3677831 0.2793085 -0.028044542 -0.1598334 0.568182 -0.21346289 -0.2756573 0.3097039 -0.503973 0.5791854 0.1448217 -0.3897428 0.53064257 0.4275031
171 -0.5690972 -0.0011879306 -0.35316342 -0.09259031 0.34930634 -0.09896447 0.40491542 0.41920137 -0.21767156 -0.67622167 0.4172049 -0.6536993 -0.29742384 -0.46042326 0.13610585 -0.27141806 0.47895405 -0.30315477 -0.19961943 -0.032884978 0.09264351 -0.32332468 0.24279277 0.29278478 -0.070352644 -0.09162705 -0.55171 -0.4749397 0.16161405 -0.84141403 -0.6091687 0.019963255 0.18678582 0.16902632 0.39618182 0.2755893 0.37084836 0.19197339 -0.46631923 0.004393832 0.18431614 -0.23792863 -0.4289132 0.042669673 -0.13362317 0.13836756 -0.24509642 0.23754653 0.14278175 0.24639927 0.07538161 3.270438e-05 0.11562672 0.020333271 0.07144531 -0.02923311 0.64818555 0.46993142 0.12942882 0.16376866 -0.21271974 -0.6053033 -0.15366289 0.011108233
170 -0.52062535 0.061480865 -0.2966688 -0.094789766 0.3955002 -0.075056024 0.33042634 0.40693453 -0.30638954 -0.60102475 0.45445076 -0.7598364 -0.32555836 -0.5623506 0.087566756 -0.33387455 0.25193712 -0.2770187 -0.17268202 -0.1617468 -0.023071961 -0.30670056 0.14498968 0.3607816 -0.034870774 -0.012805816 -0.5531272 -0.525149 0.022462785 -0.9082547 -0.5025258 -0.020824326 0.19928451 0.121389 0.40402445 0.22136387 0.29547402 0.19744797 -0.57155764 0.036846884 0.25317794 -0.33494797 -0.4789094 0.11091693 -0.13693096 0.0060538026 -0.2649731 0.25453869 0.14264323 0.29439288 0.009505144 0.1534167 0.07118183 -0.03649085 0.032195456 0.007440298 0.561291 0.37929496 0.20889804 0.20151564 -0.21490528 -0.6022113 -0.16836247 -0.043098714
39 5.330314 -2.6181295 -6.5511107 -2.4076376 2.0459092 2.294197 4.988365 -6.9559836 2.456424 -2.5351553 5.6145887 -4.509822 -0.48283577 -1.0360109 -2.2590485 10.096204 -5.6943355 5.3419423 -2.841551 10.809257 0.883071 3.896489 3.468122 12.597037 1.5880458 6.6364393 -11.045204 4.7520022 -0.37887657 7.5343456 1.8672595 3.7209148 -4.1149383 -4.529062 -7.790623 5.63082 -1.131085 5.9612794 -3.7256386 -10.922954 -1.0116286 -1.2837366 6.6795588 -1.2643403 -1.2935836 -5.261296 2.5590994 2.4194884 4.442038 1.867172 -4.5331354 8.199111 12.722517 -5.088887 -0.91359764 -1.4394944 -0.73229206 -5.13267 0.87575084 -6.517868 6.050242 -0.5827076 -5.0351396 2.1043088
77 4.755861 -3.1215334 -5.388812 -2.2410417 1.8425683 4.30384 2.260905 -6.0450315 0.29015166 -2.8783572 6.083961 -3.1778917 -0.94434994 -1.6450156 1.2306116 5.2891946 -3.3378139 5.959896 -1.6070979 5.521517 1.8796885 4.325284 3.747797 10.918942 3.7475362 6.7566347 -8.502415 2.063301 -0.9272849 6.40947 0.542486 2.539777 -0.6318011 -2.3429003 -6.1213965 0.64722943 0.51471424 8.319899 0.010566126 -8.324596 -4.6343985 -0.18483895 4.226359 -2.2749841 -6.441724 -4.9674892 1.5714864 2.7592025 4.495263 1.9566038 -3.6532807 4.970673 6.269759 -2.6537201 0.074577354 -0.9136754 -3.0243452 -1.1946433 1.7930177 -5.609295 5.1894717 -2.0210512 -2.2556918 2.843379
92 4.7275267 -3.2073286 -7.2105823 -1.6442416 2.6835973 2.8032906 4.844119 -8.179841 2.1439369 -1.6501176 5.232346 -4.0928493 -0.4376851 -0.28685766 -1.8447685 10.566377 -5.886714 4.501892 -2.015559 10.828898 0.9203433 3.4876444 3.3158734 12.696036 2.707782 6.4299235 -11.366203 4.6550174 -0.5838555 7.3094044 1.5069094 3.252566 -4.290089 -3.9514794 -6.8593287 5.313064 -1.1351055 6.1109614 -3.6564314 -11.10204 -0.8056669 -0.9903235 6.9870777 -1.0027386 -1.5167352 -5.324227 2.6997721 2.17146 4.339337 0.9277523 -3.9442258 8.477651 13.186767 -5.0892987 -0.99150383 -1.4394627 -1.5685023 -5.0934567 0.98346084 -5.7803555 6.011465 -0.82490396 -5.4314265 2.4290895
282 4.709714 -3.113192 -5.3693495 -2.2082593 1.8464774 4.291065 2.2848344 -6.008066 0.28508443 -2.8973768 6.0283456 -3.1679661 -0.93037003 -1.6607955 1.1884878 5.287153 -3.3181548 5.9364934 -1.6139258 5.503895 1.8928769 4.315469 3.713118 10.878269 3.701623 6.718172 -8.496052 2.0578208 -0.90540355 6.400851 0.5498194 2.5305858 -0.6329548 -2.3432577 -6.102603 0.667597 0.52220374 8.255032 0.008598908 -8.290109 -4.5883536 -0.18173787 4.183892 -2.2586288 -6.3605385 -4.9649067 1.5404599 2.7352176 4.453932 1.9623594 -3.6575677 4.971809 6.2533064 -2.6461842 0.054934826 -0.89788705 -2.9989252 -1.2043508 1.7762903 -5.6160903 5.1608715 -1.9927542 -2.262521 2.834337
0 5.119312 -3.9647408 -7.5057693 -1.9598488 2.1243188 2.5632195 4.9101386 -7.8153377 2.3559418 -2.523901 5.782918 -4.571752 -1.3151788 -1.3497626 -2.2126665 10.440753 -5.4908614 5.857463 -3.0533824 10.956485 1.1740654 3.5277283 3.482665 12.970598 2.1283772 6.839725 -11.897935 4.1364465 0.0967511 7.493049 1.2214375 2.9625397 -4.7353344 -3.547353 -7.776779 6.005716 -1.8011643 5.5207086 -4.0658484 -11.712524 -1.765492 -1.6105219 7.125059 -0.844888 -1.6230142 -5.724764 3.078187 1.8917165 4.4125705 1.5275424 -4.188782 8.530529 11.916251 -4.9268317 -0.79963094 -2.4311085 -1.6655921 -5.2864532 1.1155624 -6.8265033 5.9238954 -0.6864718 -4.9740257 1.8829665
1 5.3764467 -3.1848464 -7.296911 -2.142534 2.109313 3.4484692 4.660053 -7.7837453 2.1092792 -1.7222618 4.9713364 -4.077554 -0.43064848 -1.3991019 -1.9931967 10.262966 -5.4161677 4.9143844 -2.871631 10.780798 1.0218428 3.0748627 3.5630906 13.40158 2.1426368 6.524716 -11.206579 4.1555815 -0.10801151 6.8327575 1.0641 4.194443 -5.0407596 -3.7341204 -7.6504374 5.232002 -1.1108985 5.9723287 -3.8679435 -11.33267 -1.4142323 -1.3416923 7.0341454 -0.32861656 -1.5574429 -4.755412 2.0274413 1.3926159 4.3208256 0.6121574 -3.9124248 8.51903 12.101744 -4.4847 -0.8788177 -1.5659113 -1.5403963 -5.5339885 0.5971908 -5.930881 6.583755 -0.9425436 -5.1424284 1.413073
7 -0.070917554 0.57893395 -0.5296007 -0.39089203 0.053616893 -0.033865478 0.4931262 -0.17032792 -0.27728957 -0.01725336 0.0304156 0.090643324 -0.9166024 -0.7503052 0.12934065 0.34523186 -0.3781952 0.33931676 -0.19296852 -0.40328142 1.1374928 -0.60515326 0.13810408 0.06908006 0.03327676 -0.39562073 0.09537173 -0.040902395 0.3503296 -0.123666994 0.6530468 -0.25840226 0.26052883 -0.05787084 -0.05768023 0.22610751 0.6878286 0.36046758 -0.2568018 0.2633004 -0.15155065 0.58245575 0.27324474 -0.06603011 -0.12995489 0.4812575 -0.6855362 0.3675237 -0.6360949 0.22210142 -0.71870834 -0.48586935 -0.23311645 -1.2891477 -0.3186645 -0.04883528 -0.06716639 -0.04665001 -0.06336233 0.0012217207 0.3956135 -0.7160102 -0.370355 -0.31165746
129 0.24030395 0.62335986 -0.40487 -0.13799253 -0.82028973 0.18865535 0.8697671 0.07384902 -0.4209618 -0.24714051 -0.100419454 -0.5997856 -0.23043367 -0.5186881 0.13057873 0.7913401 0.13951881 -0.2646177 0.07690289 0.024108062 0.618178 -0.75631845 -0.23113215 0.68032056 -0.041533574 0.15129012 0.035468146 0.017140374 0.32064995 -0.4948072 0.4894806 -0.39732948 0.3512223 0.4152934 -0.48884535 -0.39400655 0.3117601 1.0235144 -0.19180666 -0.33798987 0.18823418 0.3911978 0.25252628 0.3008526 -1.0947726 -0.15404013 -0.14803153 -0.033886846 -0.391734 -0.13261883 -0.1806735 0.24167061 -0.09103555 -0.23928626 -0.54472077 -0.3646662 -0.24614593 0.39292336 -0.4053027 0.12710321 0.14071624 0.06261442 -0.08178546 0.22488953
143 0.27844113 0.53732413 -0.41003737 -0.09376476 -0.6931165 0.15717031 0.78557396 0.17946352 -0.48246455 -0.26034907 -0.21162723 -0.46994334 -0.39323384 -0.38189414 0.051482733 0.8302506 0.2280568 -0.2674862 0.24829161 0.065551616 0.7044238 -0.6816226 -0.20701137 0.77302843 -0.17321917 0.23845555 -0.07998361 0.22406082 0.19433366 -0.72538835 0.33347487 -0.31793022 0.3704465 0.40241063 -0.3717007 -0.3044772 0.20555905 1.0260252 -0.19898231 -0.28113598 0.15353416 0.24802725 0.39156285 0.1963783 -0.9572412 -0.12628391 -0.13664556 -0.19882712 -0.30472875 -0.13816753 -0.23478441 0.18801323 -0.115608975 -0.2026667 -0.5616978 -0.40311047 -0.20048347 0.33394024 -0.42771092 0.12326666 0.1640455 0.10900681 0.03790383 0.23631841
83 0.0980841 0.40386674 -0.30310875 -0.024828456 0.053842057 0.51763934 0.4981043 -0.49669567 -0.45331883 -0.5345665 0.036247417 -0.23957495 -0.5366977 -0.71182454 -0.0074422564 0.40473157 -0.29189062 0.23934212 0.10114864 -0.04573021 0.97115433 -0.8067467 0.15564755 0.21270925 0.10582852 -0.036213834 -0.028979775 0.028287707 0.37283495 -0.047122646 0.54859424 -0.13793038 0.0468842 0.0988593 -0.40822202 0.6527534 0.69843805 0.42912886 -0.19585495 0.38052508 -0.2397268 0.039448053 0.12213408 0.056051012 -0.5729977 0.38318875 -0.34709436 0.0035751653 -0.47992676 0.21336041 -0.47346517 -0.27772167 0.042375997 -0.77296394 -0.51771003 0.17584997 0.041277386 -0.37558052 -0.383627 0.256491 0.27746072 -0.7259818 -0.51622033 -0.2860219
213 -0.26780525 0.7641051 0.33117038 0.27504143 0.19026251 0.39611438 0.4535886 -0.22733195 -0.06934731 -0.23377702 0.73898375 -0.060654756 -0.10443664 0.035629217 0.0041942066 -0.49228686 -0.46496543 0.52911544 -0.27953795 0.39987114 0.48026112 -0.47350255 1.0466031 0.84343153 -0.22363365 -0.17346218 0.14943194 -0.19957423 0.5360653 -0.7943985 0.596724 0.2142684 -0.08728399 -0.4063293 0.7517449 -0.23074917 0.24172735 0.28520393 -0.0770804 -0.59575975 -0.1496554 0.34311137 0.21835752 -0.36909705 -0.36731553 0.034832645 -0.42055103 -0.2896461 -0.21337488 -0.1825939 -0.41031802 -0.26087457 0.23103482 0.19921416 -0.07911242 0.08174549 -0.50146 0.28581613 -0.2912986 -0.19911936 0.511617 -0.53409195 0.17210604 0.26754186
177 -0.28948936 0.72131234 0.32600445 0.31260258 0.21542048 0.38135165 0.53918135 -0.25776547 -0.040966343 -0.18093194 0.6735411 -0.15571454 -0.10075972 0.02347877 0.10146894 -0.5215959 -0.37019777 0.46193746 -0.27885213 0.454945 0.46133628 -0.49898934 1.0041498 0.8568681 -0.14802179 -0.12317906 0.11988489 -0.27820718 0.49794796 -0.7957629 0.68730795 0.08419241 -0.15655176 -0.41108757 0.6794819 -0.1590192 0.19052927 0.2591744 -0.02044708 -0.56061006 -0.1990547 0.29116657 0.21551102 -0.47796133 -0.1929914 0.11842833 -0.46828988 -0.31452507 -0.21372387 -0.16063479 -0.41485882 -0.21237135 0.2979023 0.20353936 -0.21364214 0.16002084 -0.6276968 0.2186722 -0.31564894 -0.17936929 0.4815802 -0.55926454 0.1574224 0.32250842
74 -0.049667653 0.30536434 -0.29091755 -0.1039261 -0.16085607 0.5460704 0.50544804 -0.36211234 -0.40119374 -0.43337712 -0.014702752 -0.20337577 -0.57786775 -0.5758217 -0.14868085 0.33574003 -0.3342289 0.12764473 0.046403322 0.015000928 0.9002895 -0.80840206 0.060452513 0.33894333 0.14313513 -0.0019375003 -0.04417043 0.048951346 0.4619993 -0.06546306 0.590226 -0.07498559 0.04513425 0.24244338 -0.32597607 0.5342313 0.6943026 0.4315121 -0.2896677 0.28385165 -0.20176655 0.008583189 0.2623721 0.012135866 -0.76187 0.3008201 -0.36285928 0.055245504 -0.5377107 0.22330086 -0.4932375 -0.33585122 -0.032041814 -0.86655796 -0.45818865 0.16248386 0.114885405 -0.33822265 -0.38139907 0.14865094 0.28771892 -0.7652001 -0.6186012 -0.28728545
111 -0.2931908 0.67461765 0.24476686 0.25310412 0.16561453 0.31769693 0.5649976 -0.21308656 -0.081575654 -0.1823235 0.6865014 -0.17764647 -0.110187165 0.052243747 0.14037621 -0.5140146 -0.5007212 0.59805524 -0.2738815 0.4249782 0.4752567 -0.4955452 1.0593485 0.8300394 -0.2571029 -0.119920865 0.20809008 -0.20467015 0.5228386 -0.80196035 0.7176059 0.20058346 -0.08812566 -0.4200861 0.68955475 -0.13907273 0.15752351 0.32983536 -0.100492604 -0.5607192 -0.28032458 0.2185496 0.22613762 -0.43333083 -0.2966522 0.00939344 -0.42101598 -0.25324488 -0.24983974 -0.074321166 -0.39512417 -0.19315736 0.31109688 0.26189762 -0.057664298 0.09609437 -0.58927107 0.25490674 -0.2312264 -0.19096702 0.5104336 -0.467168 0.15014637 0.35834885
50 -0.2283648 0.54413164 0.054593235 0.13959083 -0.09669195 -0.45237315 -0.019720534 -0.35815254 -0.7452349 -0.32583326 0.47471747 -0.31792203 -0.42168984 -0.7291215 -0.2366111 0.21327403 0.23771714 -0.11517125 -0.3255531 0.4495203 0.026843674 -0.71268225 -0.013863091 0.2998143 -0.38463452 -0.37938285 -0.1859186 0.32007065 0.061168745 0.017528439 -0.01941223 0.048736647 0.9308237 -0.060288064 0.01687295 0.26489246 -0.17526408 0.56470144 0.24202639 -0.50332475 -0.009790708 -0.39819744 -0.22309099 0.2193794 0.33233505 -0.036457594 -0.83712804 -0.383553 0.51098377 0.5721127 -0.24783117 -0.023536086 -0.605887 -0.39083734 -0.17772509 -0.03747293 0.37539247 0.75700945 0.18735027 -0.65152264 0.30549356 -0.5581683 -0.73807114 1.3254724
57 -0.4300801 0.68728477 0.31792876 0.23439045 0.29593956 0.34357557 0.45969003 -0.27369547 -0.038097367 -0.16471097 0.69393915 -0.12815753 -0.1577087 0.010029033 0.0074443244 -0.48716238 -0.5018737 0.445684 -0.28753 0.28612217 0.46322155 -0.5361644 1.0158787 0.82260984 -0.20255281 -0.032552052 0.10133063 -0.1851261 0.4646191 -0.7962221 0.72203577 0.2868874 -0.13217098 -0.36049074 0.7012753 -0.07248638 0.25561258 0.25083953 0.021780899 -0.54886967 -0.23756531 0.3415724 0.19615446 -0.35758668 -0.29133627 0.026073836 -0.5095554 -0.40233576 -0.2196014 -0.17859346 -0.36546668 -0.13310613 0.26991332 0.31409356 -0.14132673 0.05393863 -0.5744895 0.24914557 -0.23773281 -0.136169 0.5924439 -0.56579584 0.13957556 0.25961292
211 -0.27559322 0.71215945 0.31068647 0.29873124 0.24551131 0.359636 0.60028297 -0.12331949 -0.072853304 -0.25357917 0.7059557 -0.07039309 -0.20747934 0.034017194 0.036497112 -0.45529112 -0.46373832 0.62793237 -0.30815727 0.45399913 0.51639307 -0.40638918 1.0928683 0.78258175 -0.17004949 -0.06524162 0.08002657 -0.29792094 0.41541842 -0.7460013 0.6888954 0.118152075 -0.019866781 -0.40982664 0.74841785 -0.23631051 0.15772311 0.35363552 -0.14321439 -0.5657023 -0.1351361 0.17581318 0.16510843 -0.45729688 -0.31316298 0.07525738 -0.3821086 -0.3034004 -0.2522795 -0.14582606 -0.26699126 -0.23579574 0.29821178 0.2116115 -0.12504005 0.13612802 -0.6538714 0.18624409 -0.38908434 -0.14458203 0.52175003 -0.520559 0.14699997 0.36027145
174 -0.3295186 0.7234151 0.36707526 0.21554257 0.30147663 0.38758767 0.45294002 -0.32222804 0.032056984 -0.17951173 0.72584754 -0.068616495 -0.09767688 -0.009201804 0.047820166 -0.4965723 -0.5046402 0.46542343 -0.22359681 0.3270344 0.5981309 -0.56632036 0.905276 0.8029276 -0.22422883 -0.10428663 0.14232099 -0.3560606 0.4399432 -0.8492778 0.7029366 0.19309753 -0.041117772 -0.4048777 0.7186149 -0.044750184 0.20854674 0.20379832 -0.031312563 -0.5927682 -0.14345746 0.29230678 0.19267914 -0.38638198 -0.33979452 -0.04856037 -0.49183252 -0.3953126 -0.24077445 -0.16480696 -0.47778022 -0.05248921 0.23351559 0.2982601 -0.0928986 0.14219597 -0.5919775 0.3145552 -0.16417024 -0.09389771 0.5474133 -0.48683846 0.16102709 0.30505973
71 0.34827995 0.4530673 -0.4298569 -0.12014877 -0.73002493 0.31126037 0.6997576 0.22284126 -0.5145613 -0.21075287 -0.271429 -0.5691825 -0.38474935 -0.41817534 0.05356202 0.71180993 0.15971564 -0.3494129 0.33338928 -0.013429519 0.6407888 -0.7089557 -0.15058258 0.7283033 -0.15220852 0.074185535 -0.059431214 0.08488583 0.13955185 -0.6431621 0.54035324 -0.26065418 0.31286806 0.3769139 -0.3081983 -0.20971897 0.14259158 1.0134567 -0.3152303 -0.22730282 0.3036586 0.195173 0.44766906 0.1993589 -0.875471 -0.28425094 -0.18138918 -0.12913644 -0.2728436 -0.12024098 -0.120241396 0.32210797 -0.14430062 -0.15778916 -0.51755 -0.41470903 -0.12934954 0.34167993 -0.27324978 -0.0062892204 0.21689895 0.13894224 -0.013931084 0.26798695
291 0.6072693 0.17061774 -0.6017705 -0.22519973 0.004294011 0.5241469 0.7758657 0.72235054 -0.5218446 0.33027717 -0.39934084 -0.54893154 -0.20984939 -0.0955886 0.04851301 0.3619405 0.6337391 -0.070777394 0.1549349 0.04472112 0.5051144 -0.05829263 0.7073554 0.5402872 -0.08664921 -0.07410505 -0.46249342 -0.10670093 -0.84263134 -0.528544 -0.19320522 0.04729598 0.49272406 0.35500714 -0.1922246 0.2587252 -0.107642554 0.37596443 -0.4278914 -0.14279024 0.63847667 0.43976286 0.4861803 -0.047540613 -0.44799456 -0.553575 -0.54241246 0.43609828 -0.42497498 0.4071417 0.22722483 -0.13190752 -0.6079249 0.12600563 -1.6826308 -0.3930442 0.3273892 -0.013048347 0.08536941 -0.13622677 0.3386083 -0.45511675 0.10617664 0.38583374
29 0.28691855 0.40626886 -0.47473502 -0.14681713 -0.62892336 0.340842 0.81610423 0.24183634 -0.4190544 -0.19767308 -0.25729442 -0.5313834 -0.33116874 -0.47308642 0.16125302 0.78785276 0.3100466 -0.3646038 0.34579816 0.04436297 0.6413668 -0.61558294 -0.111305036 0.66380435 -0.2227585 0.23786125 -0.050840158 0.03979581 0.13143285 -0.4990932 0.4682776 -0.2751487 0.35915965 0.3274095 -0.28007424 -0.26107615 0.12662989 1.0722288 -0.30686814 -0.23987736 0.2435387 0.24703239 0.40785685 0.11573399 -0.855815 -0.2547763 -0.2413134 -0.19344065 -0.21084736 -0.18320866 -0.06589617 0.24930345 -0.17400596 -0.2120021 -0.5913834 -0.35010386 -0.13247989 0.3249636 -0.26838276 0.082652405 0.24435486 0.120692395 0.03357989 0.31709236
137 -0.36680356 0.7393876 0.2864503 0.17299928 0.23392756 0.21770757 0.43618244 -0.36929205 -0.06700159 -0.21293607 0.721469 -0.067145444 -0.10398038 -0.03384443 0.04334057 -0.48952115 -0.45019323 0.35732564 -0.30694222 0.2988332 0.4693869 -0.62779784 0.95928836 0.8534325 -0.123488486 -0.12277376 0.11986549 -0.2947408 0.5435182 -0.7394618 0.577833 0.24101041 -0.031227784 -0.45562333 0.6112479 0.017666087 0.29074875 0.17934816 0.06722381 -0.6012062 -0.16571231 0.19961485 0.29998425 -0.34623253 -0.44928232 -0.041602246 -0.49838945 -0.41530627 -0.20034462 -0.14647506 -0.45510203 -0.0433448 0.23979482 0.3087405 -0.067606725 0.124823585 -0.6235165 0.19409896 -0.26813623 -0.24985822 0.5492138 -0.43467718 0.31532672 0.24672987
224 -0.07039887 0.39545208 -0.6575307 0.1622631 -0.25385323 0.18282184 0.013873685 -0.17279366 0.7406245 -0.37491974 0.29061255 -0.2561686 -0.38916823 -0.2648341 0.7162195 -0.2984631 -0.107824795 -0.025148574 -0.0719394 -0.32371944 -0.012647947 -0.69014025 -0.09484367 0.06553823 -0.3303681 -0.010539186 -0.56204987 0.042205915 0.021540781 -0.4227314 -0.57504 0.66655785 0.00020964425 -0.57462144 0.5940904 0.37949717 0.1258089 -0.57080656 -0.458399 0.50710547 0.16654134 0.1967954 0.9878945 -0.48084238 -0.28277773 0.23319557 -0.080032125 -0.03547342 -0.27310568 0.4633406 -0.43765366 -0.12068388 -0.25844365 0.44147632 0.23272327 0.7511327 -0.8181275 -0.27838248 0.21919136 -0.4588187 1.0228802 -1.088794 -0.5191279 0.6493708
157 0.098646045 0.44298816 -0.64584804 0.19080952 -0.35690415 0.2259766 0.043202605 -0.19893137 0.7398975 -0.3961531 0.33699164 -0.21175112 -0.38069054 -0.33704323 0.58919466 -0.20634735 -0.13775432 -0.103293285 -0.15541251 -0.29219297 -0.04347084 -0.657281 -0.15207058 -0.019627346 -0.40414008 -0.056915794 -0.6019365 0.04814933 0.044153914 -0.47640306 -0.63019764 0.6926237 -0.047275264 -0.61226296 0.6312029 0.33542088 0.15228744 -0.6273927 -0.5129659 0.56569767 0.22026466 0.26336366 0.8428265 -0.49923852 -0.3415894 0.28543332 0.005589173 -0.086479194 -0.21652365 0.49981418 -0.33698457 -0.08482832 -0.28526422 0.42200512 0.21343191 0.7119908 -0.7631996 -0.37940034 0.33422914 -0.49137092 1.1527708 -1.0684783 -0.5777529 0.6433717
127 -0.31212884 0.8465749 -0.63682276 -0.17876905 -0.09136714 0.059521064 0.51247936 -0.13944125 -0.4115594 -0.026483925 -0.2957164 0.28002435 -0.5737003 -0.6981302 -0.108954415 0.25523537 -0.49497876 0.6918356 0.025492782 -0.41671193 0.8941598 -0.5135203 0.20368516 -0.09339196 0.12767164 -0.66581196 0.22911258 0.105047196 0.46162647 -0.44077048 0.33458406 -0.019626983 0.31521448 -0.03793311 0.02215934 0.56188637 0.484478 0.29665586 -0.45263594 0.25599736 -0.47656932 0.40053418 0.09381752 -0.28673252 -0.44233897 0.35900673 -0.73340076 0.17018051 -0.46942696 0.36542127 -0.36428562 -0.3497228 -0.12662776 -1.1095271 -0.5360455 0.28055975 -0.2714311 -0.30920708 0.34259498 -0.011261131 0.2458023 -0.9966036 -0.11514223 -0.028517531
31 -0.38643062 0.26706785 0.54418296 0.05806743 0.48804152 -0.119872965 -0.23195843 0.26336285 -0.336399 -0.7907743 0.5620805 -0.17306362 -0.24011469 -0.05552557 1.0140165 0.09761683 0.09433664 0.26633552 -1.2818552 0.4963802 0.11064576 0.2734759 0.86951584 0.49400422 0.43117726 -0.21110201 0.053360827 0.38573974 0.66938317 -0.9624311 0.36939564 -0.26476333 0.10276311 0.3261311 0.0887644 0.14825901 0.19996244 0.38863903 -0.65369385 0.039860398 0.1342597 -0.040175665 0.05419192 0.04325984 -0.30646554 0.24856496 -0.29934803 -0.054452322 0.13627571 -0.34185356 0.042202424 0.20130616 -0.24575524 0.20238309 -0.091421336 0.49045897 -0.20149158 -0.07765771 -0.14509316 0.4345512 0.09589255 -0.32878378 -0.07227024 0.75882006
121 -0.3502163 0.3211969 0.58877945 0.10178548 0.55008346 -0.07836618 -0.3191841 0.37970793 -0.414039 -0.7456524 0.5653357 -0.18969296 -0.23656611 -0.012655474 0.99473983 0.037088707 0.21830843 0.14588279 -1.2224343 0.5592686 0.07983677 0.25471056 0.9081503 0.4825135 0.48541042 -0.23255369 0.07518978 0.28709063 0.663799 -0.93422514 0.43009683 -0.23679015 0.17285715 0.29187226 0.0019835536 -0.08573753 0.22121762 0.37628913 -0.65983397 0.094543636 0.184677 -0.016751278 0.15229228 -0.05195309 -0.3718252 0.16939941 -0.35963443 0.007935699 0.1776816 -0.38174602 -0.025177434 0.05786646 -0.22161582 0.19809313 0.038395435 0.44776142 -0.12884349 0.06354328 -0.23412012 0.41098678 0.11719958 -0.38876402 -0.22508697 0.62397426
80 -0.67835724 1.1574867 -0.044230618 -0.32453376 -0.28324547 -0.43036184 -0.098849535 -0.36744088 -0.04240544 0.019376134 -0.17544015 -0.05090808 0.18705253 0.0279755 0.10481245 0.9080649 0.24234158 0.39810422 0.31206372 0.27461177 0.39486474 -0.9617294 0.7439756 -0.24531284 0.23594858 -0.18179442 -0.95744765 0.4393662 0.52157885 -0.9441921 0.7855409 0.3359686 -0.21830502 -0.120553136 -0.0913586 0.00749661 -0.18821074 0.0726886 -0.6710625 0.26696885 0.59657675 0.50801677 0.1106944 -0.74707997 -0.76454365 0.09028305 -0.50450516 -0.08881877 -0.34060535 -0.08712188 -0.3393789 -0.55030024 -0.815701 -0.042365484 -0.234914 0.7708371 -0.2815902 0.4833505 0.16569231 -0.26983503 -0.5548202 -0.16791528 0.13858421 0.26541442
32 0.31091377 0.92883325 -0.3005455 0.019736996 -0.36422545 -1.3527975 0.28741843 -0.14073405 -0.2815669 -0.102690764 0.028311929 0.5366369 -0.13716057 -0.9095155 -0.22542149 0.46885142 0.51773596 0.25551316 0.42807722 0.23955178 0.8030358 -0.92206216 0.82230467 0.15670568 -0.24068302 -0.2339383 -0.2460436 0.043865763 0.430457 -0.3816874 0.5649919 0.090684816 0.66540724 0.2714652 0.31919858 0.4050967 -0.062333908 0.26716417 -0.8218891 -0.008935664 -0.12963624 0.058727253 -0.15583068 -0.28113917 -0.90408754 0.24667072 -0.41764322 0.21017198 -0.6185861 0.57017094 0.33578008 -0.47534025 -0.1293624 -0.68692356 -0.028475784 0.30048242 -0.67787486 0.07079865 0.29527348 -0.045909166 -0.008568496 -0.36196935 -0.5241386 -0.070502974
85 0.45623642 0.835502 -0.26113907 0.12028334 -0.4703503 -1.3181138 0.3485771 -0.21853106 -0.35792235 -0.062005386 0.15490013 0.45679262 -0.10663007 -0.8286484 -0.40195763 0.29715806 0.46152502 0.2950011 0.36982098 0.17933497 0.5906833 -1.001393 0.7711426 0.28130275 -0.24475206 -0.08468097 -0.10072572 0.2688115 0.39119935 -0.37083063 0.5136003 -0.06362714 0.51486987 0.31929803 0.237664 0.31243205 0.085928574 0.3423579 -0.8274892 0.10252142 -0.27929315 0.07930856 -0.10536397 -0.15433404 -0.95176214 0.22622581 -0.3482572 0.26981312 -0.6560942 0.5932336 0.2605304 -0.561115 -0.14056891 -0.641572 -0.19362733 0.23897208 -0.58878857 0.16727677 0.4610106 0.020697234 0.12110458 -0.47824156 -0.6121517 -0.014379505
90 -0.4167461 0.7414862 0.31594226 0.23807321 0.30379096 0.17668912 0.5173543 -0.45930713 -0.101390995 -0.16317965 0.7126989 -0.07176424 -0.06768697 -0.12349534 0.07499948 -0.36033306 -0.47672397 0.30108744 -0.33499372 0.2919444 0.4914524 -0.55640554 0.95665956 0.87153673 -0.16343434 0.06575383 0.08124171 -0.09355697 0.6145008 -0.68980217 0.5046651 0.3035198 -0.011169264 -0.42970294 0.6465976 -0.020689378 0.28057724 0.14618501 0.073053956 -0.6632614 -0.20984375 0.25629526 0.3310796 -0.4618986 -0.47892666 0.027493374 -0.363221 -0.3759691 -0.16374959 -0.19612318 -0.5256706 0.053456068 0.2633889 0.25303108 -0.046157293 0.23723602 -0.61327887 0.22422527 -0.17353307 -0.108719505 0.5125246 -0.41806203 0.338939 0.29964435
146 -0.5437617 1.0968022 0.039055157 -0.27257425 -0.2492633 -0.35966206 -0.07804895 -0.43691722 0.06418999 -0.037354495 -0.15480293 -0.009719195 0.05268796 -0.016068213 0.022422006 0.90887207 0.18941729 0.36733538 0.40475386 0.16994175 0.3962242 -0.93215823 0.7996258 -0.2619531 0.11369054 -0.3269602 -1.0017056 0.5879908 0.6056008 -0.948569 0.74977916 0.15873483 -0.12939364 -0.2397587 -0.17853719 -0.0003830306 -0.23644887 0.07854334 -0.7760899 0.31677666 0.65977675 0.47156 0.008905749 -0.7224475 -0.80260414 0.0824121 -0.48306558 -0.10185792 -0.2698877 -0.09337471 -0.45484468 -0.5532957 -0.7767787 0.04253209 -0.19075188 0.73399 -0.22780885 0.4535864 0.2991374 -0.318701 -0.54905564 -0.09857999 0.13804168 0.29978386
108 -0.20949805 0.73261744 -0.6382628 -0.1424102 -0.121053375 0.039448697 0.5293213 -0.07298265 -0.43254572 0.104031585 -0.20962599 0.19684298 -0.48569423 -0.71125174 -0.03749046 0.326897 -0.50833845 0.61133134 -0.009508773 -0.47197086 0.92801327 -0.55993634 0.31987014 -0.21147868 0.14125837 -0.7080697 0.30584234 0.035747252 0.4946441 -0.37729606 0.3848381 -0.054573048 0.307341 -0.10493139 0.068605974 0.6435921 0.4341658 0.38643965 -0.47803405 0.24238013 -0.46227762 0.39925408 0.13518666 -0.26833084 -0.526069 0.3815212 -0.74230874 0.14930823 -0.40798467 0.29371497 -0.3416429 -0.28611878 -0.13359177 -1.073681 -0.47901946 0.3607647 -0.27921182 -0.19720957 0.44818476 0.035094347 0.28677633 -1.0243493 -0.19938658 -0.11520062
96 -0.2899108 0.7421768 -0.6018931 -0.22145778 -0.04203703 0.15666312 0.5430438 -0.21035634 -0.3975202 -0.07269046 -0.37559766 0.2699573 -0.5308878 -0.7453817 -0.024747176 0.14718582 -0.411105 0.6245295 -0.1401255 -0.4822606 0.8567001 -0.6263616 0.21580745 -0.08589616 0.060520537 -0.6863088 0.3075037 0.019385584 0.38058916 -0.34267142 0.43170923 -0.22095425 0.28300843 -0.07237227 0.030686622 0.6419796 0.4694419 0.26952228 -0.53115386 0.20491141 -0.43542784 0.5177527 0.15254466 -0.1952612 -0.47969565 0.35375923 -0.8512159 0.14716434 -0.48472235 0.31119776 -0.4259643 -0.3564456 -0.21542749 -1.0409809 -0.4368633 0.25768754 -0.20800906 -0.2301679 0.331486 0.08746577 0.29117736 -0.99514234 -0.13764706 -0.10317469
183 0.025766853 0.3805703 -0.61890906 0.19491336 -0.34953633 0.22990178 -0.0033559278 -0.145416 0.8136445 -0.36330697 0.3182832 -0.26839378 -0.36927405 -0.42806998 0.65177387 -0.32398117 0.008120152 -0.028455054 -0.07241709 -0.3521175 -0.06271537 -0.7006935 -0.104061805 -0.12803806 -0.41529793 0.011160516 -0.6603866 0.08945655 -0.09696148 -0.47060204 -0.61146694 0.6114938 -0.024640767 -0.58564574 0.53195524 0.40142623 0.1269857 -0.49492428 -0.5323511 0.6116743 0.20026173 0.16392496 0.9044497 -0.41873834 -0.3419696 0.29261822 -0.07801712 -0.030439192 -0.23539115 0.54417074 -0.39192545 -0.12471444 -0.2677552 0.45821977 0.2917886 0.7480046 -0.9189425 -0.36213005 0.23557371 -0.6018322 1.1939656 -1.0798663 -0.5356016 0.6174262
114 0.49349555 0.7674241 -0.25282326 0.11284495 -0.46034005 -1.365931 0.2824072 -0.20930584 -0.4006327 -0.08562823 0.07755547 0.46017203 -0.28856492 -0.8723163 -0.36757293 0.25227952 0.4468077 0.23160641 0.5097547 0.1288652 0.64820313 -1.0049248 0.7744649 0.22496007 -0.15384454 0.009241912 -0.06643172 0.14733502 0.45859715 -0.378925 0.447509 -0.0919902 0.5605423 0.23972714 0.22786777 0.23845759 -0.003081807 0.29886675 -0.7992533 0.0867811 -0.21356189 0.11320419 -0.03282048 -0.14640145 -0.9423384 0.117859244 -0.42293352 0.08385946 -0.61599934 0.7102567 0.23785718 -0.4682168 -0.11127269 -0.6614473 -0.1386295 0.26329625 -0.54672784 0.14824541 0.3708572 0.04991546 0.10567648 -0.58157706 -0.5491257 -0.08974538
288 0.47451156 0.23303856 -0.4779983 -0.32608795 -0.078371 0.41344187 0.7108732 0.6395268 -0.5447481 0.2788738 -0.20974511 -0.38336134 -0.16768506 -0.23773451 0.030886514 0.5411216 0.40934622 -0.2569425 0.22072777 0.17952324 0.41015366 -0.058462914 0.36312842 0.69455254 -0.09591399 -0.063132435 -0.3921599 -0.21017404 -0.47180203 -0.46355015 0.03589668 0.09961016 0.41571075 0.2722585 -0.11372818 0.021888465 0.05304377 0.4680863 -0.4583103 -0.14534666 0.31228277 0.63243306 0.55155456 -0.18444273 -0.52705526 -0.4940557 -0.37010318 0.31183922 -0.30362144 0.24811092 -0.0014155381 -0.120022096 -0.54035556 0.31493947 -1.4069785 -0.31543142 0.32917303 -0.04963482 -0.08597631 -0.17349386 0.26321492 -0.35095853 0.17166655 0.34394476
194 0.3069108 0.30352265 -0.27267036 -0.23965438 -0.08967246 0.2914853 0.6415446 0.32466176 -0.4215408 0.2331051 -0.21021265 -0.57134825 -0.27454892 -0.23711663 0.2117115 0.79067236 0.2901633 -0.3184843 0.40100107 0.00992664 0.40920475 -0.34186593 0.2757239 0.766253 -0.16575626 -0.17355841 -0.40341565 -0.15208973 -0.3717805 -0.48233247 0.2468903 -0.058160976 0.54950714 0.275111 0.26419982 -0.1711856 -0.044001896 0.6614802 -0.11709515 -0.20097446 0.14134991 0.60323745 0.6035584 0.06264196 -0.67523324 -0.47113228 -0.23774368 0.21580574 -0.05320765 -0.1271513 -0.14372891 0.045173064 -0.4105256 0.03790008 -1.1184682 -0.43106 0.18668161 -0.06337244 -0.04400919 -0.013177844 -0.0723823 -0.2739785 0.056472067 0.36654517
294 0.1847319 0.20245294 -0.32816067 -0.23647866 -0.16178256 0.33069316 0.6205431 0.21725285 -0.46496192 0.22451364 -0.28608823 -0.52591145 -0.26509044 -0.37672046 0.1886108 0.84320855 0.3371584 -0.2559421 0.288292 -0.029295802 0.48755956 -0.4524459 0.29283193 0.83662975 -0.18771043 -0.23638724 -0.39492384 -0.21990411 -0.45716003 -0.4870563 0.15466218 -0.07778966 0.4002013 0.19712631 0.18240638 -0.20058104 0.010940038 0.69407284 -0.21032685 -0.27705982 0.056232955 0.5522507 0.68414694 0.13670602 -0.6549608 -0.45373014 -0.16791357 0.22289933 -0.06847618 -0.05234141 -0.050443504 0.12262119 -0.36097613 0.11972417 -1.0187927 -0.47177377 0.17221697 -0.03119038 0.02880547 0.05008613 -0.008272817 -0.23322622 0.026958156 0.29368988
293 0.35360643 0.26607716 -0.39072785 -0.2026164 -0.17050709 0.27351746 0.63783467 0.31298783 -0.4422988 0.16685507 -0.24839862 -0.59689504 -0.3042575 -0.3238201 0.22167207 0.76781607 0.3525477 -0.16855866 0.33702713 -0.05316434 0.42473778 -0.35046008 0.26817432 0.7691631 -0.15159948 -0.2111094 -0.46842945 -0.2502669 -0.46575826 -0.44515774 0.18510745 0.012782949 0.47464728 0.20931579 0.18651032 -0.20524597 -0.02117614 0.5705282 -0.07229807 -0.28154483 0.015890807 0.5538726 0.6340097 0.09470603 -0.6797521 -0.3863329 -0.14982566 0.18703414 -0.0049739364 -0.08652552 -0.15380393 0.069254056 -0.36221606 0.04911293 -1.1400731 -0.41460028 0.25946456 -0.014754245 0.025931593 0.033626143 0.0012185646 -0.29874378 0.14700833 0.35189334
106 -0.24469893 0.71706074 -0.6008311 -0.1333646 -0.09408132 0.09321107 0.6250539 -0.12575953 -0.4114603 -0.101561345 -0.2851261 0.18311974 -0.5116453 -0.75674224 -0.036893707 0.21767527 -0.46241906 0.6291016 -0.09354572 -0.43104738 0.9203717 -0.5660408 0.18731143 -0.16643669 0.017569311 -0.6428847 0.27303493 0.004410132 0.3834574 -0.44303876 0.43926817 -0.18922363 0.25100818 -0.09277038 0.14244549 0.5756569 0.3654735 0.22577555 -0.4145187 0.16561729 -0.481369 0.5586298 0.12794404 -0.18419461 -0.43340117 0.44584775 -0.6593303 0.20373267 -0.4859938 0.3255683 -0.47746983 -0.4128706 -0.23712447 -1.1543328 -0.529909 0.3361087 -0.09432436 -0.27538925 0.27822715 0.16002661 0.3564795 -1.0411915 -0.122232914 -0.11500997
164 -0.03807432 -0.10282258 -0.2846592 0.45248207 0.5343398 -0.4594433 0.52683926 0.25957084 -0.33085337 -0.6816054 0.79530436 0.13767923 -0.5971568 -0.50427336 0.16396058 0.10631676 0.63288194 -0.16917914 -0.17303775 0.5936998 -0.5775567 -0.08316906 0.003449354 -0.2794979 0.40537837 0.038091302 -0.32065314 -0.16579644 -0.011277457 -0.5208451 0.0892745 0.26918587 0.06277584 0.13238941 -0.055033565 0.17745961 0.61473423 0.16029806 -0.54923975 -0.77044195 0.12808333 0.08955563 -0.39312223 0.33002603 0.02656055 -0.22037438 -0.3665454 -0.12576073 -0.21558821 0.25711063 -0.8289925 0.25748512 -0.17771046 0.17948233 -0.24807307 0.18168047 0.6210525 -0.041321315 -0.074166186 -0.5312276 -0.45388585 -0.8649912 -0.68709743 0.87103623
97 -0.28003222 0.10189649 0.24506293 0.028130194 0.44107696 -0.6657026 0.33518517 0.67237777 -0.29052794 -0.5607355 0.3947338 -0.101811945 -0.1082041 -0.55186486 0.22088502 0.13314725 0.3977085 -0.29284728 -0.36141753 0.4746372 -0.3646465 -0.5912131 -0.0014681586 -0.40488565 0.36189476 -0.3404756 -0.28516304 0.17299987 -0.23516275 -0.90503097 0.17895223 -0.11602835 -0.21045175 -0.2603488 0.21819986 -0.007194775 0.8219697 0.14149497 -0.27832228 0.19671747 -0.0906631 -0.3093072 0.004290044 0.15753725 -0.19644071 -0.15199094 -0.27784342 0.102657236 0.38437867 0.5296139 -0.27064827 -0.17005184 -0.34234506 -0.012305096 0.082923144 -0.37030342 0.4574824 0.02631533 0.29942614 0.20114666 0.31923017 -0.3178942 -0.19321467 0.31943828
254 -0.58315325 0.16377926 0.042142604 -0.331085 0.41129032 -0.32011798 0.6219481 0.27160776 -0.080526434 -0.6266647 0.33052525 -0.5032523 -0.1344662 -0.3592649 0.37393406 -0.04710332 0.12470398 -0.19780384 -0.46175113 -0.0076773097 -0.1268875 -0.4756652 0.03485104 -0.093414396 0.110222004 -0.07484731 -0.31123507 -0.37323558 -0.14310679 -0.93336266 -0.5364729 -0.16691035 -0.22975256 0.21163805 0.06601756 -0.0021767179 0.18380567 0.45649588 -0.5069185 0.2497444 -0.018944869 -0.5675303 -0.053754363 0.31383827 -0.25023276 -0.06488466 -0.24002656 0.2444194 0.33405724 0.4187673 -0.19382964 -0.06051092 0.17913456 -0.15990825 0.038629554 -0.027895631 0.5087109 0.3023657 -0.18820038 0.05447528 -0.1845923 -0.6472892 -0.31152835 0.13420743
82 -0.28457436 0.26386014 0.3695322 0.06767937 0.70704097 -0.08428396 -0.25158352 0.30512598 -0.36017522 -0.90924114 0.6258333 -0.07548579 -0.0416659 0.06965571 0.88752747 -0.021532075 0.07700759 0.3543389 -1.2484151 0.40598205 -0.053191237 0.036404163 0.8503242 0.5523857 0.50265306 -0.10706955 0.22737361 0.3542036 0.56314796 -0.8796453 0.23921658 -0.238144 -0.05282197 0.17615609 0.23357186 -0.08594227 0.36993998 0.23037972 -0.6788718 -0.07633352 0.13331816 -0.24548693 0.13349758 -0.20700778 -0.3511395 0.12371615 -0.4153104 -0.059128143 0.22315209 -0.35682768 -0.004503337 0.11278271 -0.16379808 0.084956676 -0.28415787 0.32536992 -0.08784479 0.13573654 -0.06917927 0.43928966 0.078871034 -0.399464 -0.29174134 0.52606577
10 -0.19758329 0.2372302 -0.00010841064 0.18019368 0.14651504 -0.098968744 -0.38603246 -0.26214257 -0.7956853 -0.32015085 0.33573237 -0.13519387 -0.7542167 -0.8484672 -0.10476585 0.31222886 0.18327293 0.19342455 -0.09009054 0.40421858 -0.09195896 -0.7184428 -0.0020215826 0.58161896 -0.40464562 -0.03813076 -0.32689503 0.49154466 0.1785654 -0.20655109 0.07859537 0.33137503 0.37965617 -0.30730104 -0.08775744 -0.0020373773 -0.3933115 0.93008995 0.032776233 -0.3515362 0.04617572 -0.23132105 -0.26317984 0.36762753 0.3706249 0.45306912 -0.74543905 0.14662468 0.63269734 0.3189657 0.119189955 0.03925518 -0.42928618 -0.3359235 -0.32871014 -0.020763442 0.47731152 0.41873655 0.08118556 -0.9393396 0.31817955 -0.9244776 -0.6786854 1.3339204
214 -0.46826828 0.7896526 0.2830629 0.30513433 0.29871812 0.18894835 0.39105785 -0.46562758 -0.059600096 -0.13979551 0.7405105 -0.057472166 -0.08681215 -0.074239515 0.10103975 -0.3289781 -0.50575393 0.26702172 -0.41175884 0.23403846 0.41521925 -0.5655524 0.9135608 0.8516108 -0.1422608 0.024445778 0.011964457 -0.16903257 0.61056733 -0.73415357 0.5904381 0.2165603 -0.03901145 -0.27287152 0.6665035 -0.0032776515 0.14694522 0.1025428 0.10201386 -0.57701665 -0.25997308 0.21437468 0.34506387 -0.47891894 -0.48551285 -0.030260766 -0.35982865 -0.38053486 -0.17658195 -0.1728677 -0.5789746 0.08255436 0.25141373 0.15100643 -0.009315148 0.14998527 -0.58645463 0.2162563 -0.18305793 -0.24789135 0.53827703 -0.37458348 0.25291604 0.26964864
26 -0.44657254 0.307796 0.39722198 0.015128264 0.63373196 -0.087439284 -0.25330615 0.43162096 -0.37073827 -0.84496677 0.5908499 -0.10176767 -0.18017922 0.1495091 0.96058744 0.013778591 0.15802267 0.388 -1.116597 0.5219306 -0.08697779 -0.009053444 0.9395264 0.47442368 0.43412036 -0.05336354 0.18406026 0.3824601 0.6467784 -0.8087612 0.29057977 -0.19967033 0.012512272 0.20939314 0.26991838 0.040813558 0.29951894 0.3358607 -0.7040463 -0.14221779 0.22412474 -0.32532203 0.19473965 -0.121958576 -0.35312775 0.08173556 -0.38523751 -0.05791521 0.21119913 -0.43235192 0.02198167 0.14472131 -0.124089725 0.04739038 -0.1304032 0.34196687 -0.0689991 0.014988857 -0.11357862 0.4209075 0.06514901 -0.39546636 -0.05897277 0.45606938
176 0.07861905 0.71627575 0.30408505 0.4234248 0.17979123 0.59061086 0.44588622 -0.2669659 -0.36406413 -0.333497 0.4421125 -0.13903567 -0.36346707 0.2486883 0.31753826 -0.35052785 -0.1247364 0.84824884 -0.63264453 0.6496911 0.32527372 -0.058012083 1.4474033 0.8521119 -0.108572476 -0.16812348 0.14680475 -0.13888207 0.13378532 -0.8975715 0.92451274 -0.06607132 0.16798212 -0.57931995 0.6206899 -0.49699262 0.28348237 0.60147154 -0.4592518 -0.103435196 -0.23048174 0.101147786 0.15092821 -0.3827985 -0.07146637 0.037144497 -0.20216563 -0.26963067 -0.29705554 -0.021875642 0.03676034 -0.025906458 0.11193778 -0.06026651 -0.20453753 0.42759478 -0.48960677 0.26111114 -0.3243958 -0.0010589245 0.6819548 -0.45931983 0.19464369 0.35318664
102 -0.0725075 -0.01624697 0.32021686 0.19276132 0.39069885 -0.53843504 0.5590036 0.719831 0.11208192 -0.5375546 0.52746624 -0.082122535 -0.43367887 -0.64609116 0.14502725 0.22369012 0.586897 -0.16822599 -0.3150628 0.5152407 -0.50933206 -0.3315587 -0.015831696 -0.4300561 0.54609364 -0.10270997 -0.4667682 0.39394748 -0.24394983 -0.86282384 0.34425482 -0.23340388 -0.11777447 -0.43839008 0.27920255 0.090816006 0.89025563 0.13695036 -0.36765283 0.2351161 -0.15753965 -0.23943397 -0.06872767 -0.026496196 -0.057780605 -0.11080182 -0.33146223 0.12374717 0.15221693 0.66846156 -0.37876365 -0.06101688 -0.52770144 0.21311934 0.0009137908 -0.42773458 0.42613772 0.07370788 0.22211571 0.18288013 -0.15373133 -0.42517602 -0.2882614 0.25078166
144 0.5077981 0.71205443 -0.17615405 0.08952505 -0.39378765 -1.3045204 0.33600745 -0.046805322 -0.41512313 -0.16260603 0.1242755 0.5014635 -0.31946856 -0.83809876 -0.40392706 0.37937456 0.3094319 0.23661181 0.509277 0.097015396 0.4016583 -0.97611076 0.8382264 0.22014461 -0.20872584 -0.07342017 -0.10781768 0.27351674 0.4211432 -0.33379492 0.45934364 -0.019418024 0.59338933 0.35891354 0.13140559 0.24252628 -0.0013840821 0.40223593 -0.83502597 0.1018757 -0.3753119 0.038694743 -0.06400117 0.066486984 -0.9712491 0.28563643 -0.41139016 -0.018013315 -0.679943 0.53058857 0.12991008 -0.46746403 -0.12244585 -0.624231 -0.16532755 0.13164663 -0.63347703 0.18370229 0.41713667 0.02283302 0.1677079 -0.69024545 -0.5004357 -0.15823159
212 0.059975144 0.63511777 0.42202094 0.53519547 0.20339635 0.50846744 0.58259714 -0.2681031 -0.26349682 -0.29433867 0.41124138 -0.14561021 -0.4063794 0.30677792 0.30257308 -0.26097402 -0.19542043 0.8628995 -0.63466454 0.5953526 0.42306662 -0.119921654 1.3490375 0.79486907 0.008694275 -0.2606573 0.220111 -0.21723182 0.27924818 -0.92070514 0.72086376 -0.03887912 0.13808557 -0.6047873 0.64759755 -0.4822487 0.24725333 0.6260831 -0.47287816 -0.15557478 -0.32055578 -0.016133985 0.24537927 -0.3596639 -0.08583003 -0.011499165 -0.14513074 -0.1956201 -0.19683446 -0.09603033 -0.089929946 -0.08740745 -0.0022778544 -0.06885923 -0.27255446 0.48968247 -0.5400033 0.3273873 -0.38503712 -0.0340849 0.59085286 -0.48568594 0.12163059 0.34145832
292 0.26997817 0.24889477 -0.31766942 -0.15607344 -0.021557542 0.3553314 0.626823 0.33155894 -0.44558486 0.27538034 -0.21260907 -0.61199033 -0.28935957 -0.26588944 0.09838525 0.6968528 0.4137422 -0.12524757 0.30947447 -0.051991805 0.46097943 -0.35514465 0.34704447 0.7739732 -0.10108708 -0.1710033 -0.42999616 -0.18331952 -0.47959954 -0.44527644 0.18572128 -0.10539648 0.47133887 0.24562345 0.20742789 -0.21541472 -0.18507518 0.56477964 -0.13599578 -0.14132589 0.14807366 0.6345827 0.57641363 0.13483034 -0.69490993 -0.4574016 -0.20046544 0.26213458 -0.124287754 -0.045063723 -0.1923424 0.03796772 -0.4585216 0.103947476 -1.1565636 -0.43756142 0.27420983 0.017011957 0.058112927 0.101571985 0.031421367 -0.33852905 0.08354714 0.37601832
2 -0.5346337 0.060930025 0.44731957 -0.40213454 0.37847567 -0.35004985 0.53792244 0.25895375 -0.010870738 -0.8593395 0.5346235 -0.32934737 -0.14898014 -0.22245525 0.33077765 0.055663474 0.29598913 -0.25331458 -0.77654696 0.16682005 -0.37599665 -0.39971614 0.066494845 -0.4948927 0.7337899 -0.29391634 -0.20814332 0.05500254 -0.14557311 -1.089474 -0.10085064 0.0973475 0.0823249 0.020836005 -0.12995565 0.0868957 0.2765781 0.057532445 -0.37853283 0.17091459 -0.26781023 -0.22874323 -0.01446825 0.26081607 -0.61934775 -0.013737402 -0.12946497 0.15295759 0.32176074 0.23725231 -0.29070917 -0.018010993 -0.07548582 -0.0063899495 0.09364636 -0.19951396 0.57529986 0.016132306 0.015488014 0.10171661 -0.08764873 -0.54118603 0.06347747 0.4849968
289 0.24303469 0.16715734 -0.36491007 -0.22818455 0.03597714 0.2674808 0.64326 0.3608824 -0.35489243 0.22317374 -0.25561467 -0.6407609 -0.2958769 -0.21952313 0.11303796 0.6958383 0.37673664 -0.17415285 0.3271771 -0.01755698 0.51807684 -0.38283205 0.39128783 0.71385056 -0.023122817 -0.27790973 -0.38184452 -0.26949197 -0.49216434 -0.41939992 0.162694 -0.13487412 0.5001334 0.26324236 0.1532786 -0.14644563 -0.1373581 0.5665071 -0.08701737 -0.27572647 0.17963016 0.53741175 0.5882661 0.07963689 -0.7719813 -0.37716767 -0.20414466 0.31394407 -0.13446876 -0.021244071 -0.12298398 0.0065793735 -0.4255196 0.16964461 -1.2408514 -0.42148018 0.22261298 0.0006048571 0.03342737 -0.019381613 0.045609917 -0.29775736 0.10190825 0.4241054
27 0.5560833 0.19789939 -0.41907883 -0.21202499 0.1728195 0.54667544 0.6653909 0.71418595 -0.4920596 0.36555213 -0.22435403 -0.44296557 -0.22089013 -0.069824435 0.03713327 0.36699876 0.57583386 -0.08946365 0.3605084 0.08124763 0.62118304 -0.13869508 0.4214063 0.56112605 -0.029524922 -0.1733107 -0.4188219 -0.23170781 -0.65614986 -0.47704995 -0.14319348 0.0948042 0.46331748 0.25995094 -0.24891075 0.091511086 0.07115477 0.64120907 -0.5762522 0.007595528 0.36621526 0.5087729 0.4280418 -0.11403155 -0.45890486 -0.44845092 -0.24644364 0.5347131 -0.40199745 0.3409415 -0.01178349 -0.072489955 -0.5329455 0.25822517 -1.5461287 -0.33750018 0.33856282 -0.014123247 0.10918744 -0.15406302 0.37133116 -0.3082401 0.23793204 0.6144689
313 -0.07233647 -0.15666081 0.106949486 0.19575755 0.5843149 -0.63520837 0.60323507 0.82113826 0.13898087 -0.53578055 0.34489053 -0.08981474 -0.45252258 -0.54695153 0.32295653 0.27186033 0.49722654 -0.09040087 -0.120025754 0.6134824 -0.40660557 -0.25107434 0.023818383 -0.4204307 0.57022697 -0.09415123 -0.45296606 0.14999005 -0.2670635 -0.95095104 0.27382392 -0.2428493 -0.052808326 -0.43491462 0.23654842 0.044375364 0.9179995 0.09018524 -0.20109953 0.0008046484 -0.07530379 -0.3552106 -0.20427302 -0.06586237 -0.08945453 -0.08711744 -0.5088855 -0.058833286 0.19833492 0.599258 -0.4518405 -0.022382261 -0.51254123 0.15590434 0.019293359 -0.41558817 0.30178112 -0.095349774 0.27283788 0.121498756 -0.20610766 -0.49288955 -0.32821923 0.27541646
46 -0.19197795 0.26041132 -0.04885939 0.17281063 0.015215942 -0.34818122 -0.43818244 -0.2887202 -0.74045426 -0.24100664 0.27123824 -0.2374309 -0.75042605 -0.92628 -0.17218955 0.11681986 0.17851086 0.028074348 -0.22291765 0.40208244 0.07588148 -0.80729115 0.09696794 0.43565086 -0.46329105 -0.2027383 -0.19940588 0.4588941 0.15942924 -0.12844042 0.081940904 0.15909903 0.50959486 -0.17586368 0.027062178 0.1524099 -0.40365976 0.84259456 0.08440798 -0.54546005 0.07640083 -0.2202873 -0.23058732 0.44743085 0.32551864 0.31705114 -0.6723755 0.10209829 0.54987067 0.32420138 -0.16662562 0.17220524 -0.5413739 -0.2956427 -0.24819328 0.04950987 0.5244684 0.6519759 0.08486868 -0.8676618 0.2793243 -0.92154413 -0.6315657 1.2205703
36 -0.21814306 0.5841431 -0.33341858 0.7238907 0.056875326 0.028093407 -0.22974628 -0.047017552 0.24288847 -0.44125956 0.59302557 -0.44123566 -0.10215387 -0.32640934 0.13641112 -0.13073787 -0.37453714 0.26017275 -0.45676634 -0.11487352 0.4641001 0.30585223 0.8614012 0.15068756 -0.17815144 0.14253436 -0.38903943 -0.17286694 0.7815666 -0.42110905 0.39465937 0.7086187 -0.30461735 0.035638068 0.69244677 -0.18607906 0.17481789 0.22256516 0.05222957 -0.0014587953 0.25808415 -0.27413324 0.8942254 -0.42076114 -0.23242906 0.3549075 -0.6854489 -0.12668872 -0.15804286 -0.07451823 -0.51836133 0.41438663 -0.37005436 0.20982724 0.20875525 0.72722363 -0.34448746 0.13715771 -0.011101956 -0.27027574 0.38482606 -0.3080664 -0.098001555 0.26781964
297 0.29508024 0.30633685 -0.2926564 -0.23935008 0.02132057 0.33858678 0.6084464 0.36915895 -0.45439553 0.22048193 -0.24132077 -0.6580169 -0.27546307 -0.18297693 0.19626345 0.6316841 0.4501338 -0.073303565 0.41803512 -0.09028023 0.38554442 -0.37423754 0.4149347 0.7131339 -0.13436143 -0.21309508 -0.4254383 -0.21800159 -0.53842735 -0.40357798 0.13488853 -0.014247886 0.5470418 0.27032357 0.12846042 -0.05471762 -0.09366258 0.6439481 -0.12870102 -0.19841073 0.12764795 0.56025374 0.62608016 0.20355855 -0.646991 -0.37554544 -0.25690904 0.27966338 -0.16963643 -0.021009134 -0.18413025 0.018270008 -0.50448555 0.1680569 -1.1367973 -0.39349145 0.21224135 -0.028913207 0.08087949 0.044128757 0.041685373 -0.29146612 0.19292904 0.35954285
88 -0.12990674 0.535732 -1.4403427 -0.043282542 0.08661353 0.60123986 -0.11706504 -0.25190207 -0.23052585 -0.77035934 1.1160136 0.3037264 -0.022123424 -0.39969188 -0.6651201 -0.76513696 0.087991625 -1.1094023 -0.42378905 0.47619504 0.6722851 -0.9255947 0.72926915 0.11777541 0.06921407 -0.03172995 -0.6108625 0.31711847 0.33359504 -0.77466685 0.10007059 0.98667467 0.7225047 0.14120908 0.25160995 0.18050505 -0.13803335 0.6072902 -1.2404279 0.7085359 -0.11173223 -0.1697463 0.025902478 0.25870275 0.25196785 -0.012769359 -0.15813336 -0.32510236 0.77355963 0.53381383 0.029928919 0.37701935 -0.3288182 -0.23004325 -0.012466215 0.31974107 0.54055536 0.12947358 -0.4313981 0.38984138 -0.96711713 -0.7000933 0.30478072 0.42741272
101 -0.22180521 0.6435305 -0.5129034 -0.15387249 -0.1323342 0.16107653 0.5402573 -0.06757671 -0.3736719 -0.21614231 -0.36669317 0.26059574 -0.5352019 -0.6737438 -0.01235105 0.05248505 -0.48085138 0.4934094 -0.13050936 -0.43159258 0.9586912 -0.62743527 0.11776939 -0.09445683 -0.02172056 -0.5993701 0.3555864 -0.068139404 0.31087136 -0.44862163 0.57992613 -0.18897934 0.2564722 0.095424265 -0.019518858 0.690537 0.40759164 0.25265947 -0.43105525 0.26115078 -0.46990034 0.6311664 0.14195296 -0.11046201 -0.37933564 0.3679735 -0.8388781 0.19800974 -0.5418838 0.45324734 -0.58544296 -0.36586678 -0.23490259 -1.1156862 -0.4898896 0.25872356 -0.1375251 -0.18763691 0.116117045 0.013335402 0.34985992 -0.9757843 -0.08710263 -0.16766635
124 -0.5192258 0.59793985 0.050900046 0.37543058 0.17266855 0.26733863 0.18331821 -0.093481444 0.36674199 -0.12685543 0.8272837 -0.04939848 0.024830563 -0.27521476 0.09813639 0.030992141 -0.15113942 0.12374124 -0.8159337 0.0017169783 0.22976348 -0.21510808 0.67515844 0.48066464 0.23049101 -0.08191104 -0.32221326 0.20757197 0.6268412 -0.37111852 0.3755257 0.61368847 0.08484433 -0.4730737 0.20659047 -0.026281014 0.16445488 0.12455282 -0.058083754 -0.26973358 -0.5062677 0.11402275 0.7777971 -0.4877813 -0.3619353 0.2763254 -0.34236312 -0.2983354 -0.26829246 0.2290192 -0.59263945 0.5361554 0.088650085 0.21152742 -0.18083756 0.55658984 -0.3539723 0.1502045 0.07713263 -0.32405496 0.5353213 -0.079972655 0.22177327 0.44854152
220 -0.13901006 0.36459413 -0.33228138 0.47683233 0.15224871 0.046212733 -0.04954942 -0.17348193 0.21838833 -0.67213684 0.32318854 -0.36593297 -0.118166976 -0.128483 0.43714 -0.020918276 0.1847349 0.1871265 -0.30474064 -0.21284302 0.5009255 -0.0788249 0.58111423 0.26073393 0.16372132 -0.26362997 -0.6344162 0.047882006 0.54205763 0.013580493 -0.052844312 0.77604014 -0.09298833 -0.10468139 0.4825214 -0.36093315 0.2763666 -0.31743497 -0.2617472 0.32265127 -0.105236396 0.080867656 0.6174513 -0.3987931 -0.358481 0.28893062 -0.39761135 -0.05528447 -0.20023596 0.28963983 -0.47959167 0.32204646 -0.35391095 0.25522864 0.24617 0.47369146 -0.5154563 -0.36153224 0.27502048 -0.6202844 0.35911772 -0.17826408 -0.12919785 0.7137242
238 0.3105133 0.884527 -0.2800297 -0.08435829 -0.89748496 -0.01605398 0.82270104 -0.1368062 -0.3190938 -0.36049253 -0.1941032 -0.36961937 -0.119696915 -0.6884438 0.20434193 0.7904167 -0.06314357 -0.29510075 -0.018649 -0.053164825 0.83197445 -0.63861203 -0.10005674 0.47275653 0.046667557 0.18215288 0.16119808 -0.20543154 0.49498838 -0.59805256 0.53226906 -0.49433336 0.35989934 0.32343104 -0.6293061 -0.47206616 0.52934986 1.036351 -0.17560865 -0.16408138 -0.07588616 0.516538 0.29145125 0.5082555 -0.9079079 0.15871145 -0.31761897 0.16095501 -0.5140247 -0.12439284 -0.32062438 0.3079845 -0.03644772 -0.18884772 -0.79614097 -0.36924297 -0.29015654 0.45544636 -0.3641025 0.3961586 -0.32902193 -0.40598157 -0.35224304 -0.050031725
81 0.37920934 0.2461769 -0.2853675 0.113791175 -0.24791281 -1.1867919 0.16554564 0.09756404 -0.6306832 -0.3556161 0.29243845 0.66268164 -0.814887 -0.70663005 -0.57043624 0.66835773 0.44477892 0.14035022 0.6627733 0.05942447 0.26265886 -0.7444917 0.8631017 0.2680828 -0.03966003 -0.19462124 0.115451574 0.011684537 0.3219157 -0.16753909 0.5064036 -0.04259601 0.60545284 0.39698315 -0.26336274 0.13866502 0.118671454 0.37788212 -0.580817 0.42299217 -0.384308 0.06885887 -0.06929026 0.20192447 -1.3030603 0.17200433 -0.3931393 0.09689684 -0.3675659 0.050711352 -0.23849814 -0.37865427 -0.082641736 -0.7022344 -0.33875814 0.023442002 -0.7454569 -0.05699242 0.5485996 -0.11377506 -0.061331913 -0.86760926 -0.4326203 0.030343724
193 -0.5507858 0.3183731 -0.55015564 -0.28063548 -0.082085125 0.12066121 -0.15294866 0.4246983 -0.076564424 -0.62472534 0.6194266 -0.552275 -0.06798769 -0.8303033 -0.2758522 -0.34774196 0.11465048 -0.3018987 0.15131983 -0.051424988 -0.2632307 -0.564531 0.23016064 0.260015 -0.18271583 -0.045478325 -0.5272243 -0.70881706 0.2082961 -0.87719 -0.40646502 0.24539243 0.62898314 -0.056225203 0.23229733 0.5465721 0.09548524 0.61305624 -0.60771805 0.3546491 0.37925428 -0.1261762 -0.09680767 0.1562924 -0.43140942 0.2746574 -0.3553609 0.46953833 0.4177538 -0.14124767 -0.044964604 -0.38877037 -0.33571145 -0.09766473 -0.03266278 0.1924625 0.69773006 0.36324644 0.06808464 0.66612744 -0.45005217 -0.42369625 -0.17054582 0.43019786
16 -0.07901038 -0.21136206 -0.17541896 0.31067073 0.06349962 0.10056631 -0.14618412 -0.019825472 -0.89942425 -0.43530577 0.35404754 -0.10774507 -0.82372653 -0.49104446 0.14759348 0.18740961 0.22023657 0.0276996 -0.63942444 0.58901197 -0.114440024 -0.99620056 0.15146516 0.13919276 -0.12896696 0.037146684 -0.34724054 0.1025434 0.2724366 -0.02881926 -0.25398576 0.3014396 0.4526458 -0.29185814 0.087605625 0.4337516 -0.11097221 0.5676526 0.04397802 -0.59490114 0.16688637 -0.3142323 -0.20449267 0.4372507 0.1312793 -0.25093347 -0.6672147 0.11005555 0.023927936 0.18001814 -0.39252564 0.07470195 -0.14577958 -0.10913904 0.07725273 0.38835844 0.7776664 0.7636132 0.026591027 -1.1595728 0.06124203 -0.8245761 -0.37844127 1.3637084
222 -0.18043698 0.29552752 -0.36973706 0.57477266 0.14891204 -0.020877369 -0.13463011 -0.060886253 0.30550617 -0.651833 0.38858595 -0.40416163 -0.06867223 -0.11951891 0.5402156 -0.074689165 0.17161916 0.115885414 -0.1463689 -0.2838155 0.59095013 0.015901044 0.6591429 0.22239697 0.25198212 -0.24417186 -0.6589325 0.10788822 0.42933357 -0.04248473 -0.043257665 0.81451267 -0.037016615 -0.13587762 0.38065925 -0.4348167 0.24259765 -0.31949672 -0.249088 0.27224925 -0.063013986 0.17684129 0.56944674 -0.3703346 -0.38502157 0.36849254 -0.3388713 -0.12051834 -0.15793975 0.28701487 -0.48438677 0.36426783 -0.31288695 0.12769152 0.20274842 0.56838065 -0.5152515 -0.36916736 0.14480965 -0.54990035 0.39108664 -0.33687207 -0.14528963 0.73310906
187 -0.027356602 0.5379206 -0.2939094 0.60442364 0.13061364 0.046766233 -0.20204228 0.047658358 0.16342418 -0.6984999 0.32818013 -0.42207372 -0.08006907 -0.13470851 0.51502043 -0.096465796 0.011479248 0.19596541 -0.29110038 -0.3195373 0.58926 0.09194031 0.4826434 0.21927658 0.11765428 -0.12591864 -0.8224186 -0.013441751 0.45323882 0.10430855 0.051674165 0.829022 -0.1400532 0.04936527 0.6435019 -0.44514364 0.23925911 -0.24049082 -0.32000366 0.44753766 0.100239456 -0.0809271 0.6272304 -0.29353225 -0.27452487 0.4168432 -0.5174564 -0.09869798 -0.19991098 0.16150178 -0.38860697 0.30771875 -0.44414088 0.18099378 0.27412698 0.5474029 -0.57592094 -0.32394916 0.13233149 -0.4851387 0.25119463 -0.44016194 -0.1580793 0.7213822
78 -0.56442416 0.136541 -0.595377 -0.05781397 0.32417145 0.25258312 0.011582225 0.11318546 -0.18555711 -0.433567 0.46992755 -0.682735 0.106457636 -0.87863195 -0.42609227 -0.29424605 0.0014986028 -0.3455404 -0.2807205 -0.31533504 0.038788073 -0.5837396 0.39078012 0.34731814 0.039296705 -0.07774014 -0.3795654 -0.7708994 0.075919025 -0.83676726 -0.6039035 0.47243285 0.554161 -0.1940265 0.22813325 0.5089455 0.27218065 0.6500323 -0.60220563 0.40208474 0.47597593 0.23419116 -0.29077128 0.05223273 -0.34358066 0.20114197 -0.06566202 0.3626433 0.35706085 0.00124409 -0.16861485 -0.172776 -0.5076763 0.14980322 -0.09231119 0.13541555 0.506669 0.47066182 -0.05168219 0.33315194 -0.88065696 -0.6890536 -0.38129544 0.11525478
37 -0.5409845 0.14611214 -0.50246894 -0.09316569 0.30333385 0.29564998 0.03481916 0.11778113 -0.18891008 -0.37870428 0.42748043 -0.7388225 0.0487606 -0.9146089 -0.4765565 -0.37855503 0.06997684 -0.32813913 -0.2185956 -0.26308572 0.09633629 -0.53700435 0.48363313 0.27053058 0.11311148 -0.03424847 -0.31131 -0.8247218 0.17283066 -0.8710218 -0.5383075 0.6007849 0.49628487 -0.23001239 0.005350193 0.5939736 0.23550926 0.7567556 -0.5748477 0.47141847 0.5271873 0.1299827 -0.2567972 0.080385014 -0.34874308 0.22475515 0.012197968 0.3961431 0.33630365 0.098359935 -0.098170005 -0.22253874 -0.51011246 0.16287227 -0.032268357 0.15960819 0.5310344 0.5102034 0.095489025 0.33063743 -0.86891043 -0.6659176 -0.2130649 0.20258607
318 -0.73526657 0.48295614 -0.5907006 -0.5644136 0.26559868 -0.040480062 -0.12104559 0.48979777 -0.051493563 -0.5230929 0.59901685 -0.8238826 -0.24625589 -0.7458504 -0.0115284445 -0.21288414 0.17575336 -0.28654593 0.24548085 -0.25936505 -0.41557616 -0.50489146 0.021138703 0.30855042 -0.16883613 0.34901923 -0.6259338 -0.7600385 0.4823393 -0.89342076 -0.35931912 0.112180084 0.18049498 -0.009955164 0.226104 0.5281896 0.105000906 0.28230768 -0.18778509 0.39204586 0.56713223 -0.08689105 -0.2808405 0.06708763 -0.37006724 0.16374542 -0.3940835 0.5151442 0.42812306 0.044014726 -0.029965747 -0.3982443 -0.1640196 0.011875292 -0.2096413 -0.012039018 0.78093326 0.28590795 0.054956786 0.20804675 -0.5161442 -0.72994363 -0.13922898 0.20282052
316 -0.75497305 0.27721363 -0.57603323 -0.596437 0.20382847 -0.00323929 -0.087822124 0.6290306 -0.09136932 -0.6447992 0.6535233 -0.8596398 -0.17254555 -0.8149751 -0.06460407 -0.28774503 0.21616758 -0.26492608 0.31047213 -0.28334746 -0.40154126 -0.5483966 -0.015913099 0.29358473 -0.21078037 0.36479437 -0.49112198 -0.7675193 0.42098165 -0.9025628 -0.2958014 0.16959614 0.15685993 0.02386717 0.23975751 0.4971092 0.08166069 0.41320547 -0.31023613 0.40816215 0.6268425 0.0033109023 -0.39081997 -0.02594693 -0.43204346 0.20284592 -0.37509447 0.40259728 0.45564532 0.031334262 -0.026358662 -0.40821436 -0.18636599 -0.00077360426 -0.12763183 -0.026864057 0.6606075 0.28181437 -0.04438826 0.120556146 -0.44619554 -0.6803862 -0.05332594 0.2958472
41 -0.3682275 -0.15535423 0.18051454 0.08929326 0.86482364 -0.5369233 0.51561 0.64720106 -0.025474982 -0.5171295 0.31976545 -0.30858937 -0.33165568 -0.4256158 0.116422184 0.22343864 0.68068457 -0.24264044 -0.59613675 0.17601697 -0.327167 -0.41801912 -0.005528899 -0.47951025 0.7715885 -0.0038163608 -0.2670944 0.33853167 -0.3472041 -0.9624221 0.4458537 -0.16240007 0.008581433 -0.21301806 0.37146056 0.30599108 0.49092463 0.20931458 -0.25680277 0.230198 -0.19911824 -0.25537667 -0.11424375 -0.03807913 -0.24818097 -0.005092515 -0.25819185 -0.027247813 0.09047299 0.39752907 -0.39094728 -0.049855076 -0.39605618 0.11118253 0.17967892 -0.41228834 0.42571267 0.017765533 0.18414403 0.1070624 -0.07635516 -0.5438201 -0.16498865 0.46489155
202 -0.5386426 0.33024305 -0.25943676 -0.37132084 0.9088124 -0.40711483 0.7448297 0.037519377 -0.5210332 -0.22301139 0.27225092 -0.23887727 -0.22978985 -0.6583587 0.17677774 -0.6978763 0.18816806 0.043518536 -0.5201325 0.53664017 0.06577193 -0.5564031 0.26941583 -0.10404082 -0.5147144 -0.6273037 -0.57125 -0.42610592 0.5641374 -0.6644522 -0.11194606 0.38036618 0.2722707 0.7274261 0.09032218 -0.1134396 0.2437305 0.08133022 -0.8291395 0.47799692 0.18220644 0.5451849 0.5444901 0.55386865 -0.40868482 -0.036414217 -0.35769224 -0.046716835 0.38647866 0.20949455 -0.3035571 0.40123144 0.46816942 -0.21176507 -0.30603978 0.5973294 0.2505791 0.07016675 0.06795441 0.28497124 -0.12594955 0.0059155053 -0.18559141 0.31132895
105 -0.6500659 0.50006604 -0.08073138 0.3465982 0.18766724 0.16801934 0.114758685 -0.140544 0.2301263 -0.13133757 0.7565812 -0.1891225 -0.02423951 -0.25350875 0.11032728 -0.082749315 -0.11298141 0.06295267 -0.7997648 -0.028205382 0.3527967 -0.20339116 0.8053008 0.42152324 0.2544841 0.008264163 -0.28438103 0.09780392 0.71785814 -0.34602535 0.40819913 0.5871226 -0.1211095 -0.44086266 0.23649243 -0.19769667 0.024945175 0.1379423 0.008606774 -0.14343399 -0.3642208 0.11171577 0.812973 -0.4607623 -0.36052284 0.30134633 -0.13803922 -0.2225096 -0.35748306 0.22374125 -0.67613626 0.5570999 -0.013305407 0.12816323 -0.08186166 0.5205597 -0.3530131 0.26671824 0.11515338 -0.27140284 0.5369258 -0.17181067 0.22715272 0.4819754
324 0.3701485 0.62814724 -0.019839277 -0.39060658 -0.042312037 -0.07466071 0.38289595 0.4971403 0.21194266 -0.13519327 0.2735487 0.21158458 -0.16447982 -0.6506303 0.50409836 0.59943163 0.12258048 -0.32833582 0.6272555 0.37379274 -0.42241332 -0.95135146 0.72639716 0.8636293 0.193164 0.15415056 0.25062695 0.26647732 -0.5663381 -0.528642 0.018601362 -0.14232704 -0.78789204 -0.21029902 0.36805055 0.733783 0.17753388 0.011627916 0.22724809 0.24744347 0.15285659 -0.35525098 -0.2151049 0.083924316 -0.19702855 -0.39637834 -0.3666846 -0.032190077 0.10207505 -0.040541306 -0.355935 -0.44330218 -0.24125174 -0.47595987 -0.10001869 0.1979731 0.011216721 0.31968865 0.10923663 -0.07931234 0.6718473 -0.5611412 -0.27127832 0.62630206
305 -0.15732844 0.7950127 -0.040098075 -0.45999637 -0.28297377 -0.40558285 -0.07657973 -0.39455134 -0.27637532 -0.10279053 -0.12718429 0.41414833 0.13606258 -0.5957015 0.09769344 0.8765666 0.15588813 0.34365234 0.36347947 0.03710265 0.6077792 -0.7584171 0.6384706 -0.2318739 -0.12207446 -0.48461756 -0.87407345 0.03519001 0.36857814 -0.9080002 0.3078146 0.5094364 -0.026661374 0.17405507 0.015135913 0.06830074 -0.10352162 0.12247807 -0.8229654 -0.07545586 -0.13296871 0.44387728 -0.18153802 -0.9336472 -0.6943425 0.0761364 -0.71078354 0.0763249 -0.026877813 0.22620527 0.003998255 -0.27032253 -0.29833362 -0.064382985 -0.18646334 0.31292695 -0.6292527 0.30662274 0.2763162 -0.12208198 -0.12764718 -0.36811736 -0.25670242 0.14834216
132 -0.3145566 0.65058124 0.1916666 0.29986766 0.28297552 0.1312475 0.19318515 -0.38986516 0.08689529 -0.06949987 0.81824076 -0.10959647 -0.15117207 -0.14799541 0.24775581 0.014730958 -0.25259766 0.2098546 -0.6897885 0.15090132 0.40143338 -0.3428091 0.8596611 0.6130166 0.18309881 0.15575 -0.21216962 -0.110031895 0.6029709 -0.5820729 0.42237958 0.41535574 -0.08948516 -0.41005078 0.4910776 -0.017544294 0.004133284 0.2733258 0.14920816 -0.32227433 -0.3586145 0.16219059 0.74262476 -0.44949642 -0.46655917 0.22359948 -0.31441504 -0.5037179 -0.24274057 0.016104307 -0.47498024 0.3440391 0.11140506 0.28163466 0.05588004 0.4161197 -0.43843722 0.19152214 -0.10583202 -0.259472 0.5773819 -0.21193141 0.17023738 0.19683722
269 -0.032581843 0.23315066 -0.7217319 0.2142621 0.14725088 0.1282682 -0.028036486 -0.66793734 -0.320549 0.26205587 0.03215817 0.24743782 -0.8109957 -0.43459645 0.34890196 0.093565345 0.25030714 -0.5408174 0.46642607 0.17469674 -0.42500618 -0.203559 0.5435547 -0.041651268 0.40811807 -0.010607417 -0.123372145 -0.5344927 0.22336626 -0.48745975 0.73137045 0.36176652 -0.40599152 -0.15312365 0.6701891 0.19156517 0.46763828 0.07967997 -0.8197496 -0.05611558 -0.15210095 0.3989588 0.15076265 0.8387533 -0.678041 0.07881433 -0.49281445 -0.1460248 0.30106798 0.66358095 -0.7998605 -0.3054545 -0.13617432 -0.19769102 -0.61500525 -0.14044298 -0.30527934 0.38782412 -0.3968361 0.37422633 0.2639458 -0.10335698 -0.17026114 0.9233343
204 -0.34978268 0.2737288 -0.29642898 -0.54287547 0.86732405 -0.41330072 0.66539925 0.077400476 -0.5742209 -0.21708281 0.32362232 -0.27501774 -0.39965552 -0.6182415 0.14813697 -0.7038029 0.19376114 0.048545286 -0.59550714 0.5134287 0.10286936 -0.58713263 0.24166691 0.11385619 -0.49260885 -0.6138495 -0.70493674 -0.48630565 0.6138645 -0.67849374 -0.11181457 0.37323785 0.17183065 0.69511235 0.026082275 -0.21071865 0.20128638 0.1090623 -0.7656419 0.50954664 0.30666882 0.4705969 0.4593652 0.6092745 -0.37255946 0.12794526 -0.29400882 -0.052157268 0.31990498 0.25725913 -0.33357674 0.38959122 0.4829284 -0.14239265 -0.3633574 0.5434548 0.2805002 0.1314098 0.10348612 0.22673173 -0.15389928 0.086728476 -0.2851798 0.31733194
270 -0.00030682993 0.28920436 -0.7938699 0.33341786 0.22040626 0.22353572 0.0026324259 -0.7167866 -0.35066622 0.20739263 0.02893588 0.25970426 -0.70310766 -0.51798844 0.3087933 0.10728091 0.25092852 -0.5278172 0.5317153 0.10551245 -0.30988503 -0.1549075 0.50660074 -0.06769959 0.35510606 -0.021398883 -0.06317725 -0.43696836 0.25062966 -0.5503707 0.60832876 0.33085948 -0.48145166 -0.10441951 0.6442606 0.26472238 0.5547721 0.00466126 -0.84243363 -0.15740661 -0.11242793 0.3285847 0.18228574 0.9295488 -0.6850473 0.06685149 -0.63516784 -0.03394138 0.26235265 0.62055284 -0.8286006 -0.28462595 -0.2425123 -0.13963173 -0.568185 -0.11048315 -0.30654287 0.33760947 -0.3262845 0.36548072 0.16369763 -0.020664312 -0.13855796 0.8920803
94 0.1219143 1.0452427 -0.36812198 -0.07699577 -0.85856956 -0.07285476 0.647798 -0.0026398152 -0.4330949 -0.29173234 -0.13664988 -0.23644201 0.03412903 -0.7384938 0.35027325 0.9012356 -0.17681897 -0.25443938 0.1722041 -0.12643553 0.8338196 -0.71381724 0.14194213 0.47910556 0.17387171 0.20577182 0.12815131 -0.058062676 0.6634237 -0.61955696 0.6005224 -0.35507664 0.3415249 0.34338126 -0.63594514 -0.50127053 0.5144024 1.071413 -0.030528443 -0.24984127 -0.2002246 0.52662855 0.17128739 0.5284399 -1.2151948 0.30151045 -0.15873301 0.057380214 -0.51257175 -0.22812283 -0.29193598 0.29527423 0.15449128 -0.30168766 -0.79141563 -0.41799805 -0.2639574 0.44965157 -0.28100172 0.4447295 -0.38065657 -0.47582573 -0.41352507 -0.1852964
300 -0.14431916 0.8716178 0.010956962 -0.3566491 -0.2575847 -0.41367227 -0.006308377 -0.34521425 -0.2823958 -0.22554766 -0.15476984 0.3578498 0.18776198 -0.57913524 0.13954468 0.8862188 0.123887025 0.29086316 0.40335387 0.052023128 0.596354 -0.81652176 0.69213736 -0.31757793 -0.08920702 -0.37546107 -0.7670255 0.030233514 0.35073593 -0.7868857 0.30782294 0.42760292 0.026786963 0.13124503 0.14806265 0.11486913 -0.12923074 0.047185566 -0.84668225 -0.07656933 -0.03674966 0.4640381 -0.15821844 -0.9740965 -0.60919505 0.10097041 -0.84098095 0.25294206 -0.008458438 0.19431491 0.012125085 -0.23991115 -0.23552977 -0.13941471 -0.27830142 0.3885626 -0.67712015 0.27723965 0.26917008 -0.042683978 -0.11592634 -0.27297363 -0.28418514 0.16259335
72 -0.46977374 0.064828746 0.3470253 -0.2705975 0.4969523 -0.18586394 0.60960305 0.4063906 -0.05799756 -0.6597284 0.5433726 -0.20649703 -0.027125044 -0.34707084 0.39056233 0.20145664 0.3752433 -0.19516602 -0.40022245 0.12526548 -0.2935612 -0.32768804 0.17859645 -0.46993 0.8388998 -0.362639 -0.18104604 -0.10280941 -0.029763961 -1.0417852 -0.09865954 -0.26988038 -0.14616817 0.113928385 0.101896234 0.109236285 0.4176694 -0.050279412 -0.2843936 0.00071502296 0.11958285 -0.23690517 0.11805868 0.08626676 -0.49411264 -0.1191884 -0.13426891 -0.10013434 0.35342988 0.38621724 -0.18312627 0.29091647 0.12836982 -0.27437317 0.15318033 -0.2342232 0.60639113 -0.0009817492 0.13623203 0.11012109 -0.065262884 -0.61395806 -0.2991149 0.52589655
151 -0.37399402 0.14740728 0.43153808 -0.24419837 0.35644042 -0.3944731 0.44625142 0.19956595 -0.18096772 -0.7034894 0.5397979 -0.24258395 -0.1286779 -0.306344 0.44573513 0.16364746 0.2079176 -0.20075418 -0.7583272 0.25379765 -0.33423105 -0.34622824 0.09832093 -0.59932166 0.7677194 -0.29750353 -0.267451 0.19814391 -0.049549248 -1.1435852 0.14213523 -0.024114683 -0.10385932 0.11275675 -0.0018862527 0.15706272 0.27371743 0.16605811 -0.13535601 0.34525082 -0.036954574 -0.16384715 0.15353408 0.24292794 -0.6278295 -0.051377896 -0.1783359 -0.04461044 0.299538 0.20739265 -0.2962975 0.10554363 0.034446422 -0.07200533 0.25436872 -0.26987317 0.7246312 -0.19774058 0.02224712 0.18005605 -0.13452339 -0.4677193 -0.16676074 0.5799057
314 -0.6428757 0.23671407 -0.4552907 -0.29527175 0.13655324 0.011072027 -0.15245639 0.43706447 -0.05261747 -0.535592 0.6188221 -0.6307067 -0.12993555 -0.965325 -0.17490123 -0.29056495 0.15223405 -0.34886053 0.07462365 -0.1554103 -0.11561449 -0.56148285 0.18517049 0.30590454 -0.20304307 0.10369966 -0.49251524 -0.746515 0.24639882 -0.8616815 -0.4446561 0.34350288 0.4117535 -0.103839174 0.17436202 0.550177 0.15260878 0.49876207 -0.5589075 0.36112142 0.36502674 -0.09718993 -0.15277691 0.1447865 -0.38302365 0.25100353 -0.3729665 0.3767458 0.41105482 -0.09213616 -0.06270012 -0.32068714 -0.22920346 0.0048449975 -0.10169063 -0.035773966 0.6262379 0.41429886 0.054055713 0.45295382 -0.60142237 -0.614779 -0.04223248 0.28108644
188 0.08064533 0.52054554 -0.16387068 0.65461713 0.17123495 -0.05435153 -0.34599915 0.18371071 0.021657271 -0.57400817 0.32283336 -0.3684856 -0.08100438 -0.09346768 0.4643659 -0.15590882 0.23374254 0.2647373 -0.19318101 -0.4037537 0.55512774 -0.042859543 0.53839165 0.17264466 0.31562242 -0.28503838 -0.73366326 -0.23742287 0.61853194 0.03925137 -0.12114821 0.8180444 -0.27398804 0.0989509 0.27858892 -0.55921394 0.24396507 -0.0477943 -0.46945238 0.25818473 -0.048141718 -0.19592884 0.5810046 -0.5158248 -0.32886538 0.65846676 -0.16344728 0.13493623 -0.18656692 0.30153337 -0.3997097 0.31061208 -0.45977873 0.29704157 0.2878053 0.6948776 -0.7698226 -0.18828027 0.53147566 -0.46357563 0.12367971 -0.31334466 -0.3163439 0.8201655
237 -0.1833866 0.6736992 -0.7192044 0.3865908 0.2763513 -0.63745135 0.2832449 -0.15161201 -0.038487423 -0.4423252 0.274162 -0.17268476 -0.47154957 -0.109026074 -0.18689778 -0.01035237 0.058621015 -0.87129426 0.074489735 0.35171565 -0.30629757 -0.5684762 0.7918903 -0.36259332 0.22262502 -0.31699792 0.13178644 -0.23574236 0.33245182 -0.7328607 -0.4512816 -0.3898338 -0.44951552 0.8007799 -0.11858724 0.067682795 0.077358924 0.6675456 -0.35460338 -0.3875526 0.11780994 0.36625144 -0.4911135 0.33936733 0.24426584 0.109623514 0.30727246 -0.5692981 0.68944347 0.69983935 -0.72901326 0.10654565 -0.3294748 -0.45178446 -0.21154264 0.4335962 -0.1000349 0.014977172 0.438081 0.32402563 0.011623292 -0.494136 -0.15425317 0.78138924
206 -0.3896584 0.22786568 -0.4021589 -0.4362704 0.91821015 -0.38611323 0.6751754 0.18298706 -0.64051425 -0.2567004 0.18574741 -0.34091157 -0.32036552 -0.6832983 0.18197195 -0.64065033 0.11782823 0.13422629 -0.5355377 0.5025204 0.07585522 -0.533778 0.2244359 0.018373502 -0.6126374 -0.51972425 -0.6340623 -0.4020333 0.5687475 -0.77438617 -0.057438403 0.36699876 0.073942594 0.8140323 -0.008040456 -0.28183854 0.22134472 0.084041595 -0.78606683 0.5176845 0.40601793 0.5451321 0.34974685 0.5983154 -0.47673222 0.005663021 -0.4002627 -0.20181905 0.36665472 0.22313328 -0.31871107 0.3912214 0.48088685 -0.091859475 -0.36574766 0.56423724 0.1873648 0.12822767 0.0039666044 0.14426886 -0.108313374 -0.006245593 -0.2154316 0.30909073
216 -0.37691635 0.8603823 0.22513916 0.47681528 0.29287744 0.22846867 0.2813562 -0.37652907 0.15703802 -0.2053877 0.8109874 -0.23466252 -0.12517717 -0.29096988 0.07269137 -0.014142988 -0.33637205 0.30620587 -0.55340236 0.08274088 0.16999121 -0.25918207 0.88475597 0.5470586 0.21758614 0.2831153 -0.24143378 0.22281702 0.69651705 -0.588719 0.27276865 0.3257193 0.050107323 -0.37645796 0.20954409 -0.07508948 -0.022407867 -0.046341617 0.07032594 -0.33675545 -0.30404338 0.2622995 0.75633305 -0.46719128 -0.31311157 0.154503 -0.33561563 -0.20078251 -0.27261704 0.22052307 -0.63379157 0.523755 -0.009386617 0.18106559 0.007301239 0.39501745 -0.47904345 0.11279972 -0.122291565 -0.25812495 0.5941525 -0.018516773 0.13511002 0.30076355
271 0.019238915 0.13707028 -0.78836113 0.2459527 0.12276348 0.17513725 0.08045257 -0.7298785 -0.3662753 0.29184693 0.0043748524 0.30569562 -0.815016 -0.41748592 0.3454388 0.12272221 0.35678655 -0.5391979 0.36509827 0.15044592 -0.26213023 -0.18773861 0.5505848 -0.0052057947 0.38525137 -0.018068207 -0.14129552 -0.4975293 0.23459016 -0.50505996 0.6317985 0.33754522 -0.48865002 -0.18118052 0.6009006 0.15313664 0.47520548 -0.03355531 -0.8708954 -0.046504427 -0.010433919 0.40877074 0.10722344 0.8711496 -0.7067497 0.21091713 -0.6101836 -0.1543001 0.20082785 0.622496 -0.7920276 -0.390101 -0.20681036 -0.16792977 -0.51349473 -0.18935001 -0.2618241 0.3895784 -0.3288851 0.3005466 0.20874457 -0.058063805 -0.024516469 0.91180336
15 0.45833325 0.4815936 -0.26340172 0.17482972 -0.32800674 -1.2805766 0.25901386 0.08121042 -0.46997222 -0.22339037 0.1083426 0.597924 -0.6119759 -0.884626 -0.5535841 0.36214948 0.24225783 0.19935402 0.50093156 -0.014745784 0.28485948 -0.9174843 0.8240651 0.26911283 -0.25428936 0.15952823 0.020112274 0.14867085 0.24003042 -0.2960302 0.62589127 -0.11560583 0.5269869 0.38318703 0.070318185 0.042704742 -0.021553298 0.41618946 -0.66877484 0.40391678 -0.39045596 0.12006289 -0.13955118 -0.049856987 -1.1980219 0.24951674 -0.51832235 -0.10802681 -0.5780252 0.407083 -0.052936934 -0.40627283 -0.098694906 -0.5705781 -0.3222445 0.059564218 -0.6499676 0.21824637 0.39396846 -0.028352497 -0.0021262562 -0.8109178 -0.573032 -0.14170758
226 -0.36552328 0.0345033 0.33139595 -0.31705096 0.3533879 -0.30864164 0.6039238 0.27027154 -0.24815951 -0.6808634 0.44238737 -0.42250353 -0.008242163 -0.24861923 0.3566754 0.03871863 0.58954513 -0.22664258 -0.6198803 0.11705402 -0.42797187 -0.47200632 0.113165505 -0.33982235 0.6649404 -0.13643165 -0.108921595 0.083472624 -0.24110836 -1.1547875 -0.15164527 -0.05771267 -0.17113326 0.0785848 0.02695585 0.120107524 0.4338233 0.024005147 -0.26381084 0.070520885 -0.027505668 -0.19476426 0.08784632 0.06943639 -0.35394764 0.03865848 -0.37210593 0.04582962 0.3806476 0.2925793 -0.404296 0.121290386 0.05270656 -0.15039954 0.20461549 -0.22697897 0.42500085 -0.119150415 0.24048261 0.13792183 -0.18120655 -0.47660106 -0.2392582 0.42879748
35 0.4138823 0.8627366 -0.4575343 -0.16476803 -0.8296583 0.08378739 0.77498704 -0.049124308 -0.26657662 -0.38722414 -0.20326768 -0.44715127 -0.023176696 -0.62025726 0.30951157 0.644789 -0.041741177 -0.18967457 0.06278191 -0.1355141 0.6979412 -0.763297 0.05719376 0.4668887 0.00318887 0.3349948 0.18295342 -0.018689515 0.38318434 -0.48553455 0.4589977 -0.51759154 0.3452441 0.17144608 -0.68443227 -0.4933932 0.51293576 1.0815171 -0.230587 -0.38307956 0.07261937 0.42018673 0.37979093 0.45002487 -0.85266167 0.10107563 -0.17124379 0.25087053 -0.335109 -0.07852893 -0.2903612 0.27123085 -0.07030216 -0.19150496 -0.97894526 -0.47327924 -0.24397404 0.3944607 -0.35103014 0.4302959 -0.12708655 -0.35831803 -0.38925266 -0.023226826
142 -0.0152797075 0.58780104 -0.056141157 -0.31950003 0.03774477 -0.003442729 0.5852437 0.53181106 0.08006982 -0.041019928 0.15291414 0.4726825 -0.14073491 -0.40989602 0.44716397 0.5716878 0.22793971 -0.31116387 0.5269036 0.46525484 -0.50928134 -1.1074656 0.8388936 0.8859326 0.124854416 0.21865126 0.18706305 -0.0057881624 -0.6232817 -0.49498436 -0.16350822 -0.06269543 -0.979924 -0.08050344 0.4180642 0.591672 0.33445403 0.10773442 0.2800157 0.3039887 0.24425937 -0.05750642 -0.24986681 0.100459635 -0.32775128 -0.4216471 -0.17616156 -0.108273834 -0.07378601 0.032894615 -0.40717685 -0.40999913 -0.38178912 -0.43225124 0.12262673 0.19985181 0.14173038 0.1883566 0.05321465 -0.100620724 0.5346191 -0.5234249 -0.4282301 0.55075437
310 0.65241206 0.60796946 -0.21032389 -0.58843887 -0.14685977 0.6653107 0.27380016 0.33952323 0.69559187 -0.1290497 0.05370343 -0.24053937 -0.66735816 -0.6563146 0.2822034 0.7648266 -0.010984507 -0.54907703 0.21901785 -0.051324803 -0.14598525 -0.8181528 1.0679972 0.8237189 0.3773326 -0.13991182 -0.19789653 0.26081342 -0.19254193 -0.6021373 -0.12088328 -0.06802187 -0.9661009 0.10851288 0.33813277 0.4341544 0.16174781 -0.12638278 0.14931 0.44893506 0.24245107 -0.41770118 -0.3561475 0.023560373 -0.15451653 -0.60926515 -0.62099886 -0.004728201 0.27790046 -0.6023154 -0.4938229 -0.7534184 0.047401875 -0.51979405 -0.08460118 -0.03349014 -0.6109144 0.4372926 0.3454753 0.72438556 0.82986754 -0.25812063 0.14183451 0.73397905
257 -0.038287446 0.60624117 -0.10618994 -0.3213747 0.085462004 -0.0831482 0.5576342 0.5066065 0.087158225 -0.14062794 0.22109708 0.5456936 -0.10911555 -0.44067377 0.5283105 0.5894424 0.23418446 -0.38801348 0.5940573 0.4727424 -0.39047977 -1.0896442 0.8326282 0.8421959 0.1946375 0.167856 0.2278946 0.033316668 -0.61771536 -0.42015785 -0.20419115 -0.055397008 -0.93941885 -0.09890603 0.4383489 0.69153345 0.35647154 0.09031391 0.39221612 0.28411508 0.24077015 0.009713134 -0.27909377 0.1552957 -0.36756313 -0.3103584 -0.22190224 -0.12751953 -0.052965086 0.082605 -0.34962556 -0.38165605 -0.3956328 -0.39994407 -0.005466103 0.21209392 0.11326475 0.12647694 0.054433595 -0.0418543 0.50999796 -0.52877563 -0.2802495 0.60799325
227 -0.35879514 0.039741796 0.3214136 -0.33309302 0.3011643 -0.22874407 0.62164104 0.29167622 -0.2733991 -0.64610535 0.4337696 -0.34095347 -0.020293083 -0.33195013 0.33811325 0.05639145 0.5978938 -0.23214573 -0.66170603 0.122062355 -0.47097525 -0.44501755 0.08922801 -0.33991224 0.66314006 -0.16753277 -0.09610416 0.07468906 -0.18810809 -1.1493471 -0.1251287 -0.08061318 -0.16967385 0.06263464 -0.011546408 0.09948904 0.4233125 -0.0018800497 -0.29629055 0.06372648 -0.017363334 -0.17508657 0.05633919 0.060969967 -0.4426422 0.054595016 -0.36900383 0.07805976 0.3861539 0.3021543 -0.36817923 0.16021286 0.10844536 -0.12760557 0.23173042 -0.17582102 0.4939777 -0.16288832 0.2158086 0.14024779 -0.17949374 -0.45106518 -0.15545729 0.48946708
306 0.09230722 1.05114 -0.28923172 -0.14104393 -0.19050625 -1.3186212 -0.013955669 -0.0024911365 -0.50161946 0.013428219 0.059075143 0.70442444 0.14243856 -0.98510796 -0.27927685 0.87009954 0.3307832 0.22220185 0.3918817 0.37719712 0.86266273 -0.80088836 0.72414726 0.16805387 -0.046304114 -0.36321986 -0.45444396 -0.1056268 0.5008245 -0.5866117 0.61709195 0.10258216 0.7110664 0.23639217 0.36706573 0.34043363 0.0459523 -0.03681978 -0.89589417 0.17098884 -0.07245515 0.13870251 0.005117602 -0.5081195 -0.94909334 0.24909696 -0.401937 0.27495843 -0.4196131 0.40362164 0.23902455 -0.33937728 -0.5142194 -0.8002193 0.13852176 0.18238378 -0.782178 0.108121045 0.22471839 -0.25575626 0.0039240425 -0.22210403 -0.55042255 -0.11590913
186 -0.09927108 0.26760748 0.19152474 0.5358264 -0.049290527 0.026340926 -0.3002292 0.06327695 0.2092862 -0.5705253 0.081268854 -0.3673411 -0.31603357 -0.26185682 0.2727192 -0.55965644 -0.050134994 0.060507298 -0.43890232 -0.21142377 0.22171164 0.034359157 0.70716333 0.40991682 0.14751513 -0.12845175 -0.5222208 -0.0824791 0.87908 -0.34078497 0.28288257 0.6657025 -0.24780414 -0.0938121 0.58716655 -0.26130217 0.052209508 -0.060928065 -0.17371461 0.15700395 -0.024369475 -0.19759536 0.7769744 -0.30092052 -0.46523985 0.46074656 -0.43649432 -0.2129997 -0.29645127 0.08941348 -0.37987337 0.5918548 -0.484818 0.31390452 0.24918704 0.7214595 -0.447543 -0.22866833 0.0053833695 -0.11691026 0.100184 -0.47667518 -0.30645782 0.5988112
304 0.09129439 0.969922 0.28442916 -0.21405028 -0.2796248 -0.49273008 -0.033651445 -0.45309946 -0.22573875 -0.30424237 -0.21026136 0.2594379 0.08838505 -0.6193624 -0.04360439 0.39764214 0.45974767 0.30059317 0.32985112 -0.37690505 0.5973373 -0.8336296 0.6498208 0.019514546 0.13568671 -0.44279638 -0.77774954 -0.24787101 0.31454295 -0.5102459 0.2760288 0.1242211 0.046019003 0.4002731 0.18523848 0.13426498 -0.22678487 0.07216841 -0.6397895 -0.01900067 -0.4120557 0.57609016 -0.31719613 -0.4936863 -0.6849035 0.0863309 -0.6936831 0.3165889 -0.16903286 0.43524167 0.060159396 -0.2374024 -0.21156217 -0.29310378 -0.5241614 0.4184421 -0.6524296 0.49918973 0.26713425 0.03553076 0.08523954 -0.6551711 -0.5093105 0.088300034
272 -0.053786572 0.21113165 -0.79797715 0.3369938 0.14096022 0.27159283 0.10360124 -0.6885454 -0.34742573 0.21686958 -0.025562024 0.25873566 -0.7449394 -0.43092734 0.29546613 0.14582278 0.39594054 -0.4699955 0.41730702 0.116724804 -0.32476264 -0.16713288 0.5412798 -0.017746795 0.32440883 0.07329106 -0.1366087 -0.54221165 0.18548964 -0.5376817 0.6440777 0.23020777 -0.45183966 -0.2086249 0.6425955 0.16428728 0.45628175 -0.04984705 -0.9209655 -0.15566096 -0.058635503 0.3346871 0.03804927 0.8721886 -0.74757075 0.15119047 -0.5306844 -0.03573199 0.23719056 0.55966645 -0.7906421 -0.33000496 -0.0841957 -0.20859301 -0.5345188 -0.064921886 -0.3549382 0.29605705 -0.3397763 0.3378955 0.26302627 -0.08138271 -0.06986804 0.96478045
219 -0.4373478 0.53181505 0.40519166 0.43217906 0.54746413 -0.17504983 -0.5606478 0.050945718 -0.053639993 -0.62414366 0.2038625 -0.11694154 -0.54125726 -0.40985578 0.797571 -0.31370175 0.096633464 -0.055147663 -1.1293818 0.35347885 0.1915371 0.31639886 0.6828606 0.4841762 -0.01792764 -0.14093581 0.07795147 0.44776666 1.0392497 -0.90265745 0.659878 -0.040194385 -0.20263353 0.3654303 0.26265168 -0.07761262 0.36782646 0.2545833 -0.3644421 0.08858481 0.2522007 -0.20575242 0.25612435 -0.08836119 -0.55908626 0.035250213 -0.49958447 0.19052346 0.06716309 -0.3797222 0.28619108 0.24396117 -0.29516774 0.43898872 0.38779965 0.9014335 -0.10450101 -0.2638356 -0.6686959 0.21568674 0.07120541 -0.54528606 -0.31655127 0.7260836
207 -0.37199926 0.34707138 -0.32703975 -0.43443558 1.0048444 -0.25166348 0.70551044 0.18058372 -0.5040322 -0.1834492 0.23023126 -0.24546014 -0.3020889 -0.66147095 0.24410678 -0.7163749 0.2461524 0.16988781 -0.459059 0.47532156 0.040698923 -0.57193434 0.24631986 0.061363954 -0.73062193 -0.5339312 -0.5916406 -0.4256213 0.648505 -0.76352155 -0.09829268 0.311798 0.1371872 0.7966689 0.052070927 -0.27777106 0.22615099 0.043860972 -0.747846 0.47575787 0.32619113 0.5922994 0.36677942 0.7086917 -0.48691574 0.11738789 -0.3377447 -0.054478798 0.17629886 0.1800741 -0.37550628 0.39540327 0.4126196 -0.1981346 -0.28788817 0.55581164 0.29959673 0.22259691 0.031881604 0.09918582 -0.110274725 -0.0034002925 -0.23577838 0.2756209
302 -0.2985679 0.7889759 -0.19544743 -0.3784533 -0.26207498 -0.5297831 -0.019129496 -0.34910622 -0.39320818 -0.11778578 -0.21911907 0.30794057 0.2033433 -0.48974925 0.12674181 0.8077642 0.29805404 0.2948412 0.36269855 -0.03747678 0.6440363 -0.8490301 0.5391324 -0.22353862 -0.074231826 -0.4001117 -0.75913465 -0.005386516 0.29721856 -0.81343585 0.2630365 0.562761 0.0059064794 0.12640658 0.1578054 -0.08177782 -0.068077326 0.015688973 -0.76054174 -0.1656622 -0.21959911 0.45351094 -0.20150127 -0.9114718 -0.72750586 0.052423097 -0.8605172 0.12837924 -0.13188277 0.22253539 0.043764025 -0.22991046 -0.18297662 -0.18809448 -0.2358636 0.3804178 -0.69590706 0.33168885 0.25550553 0.03184329 -0.036215935 -0.4474733 -0.2397366 0.16330332
24 0.39999953 0.6251623 0.41860938 0.54052144 0.37853497 0.29946443 0.54690516 -0.26588795 -0.64066374 -0.4724751 0.3452127 -0.075555235 -0.60649514 0.5196525 0.32703048 -0.3695266 0.037379265 0.80241185 -0.8264401 0.64104885 0.66881144 -0.17318475 1.2495437 0.7621569 0.17728396 -0.13603699 0.27800617 -0.040583346 0.45450234 -0.93698525 0.9484325 -0.095005475 0.10947672 -0.32866508 0.69362646 -0.47907284 0.46145612 0.36576968 -0.47480884 -0.283893 -0.28650284 0.37021172 0.10304962 -0.39456525 -0.20651685 -0.010508845 -0.20511334 -0.2512222 -0.2591638 0.1489829 0.2022802 0.15890065 0.047368623 -0.01703194 -0.32684067 0.3836728 -0.45794982 0.25938717 -0.28114626 -0.091043524 0.6569282 -0.35605034 0.13362868 0.4782634
159 -0.15158616 -0.014358903 -0.3819568 -0.03938089 -0.21766579 0.7648615 0.5337211 -0.30559278 -0.3936143 -0.616975 -0.038562987 -0.09148337 -0.7235805 -0.60594827 -0.18990815 0.51084685 -0.037645042 -0.040771164 0.12994763 0.031025006 0.8627501 -0.6689833 0.32391602 0.33713874 -0.0042780857 0.1606439 0.10365809 0.08347246 0.36075866 -0.25274926 0.64023846 -0.20161286 0.15348126 0.23093522 -0.35348487 0.33456272 0.61679965 0.585792 -0.17017603 0.3419399 -0.041729353 0.07981822 0.24828742 -0.027890597 -0.98225653 0.19028598 -0.49370337 0.08168745 -0.4369277 0.04035022 -0.6471301 -0.22408031 0.11011276 -0.97538096 -0.26719972 0.05883749 0.038078327 -0.22689527 -0.48989058 -0.088533714 0.35826236 -0.60663587 -0.5352518 -0.5042855
155 -0.11655577 -0.04998419 -0.25908926 -0.04581759 -0.27032837 0.8316429 0.60796463 -0.18200608 -0.487402 -0.62949276 0.0059865755 -0.14477949 -0.74738836 -0.5970217 -0.124660686 0.6157863 -0.16211036 -0.08182671 0.20507078 0.028814819 0.8231179 -0.6461832 0.35571113 0.3408046 -0.026831986 0.09158655 0.14666186 -0.014371194 0.43614644 -0.21634859 0.66891205 -0.16034669 0.12741785 0.19749974 -0.32938075 0.35913053 0.5901526 0.5723881 -0.22735944 0.31936586 -0.073801845 0.12930425 0.28361955 0.008653691 -0.9186395 0.23207866 -0.42272186 0.16328289 -0.43429527 0.10602714 -0.61327875 -0.25155997 0.07767602 -0.9964503 -0.19419849 0.11055293 0.071185306 -0.2353236 -0.43494686 -0.12890752 0.35047793 -0.53035706 -0.5524764 -0.4820432
56 0.40704945 0.21067746 0.5597501 0.53470534 0.2502724 0.14404579 0.29732054 -0.21943946 -0.76231885 -0.6879969 0.25496957 -0.12501362 -0.44136956 0.50378 0.7319584 -0.353149 0.010647315 0.7635569 -0.8984784 0.6787327 0.8971127 -0.17467226 1.3543822 0.5827297 0.2398861 -0.5102509 -0.11441816 0.24667108 0.1166377 -0.8525946 0.90540063 -0.009509015 0.24088512 0.05040875 0.8459819 -0.26237607 0.5249487 0.040247932 -0.64368886 -0.39087415 -0.14096051 0.18610556 0.15578133 -0.37272418 -0.49594718 -0.049662072 -0.0993135 -0.056274083 -0.199802 -0.16722502 0.039837603 0.044699285 0.18929125 -0.0699493 -0.36463043 0.25035334 -0.53072584 0.13165347 -0.24586938 0.34470347 0.7050718 -0.35727042 0.16296564 0.5751187
286 0.23269342 0.348216 -0.60896343 -0.062366758 -0.18848039 0.48502073 0.7373286 0.4022288 -0.32418552 -0.08058201 -0.315726 -0.5653398 -0.12484274 -0.38006788 -0.06335969 0.7660164 0.24681337 -0.35262945 0.6265981 -0.1341629 0.6143591 -0.31016585 0.042425353 0.63859785 -0.30802682 0.03259378 -0.12891623 0.0073925117 -0.18674299 -0.6119234 0.47232112 -0.10632592 0.32360104 0.42122135 -0.113203496 -0.30163544 0.0116440635 0.82000375 -0.3616596 -0.23282479 0.015348968 0.270079 0.65084463 0.25287384 -0.71023566 -0.37950006 -0.249263 0.21851039 0.12973128 0.057761773 -0.098602 0.17980824 -0.4550515 -0.10282154 -0.79409957 -0.26948148 0.02645206 0.13523017 -0.17900604 -0.08981837 0.2031579 -0.199415 0.11098063 0.29382342
126 0.43351957 0.28054798 0.54339623 0.5152883 0.2606971 0.14951852 0.426819 -0.29447255 -0.60685843 -0.7349051 0.34020597 -0.11082927 -0.5178807 0.53906715 0.7465248 -0.4828228 0.023798985 0.6368679 -0.9659607 0.56504923 0.7226052 -0.06150352 1.353399 0.63601243 0.15604374 -0.51888734 -0.06304039 0.37647834 0.08768509 -0.81302106 0.98707414 -0.027410606 0.2545162 0.099425614 0.8632835 -0.2989258 0.55726653 0.08060421 -0.7464749 -0.38617602 -0.20445798 0.2952731 0.086594254 -0.43589318 -0.5275614 -0.063641004 -0.15484953 0.0003191381 -0.21095839 -0.06873065 -0.056512937 0.007332395 0.09415502 0.016310297 -0.45341182 0.2973212 -0.5444477 0.05231383 -0.2786859 0.28572786 0.5082626 -0.40174663 0.22685607 0.45843932
40 -0.16019425 0.21861294 0.0726256 0.50330895 0.116536945 0.0074475235 -0.36480874 0.10506491 0.2357573 -0.56125313 0.12491119 -0.3359676 -0.28497916 -0.27105346 0.24789895 -0.42132664 -0.16491634 0.0745951 -0.44975793 -0.19186048 0.4005417 0.10955194 0.7355521 0.46338564 0.13487196 -0.12686668 -0.54875535 0.0125447605 0.8382203 -0.4236775 0.25202823 0.58678657 -0.32209712 -0.036767256 0.52301884 -0.3682126 0.0974992 0.0049903877 -0.2479644 0.1759429 -0.14374925 -0.29769966 0.7372332 -0.28052554 -0.35327423 0.54417866 -0.30798724 -0.135262 -0.20873721 0.19369173 -0.4537419 0.5820126 -0.40663525 0.4165293 0.2562482 0.58228904 -0.4792367 -0.11241191 0.12739277 -0.30014712 0.124409385 -0.5493282 -0.37037116 0.5816834
118 -0.35591465 0.80132794 0.13627918 0.41949874 0.25774655 0.19054058 0.12771231 -0.33765152 0.12503445 -0.34130505 0.8459959 -0.3521314 -0.17666808 -0.293348 0.06315588 0.114455596 -0.3580754 0.21915345 -0.4788342 0.005520842 0.22547428 -0.2658998 0.96212286 0.3733925 0.21720026 0.10182045 -0.2500976 0.064326055 0.6846995 -0.5135806 0.29006305 0.4533191 -0.062677376 -0.3982614 0.1512754 -0.009309578 0.11295774 -0.046784077 0.027033012 -0.39946342 -0.17578329 0.15343206 0.87815225 -0.3666039 -0.14272003 0.19093132 -0.31320673 -0.2030163 -0.2807624 0.20087472 -0.46688843 0.57687694 0.021775123 0.3304144 -0.010065593 0.41314712 -0.49854547 0.12388376 -0.0989489 -0.3774261 0.5576246 -0.059198022 0.17531021 0.21644211
