207 64
203 -0.11053042 0.7393175 0.76207644 -0.3214824 0.07610813 -0.36791256 -0.040292226 -0.30688825 1.6536425 -0.6247445 -0.07710721 0.0371847 -1.7564477 0.30607432 -0.96680856 0.90281886 0.251278 -2.2222855 -0.07621107 0.017001774 -0.5204001 -0.6658796 2.7977927 0.5772627 1.3966424 -0.015751965 -0.8314366 0.021787489 -1.259281 1.0746728 -1.3753909 0.56237334 -0.7240669 1.5268363 -0.40775064 0.8848312 0.074015394 -0.038304873 0.80919784 -1.8178008 -0.18949158 0.432721 0.3316915 -0.5630104 1.434354 0.044785965 0.80578387 0.51782155 -1.2415177 -1.3395221 -1.8116331 1.290636 -0.8565956 -1.6128365 1.3721664 -0.24555196 0.4677133 -0.23675726 0.7504267 -0.57895964 0.018287344 3.028324 1.0234296 0.72598386
181 0.15060215 -0.48647714 0.5851431 -0.7606822 -2.0455883 0.029253487 -1.2022746 -0.031955138 0.3349249 0.24835134 -1.8672727 0.3587013 0.51325494 1.1822193 -1.7150266 1.8845863 0.58114886 1.1044573 -0.73692006 0.32602423 0.39429078 -0.79818577 1.010261 -0.3681868 2.5380518 0.16829246 -0.5703848 0.6357759 1.9158902 0.28109965 -0.7944238 2.3698049 0.6955294 1.9159355 0.27688923 -0.68884706 1.7171199 1.1013632 1.5869085 -0.026831638 -0.8481695 -0.6135714 -0.38886303 -0.1408915 0.8645555 0.43000785 -0.41487908 -0.7395163 -0.657342 -0.43755507 -0.23764572 -0.12751126 0.62724847 -0.74596846 2.1135843 0.6588899 -0.99053264 0.23494232 -0.38661674 -0.21860825 -0.90116954 0.562912 1.4819647 -0.8823413
126 -1.1912953 1.4460586 0.10742135 -0.6949715 -2.3291056 -1.2459513 -0.8990914 -1.293691 0.4039284 0.52217156 0.66436243 0.95346916 -1.7983489 1.728759 -1.1598363 1.7827458 -0.3117797 -1.4116197 1.3708017 0.19356827 -1.977786 -0.96208036 2.2248857 -0.3668196 3.1220217 1.4208266 -2.0916896 -0.63552487 0.67320246 0.41488436 -0.08283049 0.0031468007 -0.30374584 2.1348495 -0.57515407 0.45962146 -0.38655233 0.8377322 0.5693674 -2.5159848 0.29830572 1.4723696 0.03412512 -2.014177 1.7865855 1.2482138 0.95297295 -1.9611456 -1.5650935 -0.53856415 -0.010001809 1.4079264 -0.23087738 -2.2495885 1.5038508 -0.25004598 -0.42762184 0.080679946 0.78876776 -0.014480583 -1.3911549 3.8716443 1.0582348 -0.1218951
182 0.21859658 -0.17480367 -0.33622992 -0.21873759 -1.2332159 0.112856776 -0.3779724 -0.4740552 0.4338868 0.081927106 -0.73939705 1.5146141 -0.15371472 1.2173512 -1.6906892 0.58663565 -0.2276954 0.5848838 0.83583206 -0.009225786 1.1402354 -1.3758092 -0.20455416 -0.8822833 1.5984524 0.5404318 -0.32210895 0.80081904 0.4883279 1.4162881 -0.7426368 2.5149977 0.11637902 2.0088885 1.0638084 -0.14074232 0.59430206 1.342148 1.067736 -1.5130655 -0.06454181 -0.16757727 0.50089365 -1.7104307 2.2315688 0.24615711 0.6546843 -0.91947615 -2.3186367 -1.3831607 -0.52866644 -1.0100658 -0.6492855 0.41207477 1.8199971 1.0295612 -0.24566461 0.3741908 -0.8135893 0.20766234 -0.18527657 2.1550808 -0.028106365 -1.7273941
146 0.013592798 0.06426643 0.17234 -0.1527517 -0.7011862 0.13014267 -0.15381187 -0.10462344 0.18055035 0.23843417 -0.44977748 0.48533732 0.10681286 0.48260412 -0.55470425 0.3243374 -0.020726632 0.25876483 -0.061046716 -0.16431367 0.3037574 -0.24973327 0.049563054 -0.008339421 0.822077 -0.07732354 -0.19749384 0.17303325 0.4891562 0.48596233 -0.29811347 0.75275064 0.090787746 0.4114274 0.111770056 0.09689042 0.45881918 0.5031116 0.62583023 -0.31380886 -0.24360836 -0.1499925 -0.22052869 -0.20789647 0.36576477 0.22022931 0.011853654 0.055959385 -0.29556474 -0.19986546 -0.00467193 -0.16833249 0.10216868 -0.09106656 0.43143353 0.43755245 -0.16220579 0.18613407 0.14284988 0.27131948 0.0021027003 0.5073064 0.3881224 -0.68453467
183 -0.30360517 0.15395398 0.01679266 0.3666387 -0.23925175 -0.055376265 0.08504811 -0.11318711 0.7171937 0.32909226 0.049792625 -0.25119057 -0.49718994 -0.25367483 -0.11801233 0.47627223 0.114987366 -0.05643927 0.2823976 0.2563934 -0.18650182 -0.73241705 0.52185845 -0.13170347 0.28239378 0.15908818 -0.8685775 0.2548151 -0.33844265 0.7649594 -0.2017747 0.31327486 0.028563634 0.54858804 -0.11442636 0.1636836 -0.15380883 -0.6375991 0.48169848 -0.4189307 -0.14091207 -0.3339009 0.011592606 -0.9200033 0.4174511 0.23160255 0.46299225 0.31160104 -0.24942915 -0.33063596 0.041952737 0.6206223 0.10276947 0.047525242 0.60177785 0.18510617 -0.19669835 -0.1953136 0.36199695 -0.18704477 -0.38208345 0.9517773 0.6819142 0.12993652
65 0.1769961 -0.14277352 -0.053139076 -1.094203 -0.32181016 -0.09805224 -0.09112679 -0.28205076 0.9377077 -0.030698698 -0.38231713 0.10507271 -0.5151264 0.5391237 -0.1368289 0.2665429 -0.045753382 -0.48101267 0.123134576 0.06351627 0.31362686 -0.4715219 0.23021828 -0.43940213 -0.028227746 0.333257 -0.24606122 0.03939099 -0.46424985 0.19240165 -0.3690052 0.38099226 0.13870312 0.054291748 -0.17075115 -0.16391034 0.29425925 -0.52796906 0.44944766 -0.71457446 0.13792431 -0.20231909 -0.14651792 -0.48421657 0.23315035 0.40463582 0.67182857 0.09598168 0.28218976 -0.3956528 -0.07947103 0.72421706 -0.023347372 -0.43838376 0.53937274 0.12323527 -0.29999128 -0.22410986 0.19229393 -0.35244447 0.4220622 0.92895687 -0.039386794 -0.25150394
60 0.024605988 0.006948289 -0.015958142 -0.20164995 -0.72056174 -0.061701555 -0.1281098 -0.04633231 0.1246231 0.011944041 -0.56255007 0.46990946 0.1553687 0.5439799 -0.20413384 0.26769 -0.19730705 0.24758217 0.17333066 -0.15638949 0.3720482 -0.3761556 0.25444752 0.04989691 0.71701 0.15078571 -0.12150848 0.196699 0.38169733 0.31241825 -0.21480602 0.7888214 0.2773166 0.6313936 0.15579356 0.13925102 0.22492233 0.17927817 0.6450289 -0.054055475 -0.2540296 -0.2323837 -0.15239833 -0.3683452 0.4339263 -0.0014883929 -0.18993522 -0.09243149 -0.34006307 -0.21420342 -0.2864759 -0.19355235 -0.06715125 -0.20298405 0.36801487 0.39240244 -0.0333771 0.16767335 -0.051287588 0.29165524 -0.13987976 0.2560109 0.17133775 -0.47558534
147 0.11928322 0.31415808 -0.28804594 -0.04128637 -0.30385506 0.39820385 0.10538862 -0.13897322 0.5175333 0.249506 -0.20582181 -0.21089071 -1.0517782 0.20355444 -0.19046104 0.45557314 0.10937852 -0.524552 0.025750075 0.07873375 -0.23693688 -0.5714234 -0.24908952 -0.3837606 0.46359622 -0.50459725 -0.31990305 0.35588548 -0.31801337 0.26843992 -0.40261847 0.22349548 -0.34842798 0.5526048 0.37270924 -0.044426173 0.17034023 -0.5707712 0.39741334 0.0044197757 0.100115605 -0.22616386 -0.04835815 -0.3899863 0.2481897 -0.41942748 0.25499955 -0.020558229 -0.12490069 -0.100330964 -0.53694713 0.48626286 -0.52361095 -0.70886475 0.473649 0.061672747 0.35762385 0.15273201 0.4680484 -0.25126505 0.18113275 0.8969102 0.25387183 -0.21761388
81 0.0925952 -0.031019239 -0.07719263 -0.17760801 -0.5591803 -0.06989625 -0.06650305 0.014157506 0.13713582 0.03542877 -0.4014859 0.59180146 0.2665497 0.53747725 -0.36390698 0.32321587 0.062369302 0.24189676 0.19431996 -0.055341057 0.4403088 -0.24320737 0.16607451 -0.058942422 0.7246889 -0.14680196 -0.2952469 0.27003062 0.221973 0.45175472 -0.09683951 0.78808874 0.15544498 0.58650017 0.2138991 0.09296012 0.14608587 0.34089166 0.56816584 -0.15298277 -0.26412234 -0.09862375 -0.194579 -0.27197814 0.45678112 0.06167463 -0.24395452 -0.29407817 -0.31149498 -0.21536148 -0.22643334 -0.2586653 -0.04359587 -0.13683239 0.6870268 0.35127938 -0.04473864 0.21943772 0.12754013 0.3756182 -0.16346027 0.3460202 0.18059605 -0.6125206
45 -0.5191526 0.38586855 0.5320332 0.2243085 -0.18658562 0.25904799 0.20351398 -0.08971842 0.6539921 -0.30270228 -0.16898403 0.021868037 -0.607157 0.632683 -0.42001045 0.5915389 0.14813964 -0.8449168 0.34316278 -0.12820825 -0.19871512 -0.27246383 1.5077605 0.63298225 0.72583103 -0.08257438 -0.39693183 -0.44750437 0.38648337 0.4396756 -0.28859285 0.13492423 -0.053917892 0.23684537 0.05591451 0.3208523 -0.058929883 -0.43320048 0.34103596 -0.49725297 -0.0135485 0.16074096 0.36302993 -0.535318 0.34490344 0.61241615 0.6601393 -0.17883271 -0.3749334 -0.8745052 -0.45170385 0.10032815 -0.48430818 -0.24464004 0.6165106 -0.11265005 0.349586 0.011606056 -0.108597316 -0.57746077 0.2975913 1.2913013 0.13914508 0.6540902
82 0.12006571 0.039548025 0.27599022 -0.2730307 -0.48087683 -0.003876271 0.07006315 -0.3626563 0.3731308 0.14362203 -0.39667377 0.5492193 0.26200426 0.60495543 -0.20096584 0.14646986 -0.089480326 0.1955991 0.22960627 -0.021330599 0.2518831 -0.1343104 0.19409378 0.051892746 1.0281404 0.008459519 -0.13553314 0.23451054 0.3764658 0.4501489 -0.23030587 0.828431 -0.07238264 0.3250213 0.20052943 0.005911923 0.38270774 0.03581272 0.6162656 -0.21268904 -0.20882392 0.032703917 -0.08225482 -0.2838742 0.4375349 0.32974297 -0.1201397 -0.24815267 -0.33920655 -0.20527034 -0.21326444 -0.1983146 0.03164734 -0.022933757 0.57473856 0.5042472 -0.07417897 0.04929279 0.14103216 0.33840117 -0.12218733 0.3278907 0.2619242 -0.57308924
76 -0.09592654 0.08274202 0.17393467 -0.32492754 -0.33424062 0.08005085 0.16739339 -0.69425225 0.5585974 0.32009003 -0.4088737 0.55182457 0.15395431 0.61153454 -0.07742559 0.25198197 -0.2445903 0.33254415 0.22583036 -0.06849508 0.2065095 -0.23750564 0.31580105 0.03431045 1.0160311 0.03401481 -0.015502494 0.36266807 0.36312288 0.45502236 -0.0890426 0.8826519 -0.17062657 0.34813583 0.08453539 -0.034900572 0.27059346 -0.24271213 0.585633 -0.25534672 -0.29802513 0.122015454 -0.18008247 0.039269928 0.4999946 0.264006 -0.07432665 -0.18503633 -0.25536057 -0.17290664 -0.25783595 -0.4890315 0.115070485 0.016266495 0.4588532 0.46103716 -0.16580957 0.11559326 0.06100161 0.35980135 -0.20667069 0.42058474 0.18591201 -0.32149944
64 0.0590613 0.13082506 -0.10355665 -0.90528125 -0.30571446 -0.14225052 0.022541746 -0.13068381 0.8462158 -0.2836457 -0.37490886 0.045715734 -0.4524263 0.45765838 -0.27356845 0.2520765 0.08801286 -0.4963488 0.100383215 0.11602767 0.17974705 -0.41121486 0.19779892 -0.502088 0.08532867 0.24477431 -0.31805336 -0.11089814 -0.6867777 0.27976745 -0.20248313 0.4766042 0.3270108 0.1329454 -0.36198157 -0.020512594 0.21866545 -0.36902997 0.34961122 -0.43182725 -0.016859118 -0.28764486 0.008903067 -0.42616493 0.297906 0.28221017 0.38242224 -0.10925831 0.24779159 -0.3446371 -0.006273308 0.61768425 -0.14535458 -0.4041388 0.2741991 0.20265879 -0.19080508 -0.12807246 0.30743414 -0.6594326 0.31063688 0.92757493 0.12136172 -0.2608373
63 0.08999088 0.12135963 -0.0023309959 -0.15921119 -0.58574164 -0.124711305 -0.12033908 -0.025975144 0.027934173 0.058666747 -0.5316069 0.45510054 0.11391729 0.6209451 -0.25971767 0.36838135 -0.19416948 0.3146516 0.1254803 -0.08385317 0.36540252 -0.2735099 0.28225204 0.11309548 0.8446991 0.025892664 -0.17878136 0.14984334 0.3626281 0.24597731 -0.18635672 0.73130375 0.3095483 0.6642418 0.1121472 0.20718087 0.23237838 0.19414191 0.62633604 -0.017596496 -0.35952562 -0.19714677 -0.17158288 -0.36658007 0.46104798 -0.06178376 -0.23632137 -0.14818653 -0.31594798 -0.36938503 -0.19556117 -0.34674907 -0.08897654 -0.124321096 0.4317777 0.43670008 0.0014123047 0.083002046 0.018538164 0.23660287 -0.08381365 0.30341637 0.15585417 -0.46882188
43 0.105070464 0.018961193 0.21866672 -0.2271366 -0.4185979 0.012203736 0.2112491 -0.5274193 0.3950894 0.14750035 -0.5111335 0.53798676 0.13925403 0.46421543 -0.37969744 0.057556856 -0.069189906 0.2566788 0.23431075 -0.020851562 0.25136164 -0.09268573 0.11934638 -0.04089018 1.1668607 0.020909138 -0.036443826 0.18890035 0.44521245 0.37847564 -0.2598868 0.8716877 -0.15751413 0.15904611 0.147009 0.062800854 0.26327416 -0.098452404 0.5532767 -0.2886262 -0.15546715 0.041783653 -0.03447685 -0.23107587 0.46078828 0.4827459 -0.14879523 -0.3405774 -0.28110722 -0.2363107 -0.21851733 -0.13780122 0.09242426 0.022127515 0.63064605 0.5005904 -0.17783618 0.023197569 0.12500569 0.46534863 -0.15745918 0.41348615 0.32341635 -0.5220402
30 0.07354827 -0.057866503 -0.0971032 -0.9674581 -0.23622449 -0.21394119 -0.13709742 -0.4686215 0.99994624 -0.14912754 -0.48451564 0.23708889 -0.4984809 0.37094304 -0.23120561 0.31512702 0.087382026 -0.4242197 0.04554701 -0.027547838 0.24268472 -0.32501984 0.14040062 -0.5031736 0.08997289 0.32420477 -0.23490827 0.043382272 -0.6818492 0.39400098 -0.22506288 0.37723997 0.20359775 0.051291466 -0.15963197 0.14725898 0.19885209 -0.46267718 0.2160889 -0.56262463 -0.040911384 -0.49642706 0.041078556 -0.36206904 0.26394296 0.33429024 0.5565137 0.08241972 0.19272774 -0.37632617 -0.11531726 0.70751256 0.026136158 -0.49125925 0.5313911 -0.009190329 -0.18235607 0.013412264 0.23803702 -0.47583038 0.27274477 0.86326873 -0.12161373 -0.32503584
131 0.25867984 -0.053896736 0.08646411 -0.1654631 -0.6394902 0.054791484 -0.12419193 -0.022140225 0.33949822 0.103427656 -0.41204354 0.31482583 0.25626162 0.5258054 -0.3265449 0.3874863 -0.064856835 0.20079795 0.08370712 -0.07564349 0.3904792 -0.28749543 0.13329874 -0.07538906 0.8321029 -0.0155403 -0.19077939 0.24329403 0.6554533 0.42904168 -0.31089357 0.53184056 0.27193987 0.48242906 0.073544785 0.17351875 0.25762948 0.34677848 0.63405424 -0.36898515 -0.24391435 -0.2837955 -0.00082227873 -0.20769669 0.3869971 0.15456218 -0.20186217 -0.22206911 -0.31687614 -0.2705091 -0.04641422 -0.2495292 0.032110877 -0.17778647 0.51155853 0.3563411 -0.115869954 0.012381311 0.096984714 0.39386085 -0.1472504 0.4401626 0.32199404 -0.79844177
158 0.14928648 0.0827041 0.061348666 -0.06662488 -0.7315692 0.063468084 -0.15569045 -0.02085778 0.25355765 0.22304556 -0.46446276 0.35930592 0.15845974 0.45041788 -0.57487804 0.32807177 -0.037539482 0.10863192 0.14234357 -0.12800728 0.3478973 -0.24247289 0.13549156 -0.051816247 0.8432579 -0.05506558 -0.10751871 0.2649173 0.55945456 0.43733057 -0.33228776 0.5976631 0.3008206 0.5471368 0.040808942 0.16543713 0.24485962 0.35827714 0.63797826 -0.25777125 -0.26180092 -0.30561274 -0.1916057 -0.091256596 0.28854227 0.2447465 -0.09408448 -0.11903671 -0.29938745 -0.2888708 0.051115945 -0.2007191 0.024648642 -0.13941787 0.5473832 0.36987403 -0.07397968 0.06644021 -0.01551211 0.4241158 -0.12666236 0.43792728 0.30423343 -0.7339675
141 0.23946887 -0.031802844 -0.065858565 -0.32624164 -0.5062287 -0.055245887 -0.12936579 -0.07155923 0.10393203 0.026437143 -0.33273107 0.39941826 -0.19002353 0.19898088 -0.34342745 0.4009939 -0.5292548 0.33757174 0.06691836 -0.24804473 0.23569226 -0.4694697 0.22937596 0.38936543 0.65484595 -0.09362326 -0.2598118 0.10366954 0.6294087 0.08253652 -0.18196167 0.7171766 0.2588794 0.6739918 0.088817425 -0.48256943 0.1890617 0.17381802 0.6660014 0.17879538 -0.22186062 -0.30909035 0.014693949 -0.16935812 0.3941982 -0.059265465 -0.26577812 -0.25429204 -0.1979141 -0.16683213 -0.27312088 -0.06741918 0.028019104 -0.10683893 0.46186882 0.27228567 0.39677438 0.18938722 -0.11667652 0.1149654 0.19008954 0.14832966 -0.015435988 0.027411602
26 -3.8088658 13.202892 4.4673276 1.483076 2.7695332 0.9045218 4.4960766 -2.4210384 0.9253428 6.0546074 -5.787365 3.2574494 2.1293283 -0.016612304 -10.426972 5.938542 -9.640168 1.6296327 3.2076168 1.7467519 -1.6624357 3.3632426 0.344409 -1.3277566 4.2996025 1.9828289 -2.8781226 2.2334235 -1.314469 -0.77506036 -2.2870789 4.429853 -8.586061 10.85546 2.3549051 -3.6877553 -1.6495603 3.7954555 4.6593165 -1.8815591 1.6756674 -2.2788916 -2.0852935 -2.2608166 5.308681 7.7680783 -0.7067344 -2.6436102 -4.5846543 -1.3317308 2.0763936 0.037277903 5.0953183 -0.087587744 -1.9778979 0.102902025 -4.5707517 -3.5175636 10.663366 -1.2089993 -3.9159346 -1.0905666 -8.335025 1.8928074
72 0.2767111 0.21997449 -0.12572715 -0.4010643 -0.5468563 -0.06386106 -0.15855809 0.053901356 0.1399863 0.04883255 -0.5348154 0.32344192 -0.045187738 -0.04438817 -0.31970176 0.3244812 -0.52696973 0.28852302 0.05844286 -0.26557708 0.038676623 -0.5810014 0.31898126 0.5372028 0.7203216 -0.1736472 -0.24858564 0.11074995 0.4828243 -0.14176951 -0.266994 0.60420424 0.3334445 0.7454049 0.15280437 -0.48868608 0.14768574 0.2663838 0.59604394 0.21318758 -0.17788365 -0.5179223 0.11521265 -0.4574945 0.18301941 -0.32849354 -0.39627236 -0.1201809 -0.10520664 -0.07114649 -0.027056364 0.020983635 0.04117098 -0.022263598 0.620679 0.05323387 0.54580694 0.12972745 -0.20294498 -0.17570299 0.19034265 0.035547026 0.111597426 -0.054874435
177 -0.12946837 0.22166659 0.2701835 0.15735754 -0.58793014 -0.37060735 0.053429123 0.143189 0.50868934 -0.29631075 -0.0056500346 0.13208368 -0.47108367 0.3107186 -0.26256934 0.26661488 0.157183 -0.7346715 0.16771987 -0.054907378 -0.36220643 -0.49388477 0.22137219 -0.11798515 0.17670447 0.08174403 -0.6328596 0.02446137 -0.3072609 0.6807878 -0.27070302 0.027614322 -0.09538518 0.24241166 -0.17585468 0.077494994 -0.22574532 -0.5054314 0.19547027 -0.4036666 -0.27755952 -0.07674532 -0.12344873 -0.6872792 0.4835245 0.40513504 0.41840896 0.08194472 -0.2995804 -0.3325259 -0.26429147 0.28850794 -0.0011526329 -0.5855999 0.63606983 -0.09092913 -0.19582787 -0.13991104 0.120063126 -0.04549439 -0.20488505 0.6990351 0.48628727 0.23554657
139 0.06135928 0.27010822 0.09161147 -0.30973613 -0.52976 -0.31362426 -0.077360585 -0.029295504 0.64514846 -0.12568155 -0.04247772 -0.21894886 -0.61014247 0.05544728 -0.3915692 0.34059504 -0.031537622 -0.3673899 -0.013442788 0.1844219 0.113098264 -0.42046696 0.39757693 -0.24325834 0.4782762 -0.25479215 -0.6150434 0.293008 -0.5675628 0.2962852 -0.54414177 0.46454725 -0.029879883 0.12398954 0.16119032 -0.014677283 -0.0492004 -0.59367466 -0.35818586 -0.65843934 -0.029305572 -0.3133849 -0.22799012 -0.5853612 0.31301472 -0.17785874 0.13599285 0.0585688 -0.12248603 -0.31038132 -0.42345187 0.3692015 -0.17691498 -0.41303194 0.41681215 -0.3271658 0.13796507 -0.36063436 0.23055047 0.059264872 -0.027387884 0.59584147 0.40873095 0.14600822
129 0.039765954 0.48535997 -0.0832651 -0.13712265 -0.30268675 0.111734934 0.047234695 -0.15190634 0.53936493 0.23629011 -0.10278525 -0.13849466 -0.8151614 0.09155943 -0.21750812 0.39039317 0.21372268 -0.58189815 -0.10917924 0.16589002 -0.117314115 -0.72755146 -0.09695693 -0.34787625 0.37622446 -0.4690451 -0.4720687 0.34287095 -0.27895525 0.2380577 -0.4153563 0.32025725 -0.23247114 0.38123178 0.1401319 0.13497895 0.15813226 -0.66013575 0.20351706 -0.36951718 0.020222323 -0.2913263 0.091401406 -0.5540318 0.22561741 -0.2918727 0.27635774 0.07865276 -0.09870872 -0.28767896 -0.36898085 0.35204554 -0.3023253 -0.70944107 0.42212102 -0.12310017 0.310749 0.014856374 0.2773351 -0.16547547 0.34470123 0.6156105 0.31591946 -0.16434897
1 -0.2048494 0.24471514 0.32137543 0.104726136 -0.2574396 -0.15456012 0.12591927 -0.06596269 0.43964338 -0.15713137 0.050532907 0.12601489 -0.4545715 0.23793462 -0.18534401 0.37058803 0.16894446 -0.5474118 0.17288297 -0.02034092 -0.35530135 -0.5084522 0.18031803 -0.1129122 0.350018 0.25919175 -0.6906462 0.11617298 -0.3885086 0.5690205 -0.38932452 0.08804229 -0.050985318 0.2855766 -0.13084888 -0.056702882 -0.12811455 -0.6843602 0.006706535 -0.33129695 -0.2590082 -0.2173557 -0.060306806 -0.67008746 0.6008472 0.32696003 0.40525654 0.10973964 -0.1841421 -0.2847406 -0.30797228 0.3881912 -0.059964746 -0.48931777 0.5912033 -0.035832062 -0.21423212 -0.024014419 0.21984167 -0.09319007 -0.26064 0.6941814 0.4850262 0.08193041
109 0.10391236 0.45638722 -0.2667637 -0.0097677605 -0.14995092 0.41424468 0.22768618 -0.11843156 0.48123372 0.22317925 -0.36917326 -0.09923686 -1.2035471 0.50537884 -0.033054017 0.27630422 -0.04869132 -0.49396938 0.20695227 0.111421816 -0.14762743 -0.7348904 -0.16831668 -0.37330526 0.24781823 -0.6133574 -0.23427448 0.39014578 -0.33596647 0.018562384 -0.379069 0.26942584 -0.295853 0.53943354 0.4752955 -0.10993395 0.07848582 -0.42910308 0.27827004 -0.24791504 -0.16570911 -0.17186163 -0.14379191 -0.27834252 0.36267897 -0.32060623 0.07047735 -0.056799285 -0.2611071 -0.35717314 -0.32525128 0.37335292 -0.6252865 -0.8544025 0.39598268 -0.1222646 0.28277707 0.020685159 0.5834743 -0.24816366 0.0041435133 0.72968394 0.44723818 -0.005845901
160 -0.34452823 0.15490222 0.20031247 -0.8808727 -0.117963776 -0.43837777 -0.5841352 -0.24184747 0.4769775 -0.26495558 -0.24659061 -0.24706554 -0.52045554 -0.2970876 -0.0117499055 0.24981877 -0.18340886 -0.22646703 0.4826815 -0.6340062 0.023998333 -0.5374337 0.1798405 -0.069268845 0.68590564 -0.19569501 -0.016769707 0.14752857 -0.36412215 -0.0575041 -0.13733816 0.41461214 0.28843397 0.0034126707 -0.19575371 -0.03832673 0.033021376 0.12573391 0.48045224 -0.051474795 -0.43547466 0.15303388 0.13750595 -0.27401674 0.40997285 0.14426593 0.107673794 -0.24775602 -0.10801928 -0.5788293 0.26240918 0.28992972 0.33921748 -0.36142895 0.854492 0.4016283 -0.3654877 0.24843757 0.13476345 -0.49087462 0.31962118 0.9516067 -0.24750964 0.043608613
180 0.035174817 -0.42059648 0.34553236 -0.09259157 -0.6416824 0.18374082 -0.34089056 -0.29182434 0.26088303 0.1475017 -0.40311307 0.26214775 0.031907342 0.8381693 -0.6560647 0.77196866 -0.01892526 0.12983467 -0.13543549 0.03643657 0.479479 -0.10272733 0.49601954 -0.3671983 1.1670005 0.079326555 -0.018320227 0.19305202 0.7955846 -0.018462284 -0.19062203 0.6206774 0.02232296 0.45476678 0.22998215 0.052715834 0.49065906 0.57258844 0.5703858 -0.15863548 -0.5027191 -0.666138 -0.26418838 -0.20164134 0.25108007 0.3536336 0.18906814 -0.012525765 -0.10059515 -0.09700027 -0.046741452 0.14864361 0.14546768 -0.010528146 0.7068309 0.2509519 -0.3441651 0.23182006 0.17215101 -0.06324404 -0.5542859 0.38351598 0.6806198 -0.38137627
137 0.16622181 0.02538327 0.098125 -0.49265188 -0.30219263 -0.13832015 0.021344777 -0.35125077 0.2883706 0.28290805 -0.35821307 0.3466526 -0.058798056 0.5782206 -0.14694773 0.49964303 -0.346486 0.47518852 0.1154265 -0.22225575 0.2530859 -0.34169132 0.15168895 0.23258896 0.77938074 -0.07826647 0.046794657 0.24654733 0.36672223 0.48714757 -0.11704898 0.79576236 -0.16659783 0.61879784 -0.12954457 -0.08576618 0.059843555 -0.08980529 0.61170036 -0.22859588 -0.39730448 -0.027675308 -0.24018767 -0.043181967 0.5116877 0.1696031 -0.2409184 -0.3539452 -0.3408593 -0.21411853 -0.2927746 -0.1615216 0.062326793 -0.11989386 0.24765669 0.31510514 0.040185153 0.3891308 -0.047856737 0.31334487 -0.08630444 0.045880128 0.08229324 -0.13441531
86 -0.008653456 -0.21896127 0.29910788 -0.07840595 -0.67059666 0.08247771 -0.09296796 -0.1013274 0.20404798 0.2900772 -0.4435812 0.18890487 0.09099151 0.69247943 -0.4909733 0.41524258 -0.0299581 -0.029852735 -0.037613537 -0.07100767 0.44556528 -0.19930221 0.20508045 -0.25272304 1.0968717 0.08363542 -0.19760863 0.2192505 0.698636 0.15769978 -0.32358065 0.801283 -0.08131178 0.5815437 -0.05545504 0.12539198 0.36880392 0.5612635 0.6490328 0.0012810237 -0.19158259 -0.48991168 -0.43096548 -0.08318631 0.22284368 0.20082606 -0.01765234 -0.2896295 -0.24234185 -0.038233552 0.0070138057 0.010564844 0.115310416 0.035467543 0.5434498 0.29517215 -0.41009098 0.03765793 0.123357 0.0018126781 -0.13559008 0.5743956 0.587926 -0.56325656
22 -0.32052088 0.23402596 0.06778229 -0.8699468 -0.32810754 -0.3597383 -0.49446422 -0.051051337 0.47029185 0.11336116 -0.19124295 -0.05909684 -0.14844789 -0.36091903 0.29710552 0.31051627 -0.15312952 -0.0141416155 0.26491416 -0.4359358 -0.09443601 -0.5307931 0.054804426 0.47897884 0.5496416 -0.36627296 0.22779174 0.40246862 0.008848986 0.1758295 -0.28318807 0.35591295 0.28607985 0.34069487 -0.07907376 -0.043798763 -0.021982642 -0.08803375 0.628901 0.068320885 -0.48876345 -0.0983291 -0.12471323 -0.20989142 0.5961534 0.04814164 -0.6032565 -0.32929128 -0.30070183 -0.5109228 -0.12738033 -0.12470715 0.31881005 -0.72395426 0.6560777 0.48809123 -0.17206635 0.46150944 0.20745888 0.26334682 -0.008710703 0.630907 -0.20809887 0.31047875
120 0.15760167 0.20167291 -0.22170055 -0.22320132 -0.5933425 -0.43638727 0.073031165 0.06363984 0.6045038 -0.087908134 -0.20993954 -0.35313526 -0.601268 0.08637571 -0.34956166 0.3469841 0.03383846 -0.38385746 -0.09256067 0.1572707 0.18198387 -0.4120397 0.36529398 0.024169229 0.6937936 -0.030572046 -0.66922957 0.2749033 -0.41326898 0.54926187 -0.79883826 0.65676445 -0.053731967 0.280055 0.22441931 -0.15152845 -0.07050961 -0.5724944 -0.42531404 -0.86168504 0.069197826 -0.30915973 -0.36146355 -0.46186414 0.35985267 -0.43888223 0.07042109 -0.090712965 -0.088237785 -0.24065666 -0.4483776 0.49967623 -0.24193157 -0.1882059 0.43128535 -0.38738608 0.07521398 -0.12847017 -0.14563991 -0.1527529 0.113980435 0.6999027 0.03208423 0.23725146
159 -0.22516355 0.18990342 0.2558485 -0.83014995 -0.10393374 -0.46258315 -0.7971557 -0.2771049 0.45139113 -0.30791456 -0.19772485 -0.18571101 -0.40215942 -0.13044478 -0.0131510645 0.24564599 -0.11048375 -0.24619432 0.44649658 -0.69989127 -0.044233426 -0.52387273 0.15534669 -0.08116703 0.6033456 -0.1961575 -0.053560402 0.23962888 -0.3731215 0.043596115 -0.18906024 0.3708134 0.24327068 -0.04474964 -0.13664104 -0.24470292 -0.13844487 0.22364041 0.60030484 -0.09975494 -0.4863964 0.15593326 0.103666656 -0.18535495 0.53935176 0.02683071 0.10786792 -0.3279656 -0.25660947 -0.55399597 0.21042916 0.41450748 0.32318088 -0.5091812 0.8720676 0.43366665 -0.22207685 0.35904813 0.038392346 -0.41107953 0.268548 0.77359676 -0.46216974 0.06396847
73 0.20114367 -0.18838893 -0.005801067 -0.6541961 -0.1665505 -0.2645796 0.04247316 -0.39575598 0.45251843 0.47231027 -0.55640876 0.38861033 -0.08434031 0.12237312 -0.04099717 0.68359023 -0.21335053 0.54744834 0.15561432 -0.0956268 -0.46385485 -0.21009313 0.11542341 0.20014566 0.83212274 -0.37301114 0.28400952 0.2881025 0.68923175 0.26131582 -0.21831594 0.61765295 -0.37760758 0.37958187 -0.11369725 -0.3759144 -0.06551004 -0.4185898 0.2255398 -0.013630742 -0.5715943 -0.25239632 -0.17730698 0.05843639 0.32193592 0.16745418 -0.28835994 -0.2740776 -0.5774664 -0.116193816 -0.13699661 -0.08678969 0.038876664 -0.2132379 0.42275646 0.40069565 0.30015093 0.27157953 0.24681158 -0.12995993 0.43451938 0.20911545 -0.03161173 0.10549084
7 -0.20338607 0.26027828 0.39474484 0.1040996 -0.39533207 -0.2567055 0.034297004 0.25889978 0.5209395 -0.22238217 0.04176167 0.07891189 -0.5255194 0.45885432 -0.23317257 0.19848092 0.21217965 -0.7136465 0.11327428 -0.086566925 -0.5497884 -0.4424807 0.2597377 0.0016691998 0.2840237 0.05892042 -0.7218602 0.101382345 -0.21878321 0.5330661 -0.20654808 0.122931145 0.0022353735 0.49959108 -0.059606455 0.07203838 -0.35318366 -0.36505648 0.13628833 -0.48396754 -0.24946085 0.013687141 -0.15793185 -0.64383143 0.32623225 0.2742151 0.3640514 -0.041277714 -0.3915905 -0.2978576 -0.0894202 0.55283934 0.084499836 -0.6214112 0.4468579 -0.11600906 -0.056940958 -0.08811789 0.1715614 0.009875759 -0.3239672 0.80131245 0.36938104 -0.062409475
128 -0.23054244 0.22857402 0.085078664 -0.85235834 0.1843843 -0.41579285 -0.52769005 -0.3673224 0.45719922 -0.3975921 -0.02807251 -0.39890915 -0.36005992 -0.08806596 0.21853237 0.48800847 -0.17131685 0.07511877 0.76279813 -0.53304404 -0.06689793 -0.69578743 0.22763602 -0.096888445 0.581465 -0.17112549 0.2581278 -0.038301893 -0.17497136 0.023226645 -0.4698457 0.4953062 0.23789065 0.17528094 -0.20252976 0.02203808 0.20615631 0.34187526 0.56362224 -0.00220564 -0.3140333 -0.30767348 -0.2794127 -0.31296074 0.77402484 -0.005511697 0.18284437 -0.40956882 -0.3927174 -0.60762197 0.02249123 0.13201575 0.32922176 -0.52829427 0.7255697 0.057560984 0.030185455 0.392275 0.055789735 -0.15657265 0.27626497 0.6357526 -0.19224359 0.26452982
172 0.12425943 -0.1477872 0.31661385 -0.16242541 -0.80668396 -0.0311659 -0.053888384 -0.120255254 0.1028368 0.24328658 -0.4744878 0.36636874 0.022207381 0.6236908 -0.47424182 0.4134296 -0.030007435 -0.028579652 -0.058177922 -0.051369604 0.4895238 -0.25550443 0.21232195 -0.2982364 1.0158015 -0.082776725 -0.23661618 0.20030026 0.686587 0.21624579 -0.36782014 0.6548826 0.018475661 0.46213225 -0.093705006 0.31275383 0.55865675 0.5576333 0.49484378 0.0042578396 -0.2624624 -0.5623376 -0.37682757 -0.06955195 0.22646508 0.25211996 -0.07221272 -0.26288882 -0.24525885 -0.14279084 -0.044576693 -0.07195712 0.1429762 -0.032172143 0.59818286 0.24181959 -0.35138962 0.06235028 0.093081065 -0.0076151025 -0.31673393 0.5004387 0.56763965 -0.51055014
155 -0.13956614 0.21506035 0.18555711 -0.9340787 0.088719144 -0.48193645 -0.6990121 -0.22929901 0.4338271 -0.28965268 -0.2433207 -0.21440688 -0.4016994 -0.090865865 0.06325213 0.3851984 -0.035962 -0.25482965 0.48920655 -0.76806563 -0.014346726 -0.60399693 0.2474006 -0.005372882 0.57849807 -0.30733067 -0.07391259 0.26730034 -0.30487618 -0.022916544 -0.23691927 0.45965612 0.19001055 -0.030550824 -0.13434894 -0.109409586 0.05660416 0.23290244 0.6282593 0.001536588 -0.2820059 -0.039083913 -0.09408348 -0.21434696 0.45936286 0.101841465 0.02420264 -0.47015646 -0.29478285 -0.54697144 0.20200603 0.27852187 0.38348502 -0.52315426 0.6758292 0.32459623 -0.09509354 0.42166084 0.10106794 -0.20718078 0.18152522 0.7592493 -0.3129831 0.2535195
107 0.00870451 0.49476957 0.084491946 0.31057888 -0.666007 -0.13779235 -0.24073555 0.14468592 0.45353162 -0.21146394 -0.1446017 0.22314979 -0.27761847 0.36416084 -0.28074744 0.18496193 0.2462314 -0.68170464 0.34109285 -0.09535336 -0.36949176 -0.3032799 0.38698956 0.014836849 -0.00032879377 0.09598741 -0.3071578 0.10290455 -0.1304994 0.69437826 -0.13815802 0.036178313 -0.38677436 0.81390566 -0.19968738 -0.3124433 -0.27912462 -0.6257107 -0.13585812 -0.54073787 -0.3512194 -0.30181518 0.055468302 -0.89781004 0.26700532 0.21947132 0.29996338 -0.033423234 -0.48414156 -0.2898489 -0.33546758 0.42599744 0.32878098 -0.8433127 0.5125478 0.38468406 -0.35534945 -0.115725495 0.30006447 -0.3326222 -0.0011040011 0.70913625 0.28101465 0.1899466
187 -0.23247461 0.080497995 0.19899349 -0.8579419 -0.06692522 -0.48404965 -0.6029473 -0.18971463 0.55355895 -0.18690827 -0.13616274 -0.27961966 -0.4738838 -0.29447344 -0.05798066 0.19260946 -0.1554595 -0.33055022 0.55154455 -0.5810489 0.11322446 -0.5544792 0.22897562 -0.18388198 0.673997 -0.13959052 -0.016323796 0.15128125 -0.38732603 -0.062686704 -0.10087613 0.39860478 0.2901491 0.0005034738 -0.22217399 -0.10219329 0.073685594 0.07031995 0.52592283 -0.02924731 -0.35832718 0.19688715 0.18638784 -0.2947358 0.4260759 0.14560235 0.1252578 -0.25979078 -0.1461373 -0.5647873 0.26611748 0.20430368 0.36869144 -0.4001151 0.91256195 0.34835753 -0.27089366 0.25116697 0.19564752 -0.46669316 0.32045907 0.8909966 -0.2771486 0.051110085
154 -0.15971863 0.11865102 0.1188682 -0.83884996 0.11096461 -0.502182 -0.58365357 -0.34699622 0.45709074 -0.33760425 -0.049760196 -0.3233796 -0.35826635 -0.12825923 0.08576267 0.4146803 -0.11881997 -0.086055554 0.7416465 -0.57726425 0.019606728 -0.71065557 0.15555127 -0.09092714 0.5865863 -0.25488448 0.18424115 0.0138237355 -0.21893087 0.03575895 -0.39695248 0.48798412 0.17768857 0.041229893 -0.24029996 -0.04427393 0.10553844 0.25504994 0.60484755 -0.13210838 -0.32715276 -0.20038745 -0.13378115 -0.34703627 0.6018136 0.028531926 0.12313919 -0.48747128 -0.26291484 -0.5091637 0.16747268 0.16649093 0.24897115 -0.64129955 0.8165052 0.19594707 -0.004172056 0.41753423 0.12244798 -0.22479466 0.15346982 0.6013754 -0.25501132 0.1958813
95 0.057173844 -0.0033554162 -0.2207879 -0.3249037 -0.5291506 -0.32147792 -0.19619727 0.00104125 0.60149014 -0.15590382 -0.20101245 -0.2593696 -0.5713938 -0.14385885 -0.4016747 0.06024386 -0.19534506 -0.4996556 -0.14655726 0.12946571 0.1416868 -0.40778145 0.38488042 0.010604725 0.6655169 -0.026114948 -0.7777403 0.5302607 -0.38998523 0.6981945 -0.8095343 0.576813 -0.07513495 0.3110765 0.03438672 -0.22890899 -0.15046896 -0.5733903 -0.32013947 -0.84829 0.1443102 -0.24324475 -0.1919033 -0.5328954 0.36588827 -0.3623918 0.07900011 0.029544171 -0.06484154 -0.25491822 -0.2887997 0.4585467 -0.38150334 -0.21869032 0.5101595 -0.38739923 0.26873663 0.06515813 -0.027054422 -0.0011849019 0.081270486 0.6230568 -0.0034526635 0.28155342
163 -0.22671263 0.1162055 0.1923827 -0.89162356 0.02836125 -0.47174606 -0.74846137 -0.16384454 0.4181002 -0.19545892 -0.10523427 -0.21317452 -0.48672816 -0.09939581 -0.053729564 0.4055018 -0.15934998 -0.24026275 0.5432247 -0.7386976 0.074817844 -0.57947606 0.28549764 -0.04776152 0.6255066 -0.22344375 0.028019017 0.30574518 -0.3897478 0.0046123597 -0.164816 0.3825106 0.24094252 -0.09552196 -0.13708305 -0.21003297 -0.058548607 0.15798385 0.6400994 -0.037550975 -0.47371003 0.12492571 0.029738301 -0.11761387 0.43998352 0.055424385 0.21411708 -0.31641954 -0.25089568 -0.57289207 0.2344135 0.42689437 0.21515574 -0.49651524 0.8847906 0.3778651 -0.24531695 0.30401498 0.12825061 -0.26918337 0.17981263 0.7501804 -0.32997298 0.14519916
28 -0.16317524 0.3072671 0.3159196 0.11655819 -0.4176835 -0.26581842 0.10857119 0.1926428 0.5763256 -0.19394748 0.014871094 0.06425045 -0.38102826 0.40851322 -0.16511779 0.30163446 0.29674336 -0.74756813 0.02482979 -0.12064575 -0.42512405 -0.41370246 0.32574713 -0.07957654 0.23964481 0.18840624 -0.7435504 0.115572035 -0.29790577 0.50787723 -0.2664855 0.12600122 -0.011583186 0.29984227 -0.07360074 0.039646804 -0.34774414 -0.46558535 0.15622534 -0.35396346 -0.2950239 -0.04090866 -0.15827762 -0.74533165 0.4170247 0.2876711 0.42561382 0.060609348 -0.4847204 -0.30831072 -0.14224285 0.3550485 -0.08790189 -0.66263413 0.61244935 0.03015969 -0.14917439 -0.18838266 0.12902826 -0.086292714 -0.3699905 0.7182471 0.30185783 0.065818205
113 0.27843955 0.031009251 -0.13247962 -0.38232964 -0.62314504 -0.18060783 -0.102716476 -0.09984859 0.21247406 -0.1354384 -0.3869471 0.3061727 -0.046468414 0.09873613 -0.32205313 0.41520897 -0.5399227 0.30460346 0.0060312124 -0.37777975 0.08611294 -0.45127138 0.26439926 0.46831274 0.7170958 -0.33091035 -0.16278137 0.13173003 0.5179825 0.07456946 -0.22432046 0.5673815 0.2647301 0.8866755 0.15545966 -0.55148566 0.21071048 0.30735967 0.6961705 0.1834014 -0.24492286 -0.29541326 0.11146598 -0.33256236 0.28417414 -0.2677507 -0.4118521 -0.18563491 -0.13109715 -0.058261406 -0.06951601 0.12146298 -0.016962927 -0.019130265 0.48931706 0.058430642 0.4776183 0.15929978 -0.30954897 -0.07165861 0.13815701 0.07647584 0.103539266 -0.03684559
97 -0.03435701 0.28929788 -0.08252724 -0.7972113 0.19620946 -0.31535056 -0.591661 -0.5949937 0.67016065 -0.22383782 0.013974219 -0.360966 -0.27027303 0.044542383 0.1141099 0.45424566 -0.26958337 0.08959837 0.73644567 -0.5143615 -0.25228527 -0.4524115 0.23153782 -0.014883648 0.51479554 -0.22538605 0.32741562 0.052899648 -0.09153338 0.26343313 -0.48742762 0.4515795 0.31597236 0.1983853 -0.25647116 0.1301438 0.2115242 0.38148335 0.52728987 0.113488995 -0.26394385 -0.3344078 -0.29472497 -0.37049752 0.46789047 -0.023521762 0.006265807 -0.4757457 -0.2444529 -0.7127692 0.00029352042 -0.11306104 0.34169272 -0.6105345 0.9179326 0.25343323 -0.0058354107 0.25138226 -0.046510156 -0.021957522 0.05811145 0.4987873 -0.2851888 0.4323554
130 -0.17066702 0.11764421 0.35621196 -0.32463947 -0.4227423 -0.09622533 0.23740405 -0.48551792 0.61461747 0.15682589 -0.5314784 0.56865853 0.23873608 0.46124512 -0.31891933 0.16047542 -0.14500713 0.22081704 0.18153332 0.10861133 0.4251295 -0.37772295 0.10317975 -0.037920035 1.221327 0.10412183 -0.018460106 0.21689184 0.46830693 0.490321 -0.109471366 0.72747695 -0.1385543 0.28690666 0.120176345 0.04373486 0.24778342 0.108370155 0.4872845 -0.23306261 -0.20737521 0.13372877 -0.19267224 0.01998722 0.3839582 0.5325961 0.072931506 -0.24031793 -0.3270685 -0.22639953 -0.26446378 -0.2268719 0.02805392 -0.05714144 0.47291803 0.44531402 -0.032109447 0.0042106793 0.09567082 0.26303142 0.0130915735 0.36664736 0.32085627 -0.66429967
49 -0.058306966 0.43333855 -0.19979107 -0.2798031 -0.0715413 0.40462813 -0.14251022 -0.16418356 0.23191582 0.33053362 -0.098175645 -0.08255011 -0.8208442 0.044598136 -0.45240486 0.47548315 0.1459021 -0.4513288 -0.030323798 0.13456693 0.012823469 -0.7349027 0.05995921 -0.42600703 0.18903151 -0.6181042 -0.5552109 0.17751989 -0.31151667 0.31809503 -0.107478514 0.21906884 -0.19659178 0.39081296 0.13901496 0.22823332 0.13990912 -0.7513495 0.50791025 -0.224285 -0.14929311 -0.18624908 0.30734324 -0.75316006 0.27171272 -0.14073676 0.46597964 0.24463178 0.08241229 -0.25095138 -0.34115282 0.47718918 -0.35412177 -0.8635613 0.23902594 0.0068301815 0.038820017 0.15871307 0.30616277 -0.2989658 0.28395036 0.64559466 0.4013656 -0.34158587
69 0.21689269 -0.05409257 -0.09929636 -0.26912045 -0.445129 -0.08549176 -0.3873018 -0.09501151 0.0079866 0.10126172 -0.50907445 0.51521105 -0.15262628 0.15761648 -0.29177636 0.35013887 -0.54628986 0.31654754 0.091161214 -0.3833066 0.27188984 -0.48536965 0.23233876 0.18993072 0.7109956 0.041422192 -0.48245743 0.24189155 0.492083 0.096095555 -0.23872584 0.6301626 0.35093462 0.79932135 0.14962392 -0.3569282 0.20160854 0.32067764 0.69903225 0.13658251 -0.34669468 -0.36347258 -0.038906794 -0.3553973 0.30543795 -0.041294992 -0.271278 -0.21452317 -0.15703186 -0.19244729 -0.27245164 -0.2416644 -0.032660525 -0.07608741 0.40007687 0.16817524 0.39087147 0.07911871 -0.04586696 0.16249375 0.100634485 0.1939518 0.089768425 -0.09511538
47 0.12765741 -0.06927071 -0.20212722 -0.36314 -0.39461896 -0.13191764 -0.397593 -0.13308084 0.0036222877 0.0022951646 -0.33852425 0.46981403 -0.023071747 0.4480227 -0.2854632 0.36260393 -0.4610468 0.17679438 -0.04772294 -0.31214088 0.26098913 -0.5120952 0.17259137 0.2527543 0.7397048 0.12358448 -0.32682154 0.19886196 0.5257612 0.13740312 -0.34989282 0.6920381 0.17973311 0.69454587 0.11133488 -0.27271953 0.30326566 0.19167304 0.5833469 0.07525181 -0.33254185 -0.33788145 -0.06552271 -0.31184533 0.4025044 0.086014494 -0.39876473 -0.28167278 -0.2966998 -0.28406972 -0.2469356 -0.17473437 -0.145948 -0.098144054 0.33451253 0.30324373 0.2877284 0.21652721 -0.09268457 0.2031267 0.09084584 0.120849445 0.1277696 -0.19676001
162 -0.18729782 0.23198998 0.15204723 -0.8657454 0.06963383 -0.47918522 -0.5896107 -0.31437612 0.49077183 -0.40559107 0.06311685 -0.28877997 -0.3413 -0.17696658 -0.031028425 0.450675 0.04901749 0.026935086 0.7367637 -0.5055854 0.025298709 -0.7040427 0.24544947 -0.25060013 0.5487189 -0.21875392 0.3027522 -0.1479651 -0.10413036 0.13324168 -0.48217973 0.5598033 0.1598013 0.036413435 -0.21700971 -0.01459734 0.006392006 0.3021534 0.51432735 -0.18479873 -0.3873076 -0.30097958 -0.067602895 -0.3426349 0.5671697 0.06217795 0.08499688 -0.5161927 -0.22647439 -0.3526458 0.07636397 0.37035936 0.318146 -0.6547177 0.8085548 0.18208568 -0.014959771 0.37137502 0.09057501 -0.2801202 0.23659472 0.62843657 -0.41446272 0.09303466
164 0.15455094 -0.11458442 0.10649406 -0.6872827 -0.18259697 -0.0067851804 -0.09004498 -0.23888618 0.17028442 0.32148173 -0.35951352 0.43005577 0.039330237 0.41862687 -0.25416756 0.53641325 -0.4171799 0.4545575 -0.062016394 -0.22202587 -0.059352253 -0.48430678 0.12746552 0.25679633 0.68268114 -0.039399054 0.10995394 0.2856813 0.61561555 0.16843544 -0.25761515 0.70648795 -0.22392432 0.52921695 -0.14140427 -0.30599687 0.040231824 -0.21132222 0.46391582 0.019149207 -0.2998674 -0.17975481 -0.14052643 2.7176435e-05 0.4381532 0.114335544 -0.35098386 -0.31201196 -0.25368762 -0.20741133 -0.21566156 -0.019636791 0.06553356 -0.26597574 0.41384363 0.34289208 0.48094395 0.34658048 0.12661064 0.08218169 0.13387208 0.2197588 -0.0037654054 0.019760951
25 0.20497547 0.22929084 -0.2668685 -0.33694756 -0.5750841 -0.31574768 0.107415 0.16549602 0.659275 -0.23768853 -0.14386828 -0.40817294 -0.5181927 0.092711024 -0.25753504 0.44110602 0.04829079 -0.26519123 0.016665924 0.17968862 0.08027928 -0.3962014 0.3637952 -0.056801137 0.69010246 0.06939461 -0.6442167 0.33983433 -0.42812702 0.54919755 -0.6925309 0.6474009 -0.08386646 0.2843417 0.24806936 -0.22876275 -0.18357888 -0.46450064 -0.44353712 -0.78186613 0.074616864 -0.2561087 -0.23517382 -0.49356404 0.3193717 -0.31587288 0.11291229 -0.10031386 -0.0341509 -0.3234218 -0.5167652 0.45597944 -0.31434283 -0.29402146 0.41671264 -0.50302124 0.15218756 -0.13773736 0.006161795 -0.07927606 0.20569405 0.63491845 0.028512627 0.12745696
198 -0.13647632 0.29725564 -0.080785796 -0.8263218 0.18301792 -0.4388403 -0.60111916 -0.3345463 0.51991653 -0.23023905 0.047505207 -0.41955724 -0.32610893 0.0047426946 0.18376406 0.43289015 -0.16006736 0.097982794 0.8692452 -0.52720076 -0.08281935 -0.7000525 0.2044386 -0.11068572 0.5971561 -0.14029443 0.1879652 -0.010090166 -0.19064063 0.087666065 -0.5042588 0.4460944 0.1163331 0.14897013 -0.26882762 0.027619764 0.2594428 0.32837802 0.6016557 0.013558216 -0.2851336 -0.4093851 -0.29774538 -0.32996213 0.7197198 -0.02702293 0.17269182 -0.36798882 -0.35117337 -0.50590205 0.09605454 0.16908002 0.37655047 -0.47983035 0.7468088 0.18462172 -0.11908141 0.41660905 -0.017473267 -0.16067566 0.25735116 0.5827827 -0.17343907 0.3313779
188 -0.2836636 0.26535708 0.063743144 -0.94054526 0.010906909 -0.48071036 -0.5105737 -0.24613345 0.37553835 -0.3972998 -0.15132055 -0.32453704 -0.46951544 -0.25095195 -0.047232397 0.3902183 0.043093186 0.044471703 0.6749423 -0.53567797 0.014524506 -0.5922904 0.16042767 -0.2792513 0.554728 -0.27584833 0.20819636 -0.25878516 -0.21913947 0.08964245 -0.43167776 0.55554837 0.118104264 0.048575155 -0.1631111 0.11377847 -0.04583767 0.36112183 0.4807054 -0.28752315 -0.33497748 -0.25517848 -0.063272536 -0.40559667 0.46289128 0.12397712 0.11545868 -0.36100394 0.012141688 -0.42440566 0.09401014 0.3171735 0.37280124 -0.5791779 0.8661812 0.38767347 -0.13942821 0.27161756 0.17740342 -0.31272238 0.3145159 0.74346423 -0.18484707 0.08408916
112 -0.04903385 0.23049879 -0.41987455 -0.3883378 -0.10075277 0.8855213 0.090846494 -0.39172524 0.6914158 0.070366845 -0.4024346 -0.08174185 -1.0523809 0.19377348 -0.5290325 0.37800428 0.12721378 -0.73219174 0.047215894 0.045593295 0.026338864 -0.48778585 -0.6540768 -0.17577262 0.9294237 -0.45149377 -0.57739556 -0.034466725 0.108814456 0.10723396 -0.24323905 0.3124129 0.08586543 0.88307005 0.15077335 -0.3347908 -0.3623119 -0.48032463 -0.022307938 -0.47423923 -0.014221779 -0.2783359 0.21308154 -0.5001887 0.57395124 -0.69602716 0.06899553 0.2911263 -0.48705596 -0.46140876 -0.7176191 0.6644696 -0.05790846 -0.14219482 1.1540416 -0.14307855 0.16455175 -0.1246637 0.17801718 -0.3363918 0.50830877 0.6883645 0.35836467 0.1302016
123 -0.19760822 0.15584594 0.18553232 -0.037823472 -0.27096045 -0.29571417 -0.08494822 0.12724847 0.68021053 -0.14560302 0.053027187 0.09938241 -0.5830737 0.26560685 -0.23846477 0.29136685 0.2967519 -0.52682585 0.17085117 -0.12753941 -0.38881037 -0.39492208 0.13280675 -0.038904224 0.38399228 0.11503679 -0.49325907 0.20576726 -0.42485663 0.5477579 -0.4263675 0.048230607 -0.20284903 0.27077746 -0.12993316 0.049486354 -0.09687023 -0.79615253 0.051542208 -0.45430636 -0.39770943 -0.2540392 0.077512175 -0.65450263 0.57084787 0.27008432 0.47973263 0.040009007 -0.022369163 -0.1935886 -0.30899194 0.19619064 -0.061643373 -0.2885404 0.5707088 -0.27132055 -0.24452655 -0.22401221 0.30579382 -0.0440369 -0.34367627 0.76057124 0.4750484 0.080312416
12 -0.30512282 0.14322516 0.27308348 -0.8572827 -0.15261905 -0.53682584 -0.6067274 -0.13595821 0.621011 -0.3716453 0.036215942 -0.20136726 -0.434752 -0.2332472 0.063557774 0.34795034 -0.113321364 -0.30646053 0.41531494 -0.5172511 0.15816218 -0.5238497 0.25367913 -0.17318176 0.7228776 -0.21180728 0.008913736 0.25638145 -0.39924738 -0.055158794 -0.022991113 0.2898878 0.35195056 -0.07730526 -0.15055627 -0.13728678 0.38340616 -0.029510723 0.5204293 -0.1616868 -0.27274063 0.14910746 0.17742947 -0.4131154 0.4552285 0.18275177 -0.065962926 -0.18720414 -0.022687279 -0.50722134 0.24478106 0.35639387 0.34695715 -0.27836075 0.78856766 0.23304205 -0.38967794 0.13346507 0.27416384 -0.5971277 0.23978923 0.8204015 -0.21415402 -0.099711396
174 -0.23561837 0.28885406 -0.064937584 -0.39119616 -0.43277887 -0.32337266 0.0315392 -0.35775316 0.7841347 -0.031450227 -0.30620152 -0.21378529 -0.19481942 0.28292474 -0.5068017 0.23979554 0.008099801 -0.3836093 0.23443194 -0.8114593 0.20651981 -0.41467953 0.48703325 -0.8432644 0.09737262 0.20178123 -0.22402845 0.28979343 -0.2138706 0.11544022 0.31113216 0.5359843 0.14210315 -0.13871989 -0.06360158 0.22471894 0.2538246 -0.47212765 0.15763691 -0.31536612 0.009542304 -0.51041865 0.3389596 -0.35169467 0.8932783 -0.0034967866 0.2796451 -0.31555948 0.5306733 -0.58843577 0.12893093 0.6860673 0.013093626 -0.6327639 0.76913595 -0.043124836 -0.033786908 -0.028358366 0.15711445 -0.29628062 0.2806474 1.0113344 0.13216437 -0.33884
197 -0.09089647 0.06538285 0.37009248 -0.24909276 -0.61045676 -0.089541346 -0.009487822 -0.24620849 0.33906385 0.15389949 -0.57114387 0.6956098 0.23481217 0.6569988 -0.50011945 0.18050455 -0.13819191 0.1278033 0.2278299 0.09013457 0.32565358 -0.5144259 0.16684613 -0.14394516 0.908198 -0.26404834 -0.040740583 0.24598862 0.35043362 0.4430909 -0.2634519 0.6428954 0.07494274 0.25892732 0.14575018 0.038769126 0.19901453 0.22307374 0.60453445 -0.33767477 -0.092251115 -0.096487135 -0.117789514 -0.05842645 0.42491984 0.38171637 -0.0364169 -0.26501217 -0.38859114 -0.20129733 -0.14102757 -0.1978052 -0.124553494 0.1287509 0.53634256 0.4101541 -0.0818261 -0.044930656 -0.0023339426 0.43412873 -0.030121166 0.436066 0.2187572 -0.5514769
179 -0.21172866 0.6918108 -0.15626433 0.037552137 0.17272021 -0.011431603 -0.7752519 -0.40856415 0.5059776 0.20473628 -0.059340037 -0.08634718 -0.29620886 0.55875456 0.062799126 0.3551352 -0.116741724 -0.45291677 -0.7553049 0.18238077 -0.23114832 -0.1254785 1.1797951 0.5347934 0.7464479 -0.015579111 0.35197803 -0.5320885 -0.2990421 0.9949317 -0.16646163 0.14307047 -0.14252321 0.28773612 -0.073316954 -0.21619038 0.27547103 0.11581307 -0.35260722 -0.13017759 -0.1281393 0.32139176 0.015591674 -0.6921523 0.712643 -0.14221184 0.6081798 0.23822103 -0.69652927 -0.39148653 0.2272719 0.88360953 -0.4067044 -0.4229977 0.79032475 -0.05858166 0.29687706 0.05923586 0.38848463 0.19923817 0.26413143 1.4264432 0.62796116 0.22795519
171 -0.25075394 0.43263218 0.5330842 -0.092345625 -0.30704504 0.036820773 -0.092355385 -0.05048204 0.6322197 0.059378125 -0.04803094 0.33683544 -0.70910305 0.20699832 -0.2339221 0.49292514 -0.08344067 -0.48124316 0.46494612 0.36129484 -0.61921775 -0.19832565 0.5781237 0.18850236 0.6931789 -0.00087195524 -0.7316184 -0.15995188 0.03372048 0.45245233 -0.44291475 0.120856665 -0.30065164 0.6015176 -0.07374502 0.047250688 -0.38972095 -0.06922256 0.011988243 -0.38586423 0.2563808 0.20301627 0.19833063 -0.6931678 0.5862436 -0.33276716 0.29421636 -0.09935277 -0.10321909 -0.2867988 -0.19545205 0.3840458 -0.17909306 -0.59473735 0.25333244 -0.01704023 -0.18368243 -0.17268059 -0.005622867 0.011300944 -0.2563628 0.8293326 0.21657106 0.20501728
6 -0.41378877 0.43353322 -0.040881693 -0.53250843 -0.26860347 -0.32840458 0.036406748 -0.3644345 0.7296753 -0.031811032 -0.18527925 -0.15859647 -0.41608796 0.01968334 -0.322306 0.14311877 0.21452542 -0.43658352 0.07527525 -0.77471656 0.20450048 -0.4277387 0.41361463 -0.6720833 0.12834816 0.06060949 -0.12987615 0.21794392 -0.22021875 0.3506347 0.0117276115 0.40692705 0.18454574 -0.15664878 -0.22467381 -0.013002742 0.47326624 -0.29216167 0.42096466 -0.30960417 -0.1041811 -0.38596117 0.12949634 -0.35313994 0.8422238 0.031319324 0.23539805 -0.42550716 0.52060336 -0.6783168 -0.04182638 0.6592512 0.22581354 -0.5103381 0.5937252 -0.004958976 -0.29283902 0.0018050149 0.1475007 -0.3098277 0.26279318 0.8778871 -0.11612126 -0.36276954
20 -0.282464 0.2670075 0.14685866 -0.8468283 -0.21509685 -0.41562426 -0.4210666 -0.0038601693 0.39975742 0.11316331 -0.21926996 -0.076859094 -0.1585369 -0.30261663 0.2266829 0.3076392 -0.25623715 -0.09993332 0.40327567 -0.37833726 -0.1761647 -0.4882956 -0.012957964 0.4507934 0.4817167 -0.3200476 0.19230683 0.4914785 0.18199189 0.23288475 -0.28439763 0.37268913 0.26595226 0.359862 -0.05677168 0.08290069 0.13472657 -0.06397419 0.69443625 0.048385266 -0.6069193 -0.0042584995 -0.10552917 -0.24778345 0.61123073 0.083087444 -0.46965104 -0.36461112 -0.19970068 -0.50430864 -0.05726701 -0.03203187 0.3008461 -0.7959899 0.68763196 0.3737604 -0.18391395 0.49333158 0.051402356 0.18431202 0.07814699 0.5019492 -0.19014095 0.3953463
93 -0.33824357 0.41660407 0.04255088 -0.5633709 -0.19871119 -0.49032974 -0.029118018 -0.43531975 0.5908564 -0.10785138 -0.046514597 -0.21283951 -0.42685395 -0.038046703 -0.19423816 0.18897267 0.2728833 -0.48466718 0.17866932 -0.57524407 0.38881844 -0.40423277 0.2645815 -0.42861158 0.1587399 0.09900544 -0.12737375 0.25418925 -0.28710055 0.35233414 -0.262519 0.43497434 0.27144754 -0.156289 -0.24695978 -0.039836153 0.31230363 -0.21554418 0.36275628 -0.17682695 -0.12286317 -0.19623965 0.03354818 -0.533182 0.6161279 0.010134733 0.19909695 -0.33068484 0.4564043 -0.68408835 -0.093216136 0.62930983 0.18751293 -0.46504173 0.5222283 0.11511223 -0.32704487 -0.058598615 0.35717463 -0.3532074 0.22219864 0.9446021 -0.12335187 -0.4344354
46 -0.60841405 0.8469246 -0.7895578 -0.183999 -0.7266889 -0.33559987 -0.40195173 -0.6162313 0.3442089 0.52749914 0.31136435 0.19801666 -0.3066637 0.52087796 -0.38370368 0.74414533 -0.25916696 -0.40812936 0.49255854 0.21680352 -0.9489247 -0.73201895 -0.016373595 0.10967641 1.4280007 0.24077372 -1.3780903 -0.14489232 0.11650551 0.48398277 -0.038897477 0.19000372 -0.07546736 0.42216393 -0.3566968 -0.19811074 -0.20027593 -0.15792555 0.137291 -0.7428804 0.34982044 -0.0927948 -0.15570568 -0.72376955 0.32625425 0.677255 0.032502953 -0.3730045 -0.21521662 0.33924398 0.49626285 0.6179401 -0.039905384 -0.4178277 0.5403568 0.0016066745 -0.60426784 -0.1279906 0.8105362 -0.24341452 0.11476371 0.54118586 0.08630743 0.25555587
166 0.19754826 0.32416326 0.14250708 -0.5360425 -0.2871605 -0.23184727 -0.046376728 -0.3330478 0.63437635 -0.36469397 -0.16890192 -0.21043426 -0.43111703 0.24469717 -0.29968128 0.39228022 0.015260172 -0.49438524 -0.07072471 0.0066674827 0.32332698 -0.19493851 0.17362066 -0.24085645 0.15204844 0.10189925 -0.3697812 0.058345016 -0.5289116 0.08715562 -0.05760002 0.18151352 0.07713266 0.038719125 -0.31843624 -0.027388554 -0.17741866 -0.42200404 0.50177246 -0.35275275 -0.14888571 -0.40870166 0.10196931 -0.5370456 0.55279845 0.19770232 0.37264255 -0.29127058 0.32169738 -0.6468898 -0.010037289 0.56392264 -0.09256769 -0.45218164 0.3255362 0.07217647 -0.33320904 0.004934967 0.30212575 -0.5785932 0.2676218 0.8906965 0.047860537 -0.4044404
16 -0.006543203 0.33427408 0.048974786 -0.549888 -0.2582606 -0.44859827 -0.050566792 -0.42854977 0.6257234 -0.22621047 -0.17427474 -0.33815628 -0.51225275 0.22452535 -0.23982969 0.18648337 0.11797375 -0.4730298 -0.0908967 -0.10868876 0.2705375 -0.23255095 0.3319022 -0.30923453 0.12110837 0.020461246 -0.36506227 0.14942153 -0.43751606 0.099102125 -0.037053797 0.16201302 0.18644439 0.00602772 -0.27850932 -0.03137555 -0.11453744 -0.3618856 0.4701013 -0.32785 -0.1817883 -0.39528137 0.08811462 -0.50381386 0.603134 0.14257105 0.27100858 -0.27102 0.3580129 -0.5461332 -0.06686796 0.49145347 -0.011544392 -0.4413989 0.40088308 0.21444048 -0.39189592 -0.018397527 0.17605557 -0.5844939 0.31623596 0.9168534 -0.08898241 -0.37837937
201 0.107017085 0.4567721 0.124560855 0.40332517 -0.5594453 -0.21951978 -0.2966299 0.17987718 0.35604236 -0.16876106 -0.29335734 0.18851103 -0.2509171 0.39966226 -0.5593897 0.3972091 0.16662066 -0.70049053 0.43444872 -0.110802226 -0.40970263 -0.3454799 0.26340303 -0.020720355 0.12015387 0.026367718 -0.21778455 0.17542827 -0.25260463 0.57715523 -0.30056372 -0.030890914 -0.34059152 0.7755995 -0.06429335 -0.39216292 -0.34760505 -0.4495382 -0.16353807 -0.5096174 -0.28732094 -0.20831074 -0.02122124 -0.862778 0.18684289 0.28964204 0.28221652 0.005610067 -0.5450413 -0.28629717 -0.36500108 0.24856009 0.27330685 -0.8460131 0.3267718 0.21809979 -0.334941 -0.17603746 0.13736208 -0.24087599 0.13655023 0.89559394 0.48975506 0.20880632
149 -0.3993917 -0.14399807 -0.07564548 -0.8364101 -1.6988229 0.13776629 0.33665732 -0.62709063 0.9983219 -0.19516729 -0.38422242 -0.33387834 -0.044051036 0.38119993 -0.40693754 -0.011469019 -0.41937286 0.040087283 0.5116959 -0.7126491 0.3012631 -0.36920613 0.43159056 0.031131435 0.99695605 0.082195185 -0.77651995 0.3163547 -0.3905584 0.34347966 -0.29388136 0.5083883 -0.5096302 0.30609939 -0.059384268 -0.04150417 0.48082283 -0.20297717 1.1091855 0.1875014 -1.0172986 0.015579141 0.33530268 -0.51429224 0.68434525 -0.08067668 -0.73333144 -0.65375596 -0.66860956 -0.45399913 0.5635252 -0.10630537 0.11444399 -0.9267243 0.07411129 0.14829715 1.1638216 0.38963675 0.57112175 0.063183725 -0.65937716 0.8516393 0.37947884 0.8698934
157 -0.12114369 0.2817153 0.059699785 -0.8501066 0.11921519 -0.40106523 -0.5926272 -0.19632034 0.5645935 -0.31353968 0.12441256 -0.3845354 -0.4096422 -0.24523161 -0.034056418 0.4709852 -0.019352421 0.13871175 0.80105287 -0.5129197 0.054698627 -0.54632246 0.23991236 -0.25777495 0.6091519 -0.11335223 0.2567709 -0.18657085 -0.109387934 0.11042481 -0.44409448 0.53820133 0.17008226 0.09195597 -0.2608461 -0.038170923 0.024830952 0.30351454 0.6388358 -0.19908275 -0.47714996 -0.28504443 -0.064558014 -0.38465583 0.60833085 -0.016203564 0.23226176 -0.40061134 -0.19636175 -0.4322605 0.08364182 0.2257416 0.34582454 -0.56856316 0.84103394 0.23050353 0.0683093 0.35001716 0.25110206 -0.2594892 0.26707172 0.5720936 -0.28702614 0.11335305
190 0.37017575 0.31584227 -0.2081149 -0.33900863 -0.5977374 0.030387988 -0.2859136 0.034065105 0.07069626 -0.05852088 -0.4952096 0.35402697 0.07422573 -0.12574184 -0.09246089 0.34432638 -0.54734486 0.43278977 0.15093319 -0.2584265 0.11241701 -0.4434487 0.075646654 0.33743387 0.98226774 -0.09435111 -0.3390266 0.17786719 0.30899262 -0.01895079 -0.29813796 0.5077111 0.40299535 0.47393477 -0.17288871 -0.4525094 0.04628118 0.28982174 0.68020606 0.20932932 -0.26980653 -0.4468648 0.057038356 -0.16494761 0.48230705 -0.046860095 -0.48849976 -0.05102354 -0.08213763 0.043714836 -0.11866649 0.0009904917 -0.2749403 -0.15057994 0.64360183 0.2913471 0.5218124 0.17283301 -0.20934622 -0.4277474 0.013187355 0.093877316 0.21756774 0.12015835
75 0.16279596 0.035435267 -0.21079248 -0.12715742 -0.43281674 -0.27244303 -0.2304207 0.016042855 0.06626233 0.08143618 -0.60139215 0.40448654 0.066267304 0.3945145 -0.31670183 0.38324922 -0.28844228 0.16503152 0.04977647 -0.30339172 0.42568287 -0.31587407 0.19132476 -0.0054188827 0.80126107 0.1695128 -0.3676486 0.16477808 0.4826285 0.15038495 -0.21873048 0.6068893 0.36080912 0.7497691 0.09438173 -0.103962176 0.28507173 0.4087592 0.71969175 0.13264117 -0.21081303 -0.40711993 -0.0035650288 -0.38385844 0.3842585 -0.07721749 -0.3977573 -0.06426378 -0.42493653 -0.3337305 -0.18099977 -0.11380843 -0.18859829 -0.19342063 0.3618722 0.31065944 0.15095858 0.33368304 -0.08859683 0.4116628 -0.018928923 0.23004463 0.14789492 -0.29437023
161 -0.2718313 0.16326673 0.07633984 -0.98987556 0.005726262 -0.37873325 -0.62115383 -0.22980438 0.3838208 -0.37406847 -0.11522508 -0.3445043 -0.49737364 -0.28908604 -0.06341372 0.33998877 0.00726584 0.06793988 0.76100075 -0.5705996 0.014908353 -0.6163493 0.20855166 -0.3668606 0.54203874 -0.27717432 0.18606085 -0.2941348 -0.21376643 0.11982252 -0.41682485 0.42987823 0.09502103 0.09322249 -0.15807451 0.097604476 0.021330666 0.35279423 0.501968 -0.26422837 -0.27265447 -0.24534519 -0.015113529 -0.45468068 0.524042 0.17708886 0.058036834 -0.32523233 0.004844831 -0.4689637 0.0021358437 0.26760456 0.43082395 -0.5244837 0.8605191 0.3673967 -0.072872974 0.26820543 0.17048007 -0.3108294 0.28560516 0.67667866 -0.16234566 0.044201106
124 -0.06425159 0.4844635 -0.021930233 -0.26765177 -0.30926454 -0.30433562 -0.08253298 -0.18601064 0.62837243 -0.10983259 -0.41633594 -0.029500984 -0.6297103 0.16524766 -0.617302 0.39352787 -0.173357 -0.43126884 0.032016058 -0.30966616 0.03301041 -0.25331175 0.5429581 -0.7740008 -0.03636024 0.25674874 -0.3719726 0.12821579 -0.22844778 0.06361734 0.44015184 0.45280412 0.08761908 -0.33150852 -0.3192134 0.13969478 0.29860598 -0.674893 0.3341755 -0.5003345 -0.056606457 -0.48089826 0.32006449 -0.20339902 1.0271444 -0.08719629 0.18968228 -0.18766569 0.45188248 -0.5385728 0.24592932 0.38502255 0.11659156 -0.58845466 0.61521655 0.080977924 0.08052118 0.10679783 -0.014867609 -0.33768022 0.21743898 1.2523766 0.18716507 -0.46915448
19 -0.29737365 0.338246 0.16232799 -0.94464487 -0.10936673 -0.50496566 -0.49193603 -0.35083613 0.24449286 -0.051690243 -0.06712021 -0.23609188 -0.24916211 -0.17994975 0.099812575 0.145864 -0.19892325 0.35619223 0.44152597 -0.33457077 -0.17036629 -0.35256514 0.076736204 0.30110198 0.6688408 -0.42738414 0.15547334 0.20760494 0.24600948 0.5074483 -0.27886876 0.57447225 0.28031683 0.09145674 -0.17000009 -0.043742534 0.12095241 0.3226795 0.5747497 -0.047959585 -0.4344267 -0.37957758 -0.3023121 -0.4324144 0.34069887 0.028566493 -0.44154966 -0.25368625 -0.3281715 -0.5534688 -0.2203629 -0.112949476 0.15309921 -0.70131344 0.52619576 0.18766078 0.060079325 0.074465506 -0.03799218 0.17039251 0.025889708 0.49864072 -0.11385379 0.4793017
206 -0.1678264 0.25672287 0.14992332 -1.0060459 0.010654474 -0.34986126 -0.6088249 -0.18479668 0.46179292 -0.37983632 -0.24569869 -0.20748878 -0.34638885 -0.097380824 0.15078285 0.3970025 -0.013431885 -0.2764099 0.5574296 -0.7484107 0.034349285 -0.59142643 0.23105705 0.17043997 0.5658808 -0.23767051 -0.15685607 0.32077613 -0.1078149 -0.051786818 -0.25754702 0.3885112 0.20410828 -0.012092453 -0.22114995 -0.04935235 0.0034856235 0.09411514 0.5292905 0.096294865 -0.28026423 0.009379952 -0.0073689795 -0.19779716 0.55195725 0.022464072 -0.073638484 -0.5272343 -0.42515513 -0.6950878 0.12753206 0.20905949 0.40013015 -0.66531396 0.6132018 0.4426293 -0.10405854 0.45743054 0.024118537 -0.16327377 0.17011747 0.68633294 -0.34842902 0.18900289
2 -0.33003163 0.33124724 0.22571486 0.076315664 -0.16709338 -0.0062024184 -0.032803178 0.03256049 0.44890764 0.30084753 0.19123094 -0.003821829 -0.40608332 0.066246 -0.17502289 0.39014366 0.17449819 -0.48973188 -0.052202087 0.24568044 -0.039629713 -0.60196 0.36077762 -0.13439463 0.62328714 -0.07153932 -0.81336176 0.06543177 -0.18371256 0.4198166 -0.20694856 0.20604296 -0.01903234 0.3892446 -0.06650081 -0.1789519 -0.17137732 -0.63402504 0.21630347 -0.31702766 -0.074456446 -0.17645837 0.112833634 -0.8738426 0.56024855 0.28324252 0.110585466 0.26813617 -0.35868612 -0.34358543 -0.27163887 0.6233377 -0.18357366 -0.55797267 0.23680764 -0.16152094 -0.08763312 0.015237374 -0.060047977 -0.27217397 -0.26406363 0.817692 0.4318209 -0.09636204
41 -0.13100514 -0.01155518 0.33144537 -0.35833138 -0.5303204 -0.15562503 0.021542916 -0.34349996 0.30431795 0.21361348 -0.58024037 0.5050212 0.30900016 0.64896536 -0.4996487 0.026591195 -0.16118242 0.17127429 0.30109942 0.113707796 0.32892102 -0.5484098 0.19463038 -0.17119047 0.8748137 -0.24098006 -0.20333101 0.2165862 0.4292245 0.45790407 -0.20581847 0.75146955 -0.23894979 0.2048659 0.26057118 0.009155453 0.17946893 0.2303862 0.72356796 -0.42226252 -0.06069603 -0.04610614 -0.038965616 -0.13080953 0.614975 0.24388883 -0.16367485 -0.2885113 -0.30691275 -0.23721282 -0.16837549 -0.2577026 -0.13286187 0.22399214 0.3822496 0.42529687 -0.21759428 -0.008182993 0.029232454 0.38051665 -0.016021337 0.4968801 0.39322183 -0.46599224
48 0.12827976 0.030359108 -0.0811052 -0.79069376 -0.27656636 -0.31756034 -0.16411087 -0.6206063 0.8885879 -0.35543352 -0.07247912 -0.111616656 -0.47250614 0.17491257 -0.3759442 0.17205326 0.29016465 -0.50744265 0.2619555 -0.2355229 0.18939567 -0.50007564 0.053213354 -0.3549528 0.20631112 0.3616293 -0.20514312 0.16199389 -0.47131565 0.25133386 -0.08565878 0.48716065 0.21207525 0.24668397 -0.32810012 0.072333105 0.21560663 -0.19791842 0.11344884 -0.39384633 -0.19266911 -0.43208748 -0.45489812 -0.57378244 0.40744364 0.15168603 0.47370046 0.16265206 0.40687284 -0.57095444 -0.038797352 0.65649396 -0.31735078 -0.40106472 0.4696226 0.15511228 -0.27562913 -0.2634305 0.3408434 -0.3851632 0.28417104 0.71186185 -0.22302711 -0.15423717
127 -0.19378187 0.16949207 0.24758683 -0.8869995 -0.03563206 -0.43510368 -0.65787596 -0.28041178 0.4099584 -0.29626712 -0.24520707 -0.19667232 -0.3983699 -0.08769233 0.19163586 0.47164708 -0.16792582 -0.124345854 0.3851657 -0.69319916 -0.009487408 -0.68605053 0.1741977 0.08769971 0.5828767 -0.23256972 -0.23496474 0.41851816 -0.25860482 -0.08553716 -0.1969752 0.38476402 0.21204732 -0.07628443 -0.1778555 -0.0727981 0.09539656 0.18449008 0.5343908 0.11196638 -0.31664717 0.009994928 0.015603928 -0.22444022 0.56273586 0.12574321 0.030586861 -0.35348722 -0.44164437 -0.7295197 0.12596518 0.38194346 0.51264155 -0.7223484 0.57829565 0.488904 -0.100036204 0.4257078 0.096311904 -0.17542115 0.21872313 0.67701674 -0.41152883 0.13452396
85 -0.5058557 0.17959948 0.112644896 0.08614504 -0.35255706 -0.16041419 -0.01811175 -0.04628767 0.5479274 0.26641682 0.2144854 0.09054093 -0.54784334 -0.029503087 -0.3262017 0.275797 0.10621258 -0.6646273 0.12543821 0.28457525 0.053128555 -0.6006402 0.4797959 0.06557457 0.6487047 -0.013095483 -0.68934745 -0.18983783 -0.026370088 0.7566556 -0.065177836 0.05438735 -0.056379452 0.56763506 -0.16196407 -0.09794848 -0.4813899 -0.38944954 0.2625178 -0.34680814 0.0009430777 -0.10942157 0.08327838 -0.7329171 0.56587845 0.31859538 0.21116672 0.14138797 -0.22861817 -0.18665949 -0.19441128 0.4385248 -0.09176481 -0.7197858 0.35605052 -0.23830378 -0.09559167 0.043448616 -0.09750282 -0.15068957 -0.15163532 0.80436134 0.43791744 -0.023558702
15 -0.40035918 0.53484404 0.19126156 -0.83489287 0.023700045 -0.62023634 -0.16667637 -0.2795232 0.5502489 -0.08637064 -0.12861007 -0.387181 -0.32930198 -0.008068528 -0.20985714 0.21020456 0.21061076 -0.45104575 0.21940383 -0.23069736 0.2886104 -0.48630998 0.30369425 -0.20810254 0.2572272 -0.022855062 -0.27929148 0.5314321 -0.46999344 0.22906663 -0.3083954 0.18164024 0.4040135 -0.25113443 -0.1816746 -0.18621156 0.16276798 -0.08697127 0.48164517 -0.24608843 -0.12061763 0.00023342538 0.29056543 -0.41445103 0.53812164 0.1498269 0.1417824 -0.22898965 0.41441038 -0.72870487 0.0139280595 0.4276447 0.2554711 -0.44655848 0.6523465 0.15517244 -0.2978161 0.13717534 0.20861764 -0.29225102 0.25991243 0.91327375 -0.010355073 -0.48513955
52 0.23900172 -0.14189991 0.31875825 -0.64877987 -0.14895865 -0.021373432 0.008544253 -0.52864194 0.195555 0.44264022 -0.53611004 0.49105373 -0.08478853 0.2638199 -0.25687286 0.52599347 -0.38821152 0.64232403 0.0684187 -0.29553124 0.04656692 -0.5076333 0.087995075 0.18797214 0.90179855 -0.0011965426 0.13670067 0.38997674 0.358895 0.3725022 -0.13283531 0.6087829 -0.3964031 0.56145173 -0.20813318 -0.0125433905 -0.13974112 -0.28063452 0.55932784 -0.24796015 -0.27339128 -0.067467235 -0.3092667 -0.06469871 0.40870386 0.222656 -0.32320043 -0.24281012 -0.32805803 -0.3927215 -0.20624086 -0.15880382 0.10359274 -0.12148029 0.35434887 0.32158765 0.20538945 0.36094117 0.16211076 0.20436408 -0.074807465 0.10990969 0.114408955 -0.013185428
91 -0.27219215 0.3132729 0.010877658 -0.64983314 -0.40576088 -0.2692308 -0.06660604 -0.30255634 0.39353 -0.04601853 -0.024856953 -0.25576884 -0.35061708 -0.03013993 -0.23477775 0.19154279 0.28017172 -0.64480907 0.33746335 -0.3371528 0.3811815 -0.41033283 0.4474884 -0.39755592 0.13271692 0.0018177088 -0.12177692 0.38704842 -0.32190973 0.20100655 -0.056713577 0.42578858 0.37276712 -0.08724173 -0.23927152 0.1445026 0.20008856 -0.055486843 0.23500553 -0.1374547 -0.23234795 -0.34352082 -0.11632304 -0.55674887 0.8951092 -0.011150544 0.32487226 -0.3846056 0.5874601 -0.63927984 -0.049152497 0.57293653 0.1383367 -0.3722315 0.73154765 0.12308741 -0.23131286 -0.08383867 0.4175403 -0.46698216 0.16596162 0.8555607 -0.18429603 -0.31486762
196 0.23018007 0.33352542 0.19106448 -0.56885237 -0.22729684 -0.31860128 -0.04472577 -0.367712 0.56894135 -0.3004912 -0.20263815 -0.24694005 -0.46799237 0.23751625 -0.32357132 0.3100214 -0.04845039 -0.53240824 -0.116601385 -0.006717709 0.28770775 -0.25882018 0.13563873 -0.2178689 0.22327127 0.13552074 -0.24119407 0.03877424 -0.534818 0.121289484 0.0024640472 0.14488836 0.06950904 0.1381097 -0.16619661 0.02231182 -0.16807641 -0.46905804 0.4633745 -0.38437268 -0.12453991 -0.4871643 0.124353684 -0.5556819 0.48696792 0.21812022 0.37527493 -0.2637095 0.40116596 -0.6895812 -0.006448555 0.60489506 -0.025753269 -0.45307764 0.32936162 0.16303256 -0.29683483 -0.0049791196 0.19816574 -0.55610317 0.15723872 0.9525884 0.035978556 -0.4132935
27 -0.5610509 0.22305569 0.1869926 0.1264579 -0.2349765 -0.08472284 -0.03474296 -0.103029475 0.48361358 0.36533257 0.28259364 0.036326956 -0.49975237 0.02209933 -0.3722063 0.3853376 0.035108365 -0.5676158 0.062644824 0.3396355 0.099259056 -0.64489585 0.57048666 0.011814805 0.717645 0.12468032 -0.7827862 -0.05852808 -0.07971456 0.5454408 -0.18378977 0.19877417 0.01497112 0.61100644 -0.17163076 -0.12532867 -0.5363063 -0.45072055 0.13860098 -0.24585469 -0.058329944 -0.15787175 0.11234248 -0.7601511 0.47694206 0.21532077 0.26982865 0.11015054 -0.3812917 -0.23266262 -0.19157085 0.38280806 -0.1479635 -0.7427134 0.22740829 -0.18158717 -0.11767954 0.09704784 -0.069974855 -0.1350505 -0.1902845 0.90491873 0.453918 -0.03551219
125 0.035178076 0.07462861 -0.4427208 -0.30374476 -0.54568213 -0.21137758 -0.14923166 0.0081278635 0.67270744 -0.050379254 -0.28604013 -0.10283073 -0.5888054 -0.18850051 -0.24299642 0.13178591 -0.049860567 -0.38938454 -0.32877433 -0.056281954 0.3909522 -0.34515196 0.44476172 0.1341107 0.7197416 -0.04133016 -0.8585227 0.4286536 -0.28099066 0.68728584 -0.89157397 0.6169602 -0.10954729 0.43521595 -0.15700428 -0.3427163 -0.39359632 -0.48180464 -0.40680158 -0.97530997 0.06958567 -0.26911247 -0.23217385 -0.452216 0.55978274 -0.41479835 0.1452994 0.11979446 -0.07735386 -0.40868744 -0.14889798 0.41393173 -0.13207617 -0.26246458 0.49041864 -0.3917816 0.24556416 -0.007418303 0.013010443 -0.15202053 0.1389648 0.4178019 -0.062751636 0.4625241
204 0.1288683 0.16081262 0.042859025 -0.1571481 -0.75527275 0.16322255 0.033546194 -0.21649344 0.0651754 0.0845874 -0.64791566 0.44905862 0.122715205 0.46136433 -0.14604373 -0.08388932 -0.12378119 0.26432854 -0.09060957 0.17378533 0.1452679 -0.29217 0.16936877 -0.35986215 0.89561427 0.01593781 -0.20352854 0.17362756 0.30488762 0.71664983 -0.29045007 0.809281 -0.16808026 0.6921935 0.4678223 0.042194158 0.19246013 0.4306379 0.6194904 -0.21539162 -0.23479024 0.04582934 0.0503353 -0.1745328 0.5069254 0.49875402 0.116086856 -0.13519673 -0.17852618 -0.5392391 0.18690161 -0.15722427 -0.009981655 -0.14278516 0.8311984 0.33215958 -0.03967167 0.17907721 0.028495919 0.57938933 0.053131424 0.42418167 -0.029151035 -0.6734311
193 -0.2860925 0.22864911 0.27808765 -0.98089325 -0.21778278 -0.44037917 -0.5672579 -0.2006441 0.55333465 -0.34491858 0.1240853 -0.28746754 -0.44653153 -0.23882055 -0.0002853064 0.25193807 -0.013731633 -0.28679 0.5017106 -0.4262322 0.123760186 -0.4046033 0.33778474 -0.20597486 0.64394283 -0.19581255 -0.071422026 0.25459996 -0.530972 -0.025118077 0.009153867 0.30574223 0.41832858 -0.081119366 0.0041385777 -0.120438546 0.38640493 -0.14032522 0.5816022 -0.20970866 -0.09270761 0.10390385 0.3231606 -0.43130672 0.6389081 0.18963818 -0.076418534 -0.22837451 0.035642255 -0.5549411 0.2520796 0.35331652 0.3151804 -0.26073 0.7792282 0.26771978 -0.38743356 0.21528359 0.3109858 -0.4242681 0.23963775 0.7562204 -0.14936492 -0.10442579
168 -0.17746906 0.08658445 0.3450266 0.16340397 -0.3215049 -0.15910067 -0.19117053 -0.048685327 0.83865964 0.000883294 -0.30169114 0.081923924 -0.9278871 -0.035882242 -0.122655965 0.46158117 -0.38920507 -0.44332576 0.3281003 0.19908354 -0.41693735 -0.07565936 0.38697618 0.35198087 0.7042983 -0.28065568 -0.75117403 -0.07233311 0.07320424 0.22409181 -0.3550394 0.16234957 -0.22307692 0.74522126 -0.072778076 -0.10807217 -0.20708807 0.10128474 -0.16867284 -0.37954697 0.23594764 0.14831707 0.11462666 -0.61328423 0.51386803 -0.28739244 0.37021372 -0.15235475 -0.35531572 -0.17301922 -0.46381137 0.31096393 -0.34810737 -0.76342154 0.20177755 0.11551009 0.1255304 0.077453434 0.08260663 -0.3387881 0.03725558 0.74154526 0.22386982 0.18821919
13 0.18638587 0.6286949 -0.27858308 -0.3227638 -0.15394527 0.24740218 -0.092889905 -0.13993664 0.69069004 0.33300564 -0.4611587 -0.13879181 -1.0107294 0.50871426 -0.25987765 0.076187216 -0.48059267 -0.39046007 0.017152268 -0.24157526 0.09488838 -0.16737805 -0.096569024 0.25159913 0.29582608 -0.27928594 -0.3311235 0.27031383 -0.06525532 0.31052262 -0.54619294 0.461164 -0.3751447 0.8445294 -0.0052271103 -0.32249486 -0.15870473 -0.28389442 0.27348065 -0.19326411 0.072680674 -0.3059796 0.14363186 -0.6012232 0.1074432 -0.17242879 -0.36097482 0.050889175 -0.49379173 -0.27680618 -0.31565213 0.04805744 -0.30788064 -0.66614264 0.4385039 -0.051452633 0.48642778 -0.20327064 -0.037236042 0.17166789 0.0007817175 0.34722105 0.32327697 0.21846843
9 0.22152361 -0.21092063 -0.049874976 -0.05891418 -0.47952908 0.06868486 -0.05007873 -0.26485568 0.20212176 0.2607884 -0.5396418 0.7762663 0.09248828 0.517228 -0.35348424 0.05743575 0.15998204 0.41662696 -0.022129746 -0.020451123 0.2232999 0.097530395 0.120389976 -0.087338 0.8886171 -0.17334084 -0.16395508 0.014344967 0.012404115 0.45440832 -0.09459738 1.058165 -0.10810215 0.2356226 -0.037536986 0.024802204 0.37599683 0.18209565 0.5823736 -0.16980693 -0.32303795 0.23213324 -0.13592309 -0.75462955 0.52136934 0.4317998 -0.38755357 -0.35033774 -0.25302735 -0.15421264 -0.3155455 0.11992274 0.14907566 0.00861981 0.9126962 0.31210643 -0.119431086 0.24998598 0.08074431 0.29522702 -0.124598615 0.53916144 0.15475301 -0.67143464
184 -0.08952363 0.23720461 0.35402897 0.39887795 -0.28868675 -0.12761608 0.22455235 -0.021747919 0.65319073 0.38105437 -0.013904857 -0.23375195 -0.39905167 -0.1544619 -0.17083147 0.526353 0.09127355 -0.29032266 0.11923125 0.21580076 -0.17644607 -0.6527017 0.41111183 -0.24212858 0.35361195 0.17716749 -0.93629897 0.044753555 -0.52994055 0.55089504 -0.30279347 0.25577372 0.1699826 0.74510527 0.036593128 -0.13385463 -0.1804499 -0.5113042 0.41892982 -0.31370825 -0.22793731 -0.13369137 0.11856166 -0.7914665 0.39801806 0.26441166 0.24117717 0.09364205 -0.23375082 -0.444079 0.07567237 0.55106694 0.016542645 -0.08027893 0.5329783 -0.08138441 -0.2250964 -0.29923704 0.30718026 -0.082863055 -0.27959034 0.8476737 0.59727097 0.2810357
80 -0.25438175 0.24574158 0.14792418 -0.97438365 -0.15354563 -0.30053893 -0.51285243 -0.26950952 0.4219041 -0.41354197 -0.13247968 -0.27034146 -0.40074465 -0.22925743 -0.05687925 0.37543693 -0.029204292 0.075594604 0.71371156 -0.50485134 -0.14354624 -0.5875873 0.16431783 -0.22055994 0.38245416 -0.32634497 0.15204902 -0.122007534 -0.1969652 -0.00011282377 -0.37919298 0.4594634 0.09711104 -0.09324677 -0.3225806 0.19059223 0.2893353 0.3307265 0.5236147 -0.50743306 -0.4257903 -0.30029812 0.023458278 -0.55480653 0.4257482 0.087605566 -0.07136177 -0.3501661 0.05072905 -0.619787 0.09336114 0.34344622 0.18834928 -0.47446135 0.84801316 0.09739675 -0.38143545 0.06764921 0.31574717 -0.34861222 0.35738114 0.8215717 -0.32195404 -0.10515096
79 -0.49662808 0.25887454 0.16121991 0.04169037 -0.4013363 -0.027726848 0.08567858 -0.119584896 0.48879132 0.39902365 0.17036895 0.058792423 -0.3859137 -0.16820589 -0.32162315 0.384907 -0.035214234 -0.56801707 -0.050088014 0.4116182 0.11144189 -0.6815827 0.55569345 -0.0994644 0.72911584 -0.1458296 -0.8298755 -0.23343101 -0.0599206 0.48938867 -0.08288904 0.09591788 -0.10894209 0.53683263 -0.046598658 -0.13853966 -0.2935425 -0.5970629 0.29196727 -0.31053847 -0.11387273 -0.039299775 0.083366804 -0.9863394 0.47502503 0.33939993 -0.027759705 0.3663317 -0.34150115 -0.3350046 -0.21569349 0.6231814 -0.2609794 -0.68334424 0.29762438 -0.21701527 -0.055273086 0.19079356 -0.099194996 -0.21541624 -0.2519997 0.90360934 0.5480838 -0.11959703
202 -0.20050262 0.7327447 0.42971414 -0.36092567 -0.096170135 0.054151494 -0.40051 -0.2285776 0.4074562 0.34000334 0.07588442 0.54254353 -0.5756622 0.05202775 -0.7613443 0.15314485 0.4063496 0.005622874 0.78251255 0.24831152 -0.020000009 0.119987465 1.4394753 0.086259596 0.69908607 0.12966664 -0.540472 0.16547869 -0.28763914 0.66800153 -0.35716948 -0.5290337 -0.9246588 1.3012524 -0.00041164056 -0.029075481 0.19599414 -0.14102839 0.13736802 -0.5419054 0.70585066 0.09686951 -0.07958563 -0.1814043 0.29535714 -0.20586614 -0.25936848 -0.20379668 -0.64140844 -0.692088 -0.60819596 0.1825894 -0.32189563 -0.3414812 0.9762261 0.08332224 0.024002096 0.1458248 0.013463257 -1.1391705 0.63196087 0.7482172 0.43490586 0.21556237
101 0.16854768 0.26929384 0.30753106 -0.51207125 -0.16996188 -0.2730157 -0.10041142 -0.17476018 0.5412368 -0.15126532 -0.29423395 -0.23493361 -0.42511433 0.34739223 -0.31946364 0.6065385 -0.14250004 -0.73833656 -0.020893103 -0.17996757 0.12527433 -0.18977635 0.20080732 -0.41144326 0.116333574 -0.18017639 -0.53340405 -0.07816812 -0.63741046 0.20505403 -0.26105165 0.2127983 0.09014391 0.23056002 -0.0072966455 0.060629725 -0.271167 -0.5389245 0.11026203 -0.2917039 0.087188646 -0.1452265 0.17177175 -0.5005513 0.5773928 0.086289264 0.26473978 -0.03262999 0.18243606 -0.4313299 -0.17699903 0.33923995 -0.086678386 -0.39638808 0.23910692 -0.105289266 -0.30124155 -0.1916617 0.37192628 -0.5653685 0.13069674 0.77901065 0.1708318 -0.41408315
29 0.40119565 0.13263096 -0.0975879 -0.8824404 -0.4421815 -0.1303656 -0.03151707 -0.49044073 0.75631154 -0.26973557 -0.24641095 -0.21857756 -0.44128382 0.22386935 -0.33444294 0.18783997 0.30492684 -0.49518812 0.2326875 0.00986727 0.24931899 -0.44695047 0.1582576 -0.29313865 0.25232694 0.4271608 -0.2448598 -0.036125712 -0.6286661 0.1546718 -0.07655563 0.3751756 0.20158367 0.20111047 -0.3394852 -0.018054234 0.4462814 -0.25724298 0.35152823 -0.5882011 -0.17769384 -0.4761304 -0.19157378 -0.4220664 0.30431277 0.39579174 0.5410658 -0.015454418 0.30572522 -0.541158 0.24800928 0.62982196 -0.30491605 -0.48934925 0.3590283 0.2623913 -0.14577864 -0.35302463 0.08882874 -0.47874483 0.18641844 0.9544315 0.0036646524 -0.3842813
133 0.21996641 0.37649953 0.36185727 -0.43632945 -0.16650681 -0.28901082 -0.10192568 -0.17376049 0.48177323 -0.14836772 -0.21700212 -0.16359824 -0.63415855 0.112299316 -0.53929925 0.6486738 0.024325587 -0.65785044 -0.14108428 -0.19811492 -0.10757345 -0.43047014 0.13510862 -0.17553337 -0.11410438 -0.18517779 -0.53186154 -0.019971913 -0.41503242 0.10612321 -0.23814665 0.3076261 0.034007456 0.18308349 0.1379789 -0.025515946 -0.38117746 -0.5714656 0.13183184 -0.19512519 0.1585607 -0.10163553 0.38008785 -0.50888026 0.61740994 0.047488596 0.156422 -0.19419163 0.034743924 -0.4986449 -0.21149372 0.40644968 -0.0980501 -0.32989302 0.18758245 -0.15385671 -0.43058822 -0.2053451 0.61013305 -0.4453568 0.121334456 0.7284811 0.33158284 -0.28314394
78 -0.2687009 0.38405922 0.039413285 0.041034304 -0.1770121 0.12565443 -0.008799276 0.17165287 0.47494122 0.42496654 0.25538465 -0.104244106 -0.40135327 0.04953851 -0.2929398 0.37485743 0.14558296 -0.40828857 -0.09171235 0.32236642 -0.012952515 -0.66132295 0.37952778 -0.20126751 0.66538423 -0.38043365 -0.86215585 0.19515164 -0.2719673 0.35239422 -0.060768094 0.17319918 0.025205614 0.6537711 -0.0031423676 -0.13374928 -0.065210395 -0.58536685 0.20528536 -0.32439262 -0.07479521 -0.23993164 0.15489796 -0.94120955 0.5419421 0.30280507 0.19305508 0.20468687 -0.22330429 -0.5515834 -0.22788376 0.50853 -0.1575579 -0.5074914 0.14573143 -0.3051882 0.038415544 -0.02250414 0.011268251 -0.098837905 -0.24447322 0.91365975 0.36865678 -0.08944782
191 -0.29639518 0.4276722 0.38478777 -0.92284346 -0.18314344 -0.42839476 -0.40529764 -0.16923624 0.47697878 -0.36829743 0.26577383 -0.21501635 -0.41450417 -0.111119136 -0.09964688 0.36507228 0.031915773 -0.28597856 0.3518266 -0.34865993 0.39705822 -0.5013553 0.24656327 -0.16795698 0.5008176 -0.22738695 -0.1900083 0.28928176 -0.5871059 0.12013617 -0.104239166 0.3925931 0.4497163 -0.14577419 -0.061229315 0.010645938 0.3682959 -0.18703869 0.52992827 -0.18552585 -0.04601551 0.10840231 0.23583414 -0.275861 0.59737366 0.278255 -0.06445196 -0.14553498 0.2345761 -0.6009946 0.3435014 0.36146367 0.27018756 -0.39065439 0.8726602 0.17939481 -0.41772124 0.08415288 0.24975781 -0.32238373 0.26963645 0.8383463 -0.22765185 -0.099238865
169 -0.37017274 0.15290393 0.30589855 0.1575708 -0.44888657 -0.16295865 -0.20228976 -0.051632546 0.87637335 0.048616167 -0.37777555 0.111601345 -1.0888801 -0.104545675 -0.3204961 0.4032818 -0.32088935 -0.33800155 0.27957243 0.3123882 -0.45685056 -0.17128417 0.23096187 0.5303179 0.7162748 -0.2299547 -0.6993149 -0.004012294 -0.13373591 0.23195224 -0.32294735 0.16987048 -0.087484114 0.6319853 -0.119958505 -0.085430615 -0.21558473 0.09919301 -0.13459203 -0.44995165 0.42352018 0.14936599 0.18786547 -0.42712894 0.60872465 -0.30246922 0.33013815 -0.08453691 -0.40672234 -0.1748295 -0.36533013 0.3455484 -0.4175445 -0.85152555 0.1155072 0.32419387 0.25644994 0.124235444 0.11500037 -0.22596149 0.05402536 0.6741773 0.1241619 0.15474781
33 -0.44636005 0.6851138 0.22790404 -0.8110711 -0.15717427 -0.6080989 -0.22986192 -0.29371622 0.47448474 -0.13207513 -0.0071123242 -0.40262273 -0.3763691 0.04825109 -0.054221816 0.31822804 0.14369452 -0.5184783 0.25987968 -0.14330837 0.28515056 -0.42250386 0.32312617 -0.21748722 0.17872043 0.0027971535 -0.24105558 0.42671245 -0.37645903 0.114776105 -0.23598392 0.3216122 0.36428636 -0.11458271 -0.25853264 -0.09251219 0.14076719 -0.16648412 0.44905204 -0.20167734 -0.17010653 -0.032583408 0.23799258 -0.3534877 0.45332736 0.031192115 0.15269029 -0.16760758 0.38600323 -0.75193864 0.025336206 0.47898763 0.20764324 -0.33558047 0.58278465 0.18126515 -0.28153926 0.10819821 0.2563898 -0.33928296 0.25912708 0.9488231 -0.03056143 -0.6035085
144 -0.485867 0.5418749 0.18056172 -0.7999742 -0.12862208 -0.55975306 -0.20423783 -0.28698814 0.44433954 -0.1650321 0.026488893 -0.34679085 -0.3518649 -0.04531146 -0.18108717 0.347295 0.18671334 -0.52999806 0.23699461 -0.2666515 0.27215016 -0.46486372 0.27018797 -0.23161086 0.21366256 0.0076102805 -0.26869065 0.42955676 -0.3288083 0.21008155 -0.27205646 0.24638796 0.40130955 -0.13460644 -0.25341585 -0.25879273 0.29532254 -0.18562175 0.34727222 -0.21811002 -0.19219899 -0.1067726 0.32897335 -0.37536687 0.47089797 0.08354317 0.2365605 -0.1773503 0.43638754 -0.83124185 0.03557434 0.4206473 0.1688062 -0.386171 0.6007207 0.24569634 -0.20015194 0.17667575 0.3646666 -0.39048374 0.22896498 0.9478663 -0.02657316 -0.5237136
136 -0.31190938 0.3140731 0.079138994 -0.70911247 -0.35057092 -0.39681187 -0.18538949 -0.41020304 0.67873955 -0.1923582 -0.016704263 -0.48765597 -0.28933448 -0.07927635 -0.3018129 0.1697205 0.31513345 -0.6544112 0.35953155 -0.28082347 0.1741235 -0.5885168 0.31083322 -0.34656882 0.18758532 -0.1258499 -0.06707317 0.19411546 -0.2829629 0.36898184 -0.26664117 0.35395855 0.5200707 -0.013889635 -0.012778228 0.051963553 0.49883372 0.014552084 0.20094338 -0.31333563 -0.24120188 -0.45761007 -0.2978787 -0.4313202 0.6475339 0.35604566 0.30030218 -0.40602925 0.39475322 -0.6619406 0.0047319448 0.5096183 0.07842758 -0.34785417 0.8067123 0.25727195 -0.29923296 0.05379687 0.41839558 -0.36131585 0.34649044 0.578989 -0.35650298 -0.45284295
96 -0.16747783 0.2523635 0.19856913 -1.0618279 -0.078227 -0.1851397 -0.6083857 -0.09363407 0.4172876 -0.16253981 -0.20591095 -0.20596868 -0.3472764 -0.09486088 0.24461386 0.43116462 -0.19670895 -0.288285 0.39118356 -0.71747285 -0.051717095 -0.42723826 0.053220436 0.3017907 0.5915413 -0.30679992 0.011110268 0.57323796 -0.10748609 -0.029721066 -0.28311017 0.45886266 0.3502891 0.18913718 -0.19250606 0.13275057 -0.08710276 0.021955725 0.4978625 0.058702428 -0.58856297 0.19128548 -0.11255585 -0.28126207 0.73168284 0.04096003 -0.3082174 -0.4387862 -0.2640374 -0.7307729 0.1545228 0.09160454 0.4941277 -0.7495885 0.39001954 0.51388675 -0.08944701 0.30944547 -0.015091003 -0.003903128 0.10051678 0.62457204 -0.23473072 0.10731546
31 -0.2542487 -0.10770919 -0.33554637 -0.8735127 -0.9018341 0.15922639 0.32737756 -0.03499824 0.57756287 -0.055753767 -0.59317356 0.27110678 0.3263145 0.4001999 -0.69676006 0.34169528 -0.46923667 0.32195902 0.25247958 -0.6976969 0.2136847 -0.29880437 0.33272216 0.30090502 1.035125 -0.40361825 -0.52898824 0.37220782 -0.14533521 0.12282431 -0.43453723 0.10842912 -0.08990924 0.50371706 -0.28957754 -0.069951296 0.09649743 -0.29536834 0.7626216 0.33985934 -0.7845892 0.2778916 -0.10437464 -0.28106847 0.7478893 -0.09452732 -0.339674 -0.41753393 -0.5471091 -0.4502684 0.31206226 -0.04445081 0.13466221 -0.9960162 0.1452749 0.19641267 0.59251696 0.16070877 0.36799923 0.40302113 -0.07840122 0.6625087 -0.030699844 0.5210818
135 -0.088285215 0.30076042 0.05253036 -0.040322345 -0.15352328 -0.1927428 -0.01395521 -0.076817475 0.6544797 -0.11899408 -0.22305033 -0.13875453 -0.5262712 0.059618436 -0.3503314 0.5055664 0.06500923 -0.3570371 0.11902789 -0.009525627 -0.20976417 -0.41306105 0.19930223 -0.14070092 0.038420573 0.07349224 -0.74531376 0.09881123 -0.43386766 0.40234414 -0.39472547 0.12309715 0.067570396 0.3489168 0.16812986 0.27331585 -0.18927933 -0.74234253 0.18010326 -0.3071502 -0.14551185 -0.05907462 0.031163255 -0.6432254 0.37639624 0.095434375 0.3657134 0.11141774 0.069845155 -0.3119601 -0.1041207 0.29762426 0.2120135 -0.34830362 0.49875256 -0.16367353 -0.26552942 -0.18014666 0.50179464 -0.13694796 -0.15265949 0.86000174 0.59024435 -0.02127712
68 -0.2864725 0.17338444 0.18785687 -0.8794426 -0.26445997 -0.50020707 -0.36075932 0.1943905 0.24328159 0.112535596 -0.34375882 -0.22638062 -0.27608657 -0.1469474 0.047337063 0.30615467 -0.33903903 0.20064335 0.30796754 -0.32725915 -0.03147022 -0.42602047 0.024428187 0.5223815 0.62912935 -0.44209716 -0.022364514 0.42152604 0.20065235 0.30710414 -0.44124088 0.22421904 0.26295674 0.43526593 -0.07745526 -0.092752784 -0.03121307 -0.07471217 0.4850479 0.085573904 -0.67527103 -0.16813155 0.09092277 -0.28866056 0.693403 0.03278042 -0.5570286 -0.24696638 -0.2652408 -0.3488901 -0.17313367 -0.06482479 0.19344272 -0.45889378 0.5316363 0.5243184 -0.02384876 0.45007172 0.34039828 0.09003265 0.03681264 0.49396902 -0.5081906 0.19491223
175 -0.16415693 -0.10689656 0.25251722 -0.5128445 -0.17192516 -0.43856674 -0.09408859 -0.33912334 0.09046756 0.16361685 -0.18515275 -0.4383534 -0.2610632 0.079748414 0.13150308 0.33549654 -0.20003274 0.38228032 0.47628146 -0.25631714 -0.39119375 -0.17735058 0.17508587 0.19668458 0.69233745 -0.49122855 0.28269175 0.2891274 0.55341136 0.9743695 -0.2864547 0.5663656 0.3604738 0.0398778 0.027598236 -0.05467158 0.06444866 0.3459317 0.39291087 -0.20222148 -0.34126133 -0.33991528 -0.20105127 -0.28113675 0.14294074 0.038914368 -0.56082195 -0.15406269 -0.5800992 -0.3445433 -0.18919107 -0.15846038 -0.017335694 -0.55979574 0.6186171 0.20418517 0.08478344 0.20032868 0.30933583 -0.1061166 0.44011348 0.34949574 -0.41802517 0.48068854
98 -0.27497703 0.31188816 0.20102775 -0.94866467 -0.34124514 -0.45294246 -0.5214482 0.22728576 0.28794807 0.36483982 -0.284747 0.079998605 -0.15896028 -0.20190336 0.14144568 0.29149932 -0.29609817 -0.07779551 0.24988183 -0.39039245 -0.057054695 -0.43791077 0.02014054 0.39242184 0.7128586 -0.538388 0.085041136 0.40908754 -0.017667582 0.14849284 -0.4052677 0.24888058 0.34819123 0.3922875 -0.0952008 0.10084144 0.19430108 -0.26137477 0.62105083 -0.029762806 -0.7240283 0.036950726 0.019671626 -0.21570592 0.70113045 -0.011577624 -0.48074958 -0.37197375 -0.28029782 -0.5516408 -0.16570549 0.020552328 0.4730495 -0.46161 0.46185946 0.6353858 0.07001688 0.48868257 0.29364318 0.103319064 -0.014778683 0.46906424 -0.40017387 0.40829062
173 -0.20362402 0.27677885 0.46342582 0.05630687 -0.5082866 0.024742281 -0.16779812 -0.19243756 0.62135863 0.020434706 -0.0027835518 0.23228657 -0.95668674 0.09850417 -0.121906206 0.60507244 -0.05653387 -0.26850107 0.40040612 0.32674107 -0.6454965 -0.06317388 0.5068586 0.51234937 0.5980687 -0.29524872 -0.9396906 -0.095726214 0.004491787 0.26770353 -0.37224007 0.33006603 -0.24852018 0.6301497 -0.23944241 0.04893536 -0.37742612 0.070292436 -0.09082861 -0.39606956 0.2523727 0.1878369 0.32252628 -0.531575 0.66624206 -0.26473352 0.16651076 0.006631133 -0.15105987 -0.13154982 -0.16497049 0.3978661 -0.26560372 -0.58771425 0.33641458 -0.08472104 -0.092545435 0.091811314 -0.27539283 -0.22527725 -0.17571153 0.88194025 0.32471874 0.13874996
57 -0.36552963 0.15992753 0.25860125 -0.81607187 -0.338708 -0.3395058 -0.11051432 -0.39053556 0.3266603 0.15031327 0.18222018 -0.40432042 -0.1265772 -0.12919894 0.22749873 0.4812979 -0.14895742 0.20799267 0.3574522 -0.49303243 -0.29507872 -0.26423037 0.1970561 0.07765672 0.83293307 -0.35048193 0.2037015 0.21992381 0.23093557 0.5740622 -0.30722532 0.43394172 0.07246294 -0.008963949 -0.18971533 -0.123087615 -0.015712313 0.5163461 0.7868898 0.09177432 -0.3107162 -0.408161 -0.3374656 -0.603848 0.2352117 0.17307822 -0.40031135 -0.0862111 -0.29347 -0.49457422 -0.4022719 -0.5928214 -0.019443965 -0.63240325 0.7937552 0.22006443 0.03345311 0.24809808 -0.21122622 0.07055573 0.22321036 0.47160596 -0.42801926 0.35497975
138 0.018860586 0.23154654 0.036653288 -0.6724005 -0.07144025 -0.62736994 -0.10563519 -0.4367036 0.4609098 -0.3944212 -0.044956423 -0.26920593 -0.52999955 0.1481572 0.011623742 0.13777263 0.03580901 -0.6022861 -0.019978888 0.28037754 0.31398648 -0.18022361 0.3686796 -0.2934233 0.2076769 -0.073199295 -0.4998008 0.3938923 -0.42025048 0.07188808 -0.2020326 0.14003862 0.10616574 0.02130864 -0.21781394 -0.089063145 -0.14609633 -0.3460413 0.42494756 -0.059242614 -0.40460283 -0.222801 0.28883004 -0.54751766 0.5337081 0.22531906 0.25736618 -0.4556045 0.336022 -0.6415954 -0.12621367 0.5781518 0.17067249 -0.3812084 0.42079994 0.2581208 -0.4223983 -0.08254809 0.22324924 -0.53078806 0.36270866 1.0292356 -0.018079786 -0.4938284
110 0.4045611 0.53160316 -0.074902065 0.3793309 -0.4511825 -0.034774985 -0.20379284 0.071742855 0.4103638 -0.13830145 -0.22868952 -0.07911066 -0.2037276 0.3787209 -0.42599106 0.52229095 0.037972298 -0.688077 0.43828166 -0.23268066 -0.47238982 -0.5748707 0.25441045 0.042026818 0.1993426 -0.1532339 -0.24853319 -0.018449634 -0.114636146 0.5575259 -0.2573782 0.025231421 -0.3235247 0.818845 -0.21121171 -0.38947198 -0.35706756 -0.40107363 -0.16505712 -0.5797623 -0.22981428 -0.22690976 0.03598067 -0.886704 0.17263515 0.2275842 0.22971271 -0.16099656 -0.7540776 -0.19465333 -0.31894767 0.25788313 0.23593852 -0.78918564 0.24387822 -0.015752068 0.02598506 0.00091127225 0.104282305 -0.3531669 0.14916609 0.7999242 0.43278944 0.09674272
165 -0.1109894 -0.081078194 0.14060457 -0.41834345 -0.47532916 -0.39904755 -0.0581746 -0.6820292 1.2061813 -0.023916654 -0.338609 -0.47862002 -0.041520163 0.6232614 -0.78340214 0.12307906 0.010119093 -0.21766604 0.14765349 -0.78901124 0.18186717 -0.41105595 0.16437629 -0.792338 0.046367243 0.12482613 -0.3104279 0.66956204 -0.28430578 -0.11732451 0.3446251 0.71982783 -0.13559441 -0.05054946 -0.02265262 0.6181268 0.14743653 -0.43834308 -0.10276821 -0.6483186 -0.1990633 -0.7101153 0.20193964 -0.4462433 0.8366768 0.122226395 0.30871546 -0.23471068 0.38204515 -0.27356288 0.12688985 0.71405494 -0.16364944 -0.62688375 1.1272888 -0.07137381 0.027803862 0.13408607 0.14340328 -0.22961508 0.4642172 1.0136873 0.06201176 -0.22508019
195 -0.20861976 0.24653372 0.02475302 -0.85743785 -0.17966525 -0.30665728 -0.57007974 -0.23937047 0.5186925 -0.4690401 -0.025071077 -0.25021654 -0.3377104 -0.1798094 0.0006441451 0.38526267 0.02785337 0.122374475 0.75170517 -0.48576966 -0.15233468 -0.64707583 0.25035194 -0.22680713 0.37323973 -0.35324958 0.20365937 -0.11156324 -0.22051382 -0.062434167 -0.4423675 0.4798849 0.09552825 -0.15135266 -0.06434877 0.21492036 0.26047507 0.29426682 0.55167943 -0.48751593 -0.33349773 -0.29837817 -0.027381387 -0.5406234 0.47840688 0.14626038 -0.040911663 -0.2678211 0.1006962 -0.6281545 0.0620851 0.2610835 0.15121682 -0.52255523 0.7819868 0.17818494 -0.35023403 0.11297218 0.31866217 -0.50514454 0.28172606 0.7982766 -0.2935781 -0.05776094
192 -0.29738528 0.30657852 0.26832065 -0.90511674 -0.11171882 -0.43793744 -0.3694744 -0.22428575 0.42655277 -0.3581713 -0.0010729097 -0.3784311 -0.26442477 -0.063168846 -0.05647892 0.19796568 0.1590777 -0.13975827 0.41178763 -0.4345535 -0.07636367 -0.52413183 0.20605351 -0.44101626 0.3281884 -0.13117531 0.09060581 0.014668484 -0.41898468 0.06207327 -0.43935516 0.5742602 0.28774098 0.06458011 -0.13066718 0.18633994 0.43220446 -0.032298833 0.39542675 -0.20311956 -0.26484135 -0.30842033 -0.17155494 -0.4728667 0.4415267 0.24731116 -0.053391583 -0.33360642 0.116062135 -0.54199433 0.18900427 0.41227186 -0.024536716 -0.5635438 0.9629822 0.2075196 -0.46065256 -0.14436366 0.29122895 -0.36463484 0.39948672 0.81199133 -0.43609738 -0.27447516
103 -0.2796873 0.1939445 0.21999957 -1.0055685 -0.34215826 -0.44721428 -0.3252296 0.29731405 0.118719004 0.16017818 -0.40492147 -0.057879593 -0.27979904 -0.16504109 0.059007883 0.29436162 -0.32845405 0.13410847 0.37577865 -0.28987652 -0.03509793 -0.42683333 -0.03956469 0.66270715 0.6914564 -0.38580495 -0.059151515 0.40254843 0.2213336 0.25678983 -0.41345397 0.21374097 0.2659283 0.4413802 -0.08207131 -0.10973997 0.09149769 -0.20617898 0.47553864 0.069062635 -0.6973263 -0.06414393 0.021988278 -0.3141593 0.6697632 -0.09530032 -0.48658937 -0.3126055 -0.16194749 -0.32087058 -0.23732561 0.056416135 0.24549776 -0.46126246 0.48435602 0.565814 0.117445104 0.501828 0.35322246 0.06582743 -0.05039497 0.5754616 -0.6794374 0.14698243
77 0.038467802 0.04289277 0.0727023 -0.22179477 -0.5338104 0.037750386 0.057385344 -0.5485253 0.45660442 0.08344193 -0.63556135 0.56812096 0.12835942 0.4166741 -0.2718331 0.12573051 0.040438537 0.46490237 -0.23252434 0.05924159 0.2573088 -0.33962172 0.04664832 -0.033599257 0.9612342 -0.10342156 -0.16702817 0.042500038 0.32649136 0.5818307 -0.13334613 0.9562674 -0.04211568 0.33219224 0.09573275 0.13684696 0.28907856 0.38786042 0.20292696 -0.12086167 -0.24886571 0.103144445 -0.14078015 -0.24614298 0.47471547 0.63068724 -0.10903466 -0.05346627 -0.2857101 -0.28005755 -0.19813219 -0.09002424 0.24563725 -0.006703177 0.6024362 0.34933802 -0.066968195 0.24344668 0.332341 0.29762927 -0.037271272 0.5088602 0.40625048 -0.64909184
194 0.3065846 0.426363 -0.24155192 -0.41722223 -0.31595102 0.7662644 0.2538249 -0.09543109 0.6191572 0.08551069 -0.40364408 -0.28178334 -1.1865093 0.61840516 -0.23574018 0.5506639 -0.08990123 -0.55580056 0.20106255 -0.22137429 0.0035255705 -0.5478842 -0.3026363 -0.46371067 1.0612668 -0.4490205 -0.508189 -0.2658745 0.01405164 0.09042918 -0.2580628 0.20969883 0.12400459 0.63781184 0.32837784 -0.07723867 -0.4280659 -0.25075027 -0.10203408 -0.51051635 -0.48807588 -0.20108618 0.28715125 -0.5282526 0.3901869 -0.53174734 -0.34005988 0.079607666 -0.78230894 -0.50303173 -0.75855094 0.3682221 -0.3894355 -0.006976503 0.5840556 -0.19552739 0.16149993 -0.42965516 0.13354613 -0.1827843 0.48094273 0.54836255 0.37221673 0.33627754
4 -0.42877465 0.55635387 0.31687498 -0.9912681 -0.3346514 -0.38896468 -0.35012195 -0.28760403 0.3910552 -0.36544606 0.1815746 -0.3030678 -0.3620704 -0.07076008 0.0011649122 0.22380753 0.033087175 -0.40954524 0.22283417 -0.29365036 0.296247 -0.49959606 0.33747262 -0.30562815 0.3065082 -0.13602804 -0.21520212 0.34725854 -0.40269783 0.16227274 -0.27595985 0.4440675 0.4393359 -0.05164733 -0.12040287 -0.0671476 0.28387567 -0.14916119 0.44367424 -0.18701944 -0.04327433 0.0454846 0.33326557 -0.28660855 0.5319899 0.2030183 0.0140056405 -0.04776698 0.31990921 -0.6741585 0.32473546 0.41275886 0.23359889 -0.33880284 0.76036835 0.14289798 -0.42101958 0.26291737 0.24850571 -0.37565228 0.2203241 0.85662633 -0.1872076 -0.10295563
39 -0.37937152 0.2587594 0.16122487 -0.96846473 -0.13220641 -0.45576492 -0.2940713 -0.264686 0.25208515 -0.06949957 -0.040167976 -0.21185292 -0.19021456 -0.043588165 0.1899258 0.0034592014 -0.17977935 0.38728273 0.43341738 -0.30154756 -0.16033578 -0.26568937 0.18881856 0.10476212 0.76401097 -0.42625776 0.14021614 0.14064097 0.38625336 0.61906034 -0.3052478 0.52892405 0.30837247 0.15356243 -0.21922538 -0.03776846 0.11577337 0.3383026 0.6282505 -0.1314791 -0.41170076 -0.38224635 -0.24956256 -0.43153554 0.16507117 -0.025487367 -0.36879084 -0.2683662 -0.4223527 -0.6303041 -0.29557663 -0.23001441 0.09461675 -0.761011 0.67965364 0.13980925 0.12899499 0.14746481 -0.021267142 0.03008914 0.04825128 0.3632835 -0.27174208 0.48870513
17 -0.3856904 0.27572125 0.18744504 -0.91648334 -0.16435659 -0.35893968 -0.48216447 -0.396152 0.3066318 -0.46272582 -0.13522199 -0.30110574 -0.3514648 -0.15479437 -0.18437849 0.3023724 0.11476034 0.015584312 0.71258986 -0.45306107 -0.24554521 -0.34770498 0.18577966 -0.39202753 0.3818932 -0.28946054 0.19768411 -0.09741906 -0.2942287 -0.0645514 -0.50897956 0.55372953 0.297071 -0.044539087 -0.15369701 0.17932776 0.42781135 0.0017981558 0.49340236 -0.43591884 -0.3468596 -0.316633 -0.124082305 -0.66038436 0.42310846 0.14307159 0.036145397 -0.26387325 0.1130119 -0.56921464 0.071903564 0.4794984 -0.030986808 -0.47712725 0.92332083 0.31881467 -0.32849866 0.20425808 0.24521124 -0.24509183 0.3549108 0.7816366 -0.4246825 -0.09615398
89 0.022991218 -0.04296587 -0.097369745 0.027258353 -0.4298597 0.007302384 0.18458521 -0.1981575 0.36703148 0.04590092 -0.7110379 0.4956061 0.38943362 0.46669817 -0.48484626 0.21072601 0.21851593 0.28639674 0.1371717 0.09729549 0.28252548 -0.5405144 -0.34297913 -0.28094572 0.8395872 -0.0012995505 -0.3931079 0.10351874 0.2899254 0.43616787 -0.12732194 0.86132747 0.13041115 0.73401326 0.25986058 0.105245195 0.49458823 0.5711051 0.26288328 -0.44890654 -0.08548407 0.29283112 -0.11094176 -0.5621774 0.82705915 0.5278134 -0.008944235 -0.24630342 -0.236745 -0.5081286 -0.20865406 -0.36108175 0.07740714 0.05664846 0.6036782 0.087207384 -0.050932333 0.42350593 0.13207026 -0.049153317 0.17651804 0.5798241 0.06800856 -0.47153822
35 -0.46683848 0.5836165 0.36047468 -0.15225045 -0.7393744 -0.088041864 -0.28038573 -0.38659772 0.4546156 0.35181984 0.33495772 0.39872462 -0.28852385 0.3231537 -0.15196492 0.2495281 0.197912 -0.31260335 0.58354115 -0.24669181 -0.72856075 -1.2069346 0.42077816 -0.029129123 1.1095833 -0.15908751 -0.96789485 -0.9633864 0.001161584 -0.18936455 0.2189363 0.17537893 0.25354362 0.45278415 0.26055288 -0.6254984 -0.109757595 0.42623073 0.23146702 -0.70681256 -0.42355564 0.23264399 -0.3394602 -0.4986609 0.2066327 0.03392537 0.6171355 -0.5219532 -0.21517085 0.08258368 -0.37031707 0.2190444 0.20245709 -0.97010887 0.7699395 -0.010853526 0.02128462 0.31614843 0.27151138 0.6075789 -0.66922045 1.5102204 0.32998654 -0.18606533
132 -0.66451466 0.2515955 0.13136077 -0.01667205 -0.36076048 0.005994352 -0.067659944 -0.18420881 0.5640732 0.3731024 0.36429262 -0.012814478 -0.40394714 0.056365915 -0.2818081 0.28484902 -0.3281389 -0.60044754 0.10234775 0.3621929 -0.22227274 -0.6765087 0.61893934 0.117044635 0.77896917 0.022194052 -0.6805035 -0.106736585 0.0019667828 0.61308765 -0.17733873 0.13953277 -0.15773071 0.6130518 -0.3832397 -0.13045399 -0.49140492 -0.2568198 0.2865364 -0.3975831 -0.03350056 -0.26294056 0.21264708 -0.74709177 0.47206718 0.06033912 0.27146935 0.20591547 -0.3046686 -0.35019177 -0.27021208 0.47358045 -0.06712762 -0.66440624 0.082923464 -0.13569024 0.013920486 0.16552709 -0.11336342 -0.29507294 -0.19209534 0.7794672 0.5525336 -0.0072298255
58 0.35560697 0.8071988 -0.06424124 -0.22339228 -0.24604458 0.099476494 -0.036275916 -0.29357526 0.7848755 0.28650874 -0.31440312 0.15569788 -0.8859135 0.49941623 -0.45765495 0.49306846 -0.6212295 -0.31080082 0.13942613 -0.17237128 0.09033377 -0.43182886 0.03846224 0.06587279 0.043539077 -0.23866616 -0.0273303 0.84477204 -0.11016121 0.65328795 -0.34081346 0.123338684 -0.17559247 0.6746992 -0.029457504 -0.23383185 0.012662536 -0.2684458 0.29152563 0.029207375 -0.024731545 -0.21630228 0.08690398 -1.0354915 -0.021326402 -0.056863356 -0.057913736 0.03575626 -0.5089722 0.25006646 -0.51717633 0.25155196 -0.37436312 -0.7987248 0.3799874 -0.19894694 0.54891294 -0.076214656 0.03279109 -0.1878317 -0.09840869 0.44069478 0.04376876 0.2726247
186 0.18348192 0.2665335 -0.113504924 -0.09574132 -0.47277036 -0.4056518 -0.006115723 -0.5595672 0.20971006 0.26116252 -0.58091193 0.66190654 0.44660738 0.40159246 -0.72415996 0.17844763 0.5115071 0.13682486 0.08169239 -0.18317072 0.40437248 -0.7483867 -0.6416335 -0.356963 0.6418604 0.26360792 -0.42666996 -0.3338597 0.2849876 0.5545969 -0.21585566 1.0186074 0.35570922 0.98511326 0.13879748 -0.17972185 0.2363756 0.4800964 0.33704823 -0.35413796 -0.14504045 0.32105955 0.16644588 -0.8075413 1.0613308 0.12015394 0.22381571 -0.39637354 -0.45088598 -0.7312305 0.14292608 -0.42505485 -0.43630323 0.105456054 0.70561814 -0.05775301 -0.15823378 0.41132265 0.104434386 0.01819256 -0.045257393 0.84506106 0.030962987 -0.7428595
32 -0.25094932 0.10585275 0.14316846 -0.8505465 -0.16190907 -0.324618 -0.47910196 0.10412595 0.5290512 0.0602346 -0.28708386 -0.07540823 -0.2122375 -0.16841526 0.3736014 0.28596935 -0.2730748 -0.378448 0.37668988 -0.50959224 -0.06951486 -0.45971468 -0.02938959 0.23553683 0.6178105 -0.26444858 0.20379214 0.7466263 0.12586847 0.13568422 -0.2332509 0.34350938 0.21773496 0.2516755 -0.19519176 0.10649005 0.020125452 -0.15858589 0.771359 -0.03644893 -0.45981178 0.16769436 0.015737262 -0.33779636 0.68270123 0.029598374 -0.2922196 -0.29292783 -0.1687396 -0.5813492 0.13194652 -0.016551517 0.41813123 -0.8481318 0.6363364 0.49005544 -0.0045642043 0.5055758 0.17807533 0.14964086 0.035131585 0.47878176 -0.3830339 0.27026358
143 0.52299875 0.6459195 -0.17304537 -0.39915934 -0.3612515 0.11198182 0.1992825 -0.17159177 0.48194546 0.28525272 -0.28384435 0.04338503 -0.8847284 0.53760403 -0.2931996 0.12276904 -0.6261204 -0.33525094 0.073163666 -0.3178521 0.13327146 -0.1881946 0.03232401 0.25404945 0.5141296 -0.23562093 -0.105982125 0.47117415 0.054355994 0.48614147 -0.5041117 0.4514548 -0.1598098 0.8789006 0.08782159 -0.41297868 0.041578304 -0.3419581 0.16576622 0.14748444 0.22181435 -0.26671195 0.18600707 -0.78225374 0.17657389 -0.09782113 -0.36441934 0.49876627 -0.525847 0.048747268 -0.24180575 -0.08492194 -0.13413857 -0.80241334 0.40570143 -0.07200313 0.31682995 -0.07128451 0.06801727 -0.04016501 0.075998366 0.28513265 0.39660832 0.22576964
34 0.12502539 0.0875952 -0.13671465 0.067622334 -0.42729062 -0.19148919 0.03206049 -0.36221337 0.23791526 0.11497307 -0.545531 0.6951671 0.42272282 0.35390025 -0.5834967 0.31499547 0.4071023 0.5826212 0.11941604 0.038931757 0.44667944 -0.8234808 -0.30919388 -0.1739942 0.7753421 0.1674953 -0.25278902 -0.035007503 0.24652843 0.49036524 -0.08513145 0.9150805 0.14732605 0.846658 0.39943168 -0.16509625 0.654796 0.39904425 0.2504304 -0.44344804 0.07605806 0.15778948 0.10766225 -0.5200337 0.74626803 0.48318714 0.084858455 -0.30381134 -0.35807553 -0.48934597 -0.020120727 -0.14501573 -0.25588518 0.05039163 0.6765736 -0.07446527 -0.2668667 0.3651761 0.2060573 0.0125880875 0.27292225 0.8300694 -0.03269097 -0.4384222
24 0.13973472 -0.016491558 -0.0179129 -0.049846664 -0.10205244 0.13708942 0.021879159 0.27437755 0.8532566 0.15823965 -0.007115287 -0.030022051 -1.2431896 -0.088081785 -0.24917671 0.5040657 -0.5140203 -0.40402314 0.11521403 -0.11466736 -0.30660263 -0.35209957 0.02467346 0.2268439 0.5559331 -0.3653001 -0.49063292 0.32360557 -0.07659536 0.47671196 -0.35218474 0.31358564 -0.1910258 0.5651941 0.08543051 0.09577086 0.10326874 0.007379245 -0.12401462 -0.49082297 0.031831305 0.08950201 0.024108792 -0.34676588 0.1713382 -0.40183663 0.20979536 -0.48730114 -0.26609448 -0.14813475 -0.34768456 0.35120115 -0.63212496 -1.1103792 0.30478394 0.4564682 0.36906362 -0.27308822 0.068974346 -0.14262658 -0.0041868994 0.57357246 0.34508628 0.10976394
38 0.051256113 0.1795361 0.08371399 -0.676121 -0.26714957 -0.16412042 -0.20913893 -0.57111454 0.86405355 -0.33096045 -0.098297276 -0.37645715 -0.26401907 0.14211641 -0.36082995 -0.051245365 0.3803783 -0.4522752 0.15964451 -0.08870345 0.27690423 -0.6856794 0.12923244 -0.36676455 0.26606625 0.25962836 -0.17726856 0.28696176 -0.41493988 0.23681763 -0.25425038 0.25843543 0.5081661 0.23545398 -0.42595747 0.11940347 0.15447617 -0.0030042618 0.2512657 -0.39147907 -0.06893094 -0.5284077 -0.3714549 -0.46718702 0.62272865 0.28350836 0.3364727 -0.1064291 0.47149852 -0.54146427 0.12864108 0.6403935 -0.26302332 -0.42727864 0.42864078 0.30491793 -0.399805 -0.12939833 0.3350567 -0.44425234 0.36757812 0.833705 -0.21648265 -0.044440754
